tree
version=v4
num_class=3
num_tree_per_iteration=3
label_index=0
max_feature_idx=86
objective=multiclass num_class:3
feature_names=return hl_ratio close_pos volume_change rsi macd_line macd_signal macd_hist atr channel_width_3x channel_position above_upper_1x above_upper_2x above_upper_3x below_lower_1x below_lower_2x below_lower_3x atr_slope ema_diff price_ema30 price_ema60 ema30_slope ema_cross hour_sin hour_cos dow_sin dow_cos ret_mean_10 ret_std_10 ret_mean_20 ret_std_20 ret_slope_10 ret_slope_20 ret_lag1 ret_lag2 ret_lag3 ret_lag4 ret_lag5 rsi_lag1 rsi_lag2 rsi_lag3 atr_lag1 atr_lag2 atr_lag3 atr_std_10 up_atr_ratio down_atr_ratio atr_asymmetry m15_ema_bias m15_rsi h1_ema_bias h1_rsi h1_macd_sign h4_ema_bias m15_h1_trend_align m5_m15_dir_align rsi_oversold rsi_overbought bullish_divergence bearish_divergence support_distance resistance_distance volume_surge price_ema50_distance reversal_candle bullish_engulfing bearish_engulfing atr_expansion ret_1 ret_2 ret_3 close_mean_10 close_std_10 close_skew_10 close_kurt_10 close_mean_20 close_std_20 dxy_x_volume rsi_x_hl_width macd_x_atr ema_bias_x_volume dxy_return us10y_chg vix_chg has_double_top has_double_bottom adx_norm
feature_infos=[-0.021357076350093134:0.014491978200885139] [1.8130065086917173e-05:0.030487662942271936] [0:1] [0.10774968918358889:4.0191877794336817] [0:0.99912357581069311] [-0.010869997833866349:0.011817707265495614] [-0.010003760544744887:0.010138380514864903] [-0.0044850092226753633:0.0034248293430425274] [0.0010000000000000278:0.0096267523288877128] [0.0059761894054166723:0.058284889470714842] [-0.95149860413512155:2.0309200880132527] [0:1] [0:1] [0:1] [0:1] [0:1] [0:1] [-0.65907595103329764:7.2393867924520778] [-0.011370949960415645:0.011951004541572141] [-0.039553821114877721:0.040917624484288817] [-0.043014297651875186:0.051233654562587196] [-0.010094777336720633:0.010410891149312635] [-1:1] [-1:1] [-1:1] [-0.97492791218182362:0.97492791218182362] [-0.90096886790241903:1] [-0.0052887122500275222:0.0040960738491671806] [0.00018114020940294197:0.0091400855760819036] [-0.0028124568001716517:0.0028727473471361407] [0.0003032706740080858:0.0071158757950082101] [-0.0020658605603524434:0.0021421078211965421] [-0.0010803493446739038:0.0010028712815611913] [-0.021357076350093134:0.014491978200885139] [-0.021357076350093134:0.014491978200885139] [-0.021357076350093134:0.014491978200885139] [-0.021357076350093134:0.014491978200885139] [-0.021357076350093134:0.014491978200885139] [0:0.99912357581069311] [0:0.99912357581069311] [0:0.99623149394347577] [0.00028936504895893492:0.0096267523288877128] [0.00026294590609943582:0.0096267523288877128] [0.00025832934864534806:0.0096267523288877128] [9.3214224672968525e-06:0.0028756046477667074] [9.6483536893489957e-05:0.0058414837400999767] [0.00010445196635643825:0.0058396736469213568] [-0.86658031088083198:0.86548172086447661] [-0.035211440175771713:0.049061127007007599] [0.0025510203558951616:0.9982026219367981] [-0.050590086728334427:0.048568926751613617] [0.0060629025101661682:0.98658257722854614] [-1:1] [-0.084717914462089539:0.057603783905506134] [0:1] [0:1] [0:1] [0:1] [0:1] [0:1] [0:0.06440221213714066] [0:0.060089168424823813] [0:1] [-0.042112146285594378:0.04867068946289968] [0:1] [0:1] [0:1] [0:1] [-0.02209687736233068:0.016949691029530811] [-0.026267850704176032:0.036909269584486815] [-0.063177120288662847:0.047708823233936326] [0.97342770205740614:1.0363994767199858] [0.00015414816694435803:0.017603384450485284] [-3.1542373574390976:3.1523464301456121] [-2.5518850305470471:9.9629651127043495] [0.96297335514869742:1.0420027353273473] [0.00025479978770396873:0.01810286703317671] none [0:0.016409521617901539] [-3.1432685797839937e-05:2.2935163347998844e-05] [-0.043191645709722233:0.06262460150070534] none none none [0:1] [0:1] [0.044337244133257167:0.99625681562844048]
tree_sizes=3427 3471 3260 3518 3434 3106 3509 3540 2974 3526 3391 3312 3492 3556 3550 3575 3550 3109 3571 3392 3445 3522 3541 3116 3580 3543 3121 3496 3549 3281 3588 3563 3220 3510 3414 3217 3572 3315 3323 3552 3546 3424 3516 3196 3320 3539 3364 2576 3599 3195 3455 3513 3545 3214 3584 3556 3379 3537 3504 3452 3592 3533 3092 3496 3528 3245 3565 2019 2539 3599 3455 2644 3542 1914 3097 3543 2050 2312 3582 3412 2871 3539 2010 2432 3479 3545 3105 3540 2005 2438 3469 2974 3260 3390 3211 2528 3574 1885 2387 3534 3578 3305 3558 3322 2667 3587 2032 2933 3588 3407 2975 3550 3200 2338 3467 3418 3543 3603 2011 2498 3458 3401 2628 3492 3507 2380 3497 2035 2739 3246 3320 3542 3523 2013 2317 3553 2830 2893 3500 3325 2299 3581 3220 2613 3590 2013 2666 3481 3223 2981 3557 3168 2415 3497 3533 3108 3540 3422 2552 3551 3535 2656 3596 3564 2844 3534 3143 2627 3585 3426 3180 3496 3576 2409 3588 3518 2378 3476 3115 3568 3574 3538 2496 3571 3094 3574 3543 3397 3077 3427 3420 3510 3573 3277 3075 3543 2045 2818 3542 3485 3528 3516 2023 2810 3521 3392 3547 3572 3531 3560 3607 2022 2952 3536 3073 3312 3472 1904 2417 3569 3082 3538 3592 3269 3524 3574 3540 2965 3574 3031 2753 3498 3480 2958 3578 3584 2666 3459 3549 2835 3476 1992 3244 3568 3194 2560 3570 2020 3551 3440 3140 3561 3479 3605 3289 3493 2029 3542 3529 3561 3410 3546 2587 3536 3551 2956 3319 3539 3564 3056 3191 2013 3544 3502 3110 3546 3511 3210 2515 3569 2030 2411 3523 3419 3548 3547 3473 3543 3499 3594 2988 3528 2895 3306 3524 3558 2835 3586 2907 2651 3329 2148 2857 3572 2150 3540 3411 3339 2795 3588 3033 3534 3519 3594 2998 3507 2151 3079 3512 2476 2491 3581 3015 3039 3500 3574 3521 3552 3380 3559 3592 3363 2620 3509 2120 3563 3574 3599 3290 3493 3343 3571 3558 3538 3525 3512 3553 2445 3497 2840 2413 3579 3553 3527 3511 3478 3093 3570 1783 3525 3505 3559 3533 3501 3171 3371 3525 3032 3540 3563 3570 2716 3590 3546 3040 3498 3522 3537 3559 3392 3268 3495 3321 3445 3514 2154 3302 3421 3211 3520 3534 2157 3246 3097 3331 3284 3500 3042 2905 3497 2120 3050 2955 3551 3049 3558 2800 3541 3506 2928 3395 3538 2734 2778 3533 3540 3514 3486 2755 2722 3571 2922 2939 3538 2646 3306 3534 3185 3540 3554 3393 3149 3505 2925 3434 3496 3201 2582 3542 3315 3558 3522 2517 3505 3518 3423 3179 3548 3136 2562

Tree=0
num_leaves=31
num_cat=0
split_feature=24 62 24 24 53 30 43 42 24 23 86 53 26 60 86 27 50 79 51 43 75 30 43 9 53 53 51 78 6 69
split_gain=595.582 115.528 113.372 77.6086 70.6408 58.4744 26.4817 25.523 17.1969 15.9196 15.4405 13.6041 12.5805 10.287 17.7439 14.2849 9.4444 8.74841 6.57904 13.6984 6.35705 5.70869 5.65585 5.15124 4.53363 5.53295 4.88099 3.58622 2.12541 2.01428
threshold=-0.37940952255126015 1.0000000180025095e-35 -0.12940952255126037 -0.9159756150367534 -0.021507562138140198 0.0010537872844594844 0.0012837370784950914 0.00198927164538111 0.37940952255126048 0.37940952255126054 0.62049727357753193 0.0053078024648129949 0.81174490092936691 0.001947817000134568 0.45326193857127489 0.00025008288669561932 -0.011661310680210589 2.3610334413594337e-07 0.53552138805389415 0.00091548164309690732 0.9988493533539673 0.0027705604912855179 0.0019210615975631523 0.009016967952547127 0.0016168107395060363 0.0082891047932207602 0.26493100821971899 0.00026044759947509507 -0.0023723084946133395 0.0013483028374072228
decision_type=2 2 2 2 2 2 2 2 2 2 2 2 2 2 2 2 2 2 2 2 2 2 2 2 2 2 2 2 2 2
left_child=3 2 6 13 8 -6 17 9 -4 23 -11 -8 22 24 20 -16 28 -2 29 -20 -15 -18 27 -5 26 -26 -1 -3 -9 -14
right_child=1 12 4 7 5 -7 11 16 -10 10 -12 -13 18 14 15 -17 21 -19 19 -21 -22 -23 -24 -25 25 -27 -28 -29 -30 -31
leaf_value=-2.1962860203099974 -2.2011936657590994 -2.1927216903892406 -2.191624273721223 -2.2079746127383189 -2.1894882667276474 -2.1818392619785514 -2.1913569279941143 -2.199816082597124 -2.2053799770099776 -2.2040752206584608 -2.1910136305320767 -2.1973981610440778 -2.2039404490424785 -2.2031859893581101 -2.1850730698018745 -2.1992498713275737 -2.1973981610440778 -2.1940505051606713 -2.2051697322037547 -2.1785706369032156 -2.1965276366287356 -2.1790565119309875 -2.1946252765533059 -2.2050902005416773 -2.1860203716561095 -2.2011958656979624 -2.2065758066491781 -2.2062943709347187 -2.2126847624106398 -2.1936267940142979
leaf_weight=46.690583132207394 860.89844986796379 13.390167038887737 114.87953431904316 3103.7766979150474 3478.3187536261976 1237.7319431118667 885.85390930995345 25.752944096922874 254.39538895711303 665.88817637786269 88.018858030438423 549.09435395523906 58.747908111661673 188.53621460497379 194.68098187446594 88.493940323591232 308.38141994923353 181.02701538056135 24.256980650126934 42.228041786700487 377.13511050492525 13.193876676261423 37.411935459822416 842.99663306027651 28.091620590537786 65.938035447150469 176.63326674327254 562.15811793878675 41.566587761044502 17.303915731608868
leaf_count=272 4481 87 724 13862 22583 9078 5574 134 1203 3254 562 3091 283 936 1365 476 1737 1089 110 334 2161 110 226 4027 200 339 810 2609 156 109
internal_value=-2.1974 -2.19214 -2.19102 -2.20439 -2.18846 -2.18747 -2.1963 -2.20599 -2.20101 -2.2066 -2.20249 -2.19365 -2.20329 -2.1974 -2.19568 -2.18958 -2.1985 -2.19992 -2.19546 -2.18862 -2.19871 -2.19642 -2.20516 -2.20737 -2.20199 -2.19676 -2.20431 -2.2059 -2.2085 -2.20116
internal_weight=14573.5 8317.7 7562.2 6255.77 5085.33 4716.05 2476.87 5089.58 369.275 4700.68 753.907 1434.95 755.497 1166.2 848.846 283.175 388.895 1041.93 142.537 66.485 565.671 321.575 612.96 3946.77 317.354 94.0297 223.324 575.548 67.3195 76.0518
internal_count=81982 51581 47823 30401 33588 31661 14235 23842 1927 21705 3816 8665 3758 6559 4938 1841 2137 5570 836 444 3097 1847 2922 17889 1621 539 1082 2696 290 392
is_linear=0
shrinkage=1


Tree=1
num_leaves=31
num_cat=0
split_feature=12 24 53 76 24 6 53 50 30 24 53 25 30 48 53 53 50 24 25 49 47 61 61 43 53 7 25 60 60 47
split_gain=79.5018 116.471 97.5762 67.9592 62.5509 51.9925 48.5241 50.2732 38.4331 45.3034 37.3874 24.6425 24.129 32.8555 27.2369 25.3232 34.0143 23.5383 23.4189 21.641 25.9113 20.9761 18.6411 16.2449 13.6255 15.9517 12.8885 11.7129 11.4129 10.1782
threshold=1.0000000180025095e-35 -0.37940952255126015 -0.0077393928077071896 0.004580647451131562 0.98296291314453421 -0.0021558009941921499 -0.015816105529665943 -0.0078932829201221449 0.00066154869002999113 0.91597561503675351 -0.0092906537465751154 1.0000000180025095e-35 0.0015595134026874541 0.0084765404462814348 0.0083858612924814242 0.018492694944143299 0.0085610081441700476 0.25881904510252057 0.87837969732492682 0.27768978476524359 -0.1132651614862938 0.0026933864544630118 0.0023318829125001874 0.0028930650392454886 0.0037341264542192225 -0.00024904213856603066 0.6078576107927941 0.015244636924453712 0.022044992307076058 0.11070780399275708
decision_type=2 2 2 2 2 2 2 2 2 2 2 2 2 2 2 2 2 2 2 2 2 2 2 2 2 2 2 2 2 2
left_child=1 3 8 6 5 -4 11 -8 10 -10 -3 -1 13 15 17 16 -2 -15 -17 26 -21 -6 23 29 -24 -26 -5 -16 -25 -14
right_child=12 2 4 19 21 -7 7 -9 9 -11 -12 -13 22 14 27 18 -18 -19 -20 20 -22 -23 24 28 25 -27 -28 -29 -30 -31
leaf_value=-0.79832720895286524 -0.80672973558575223 -0.79626122860921589 -0.82567163601051941 -0.84018144694243968 -0.82690395469250322 -0.81393663536346561 -0.81668308901885323 -0.80899611829172013 -0.81072218402129159 -0.79808367216414955 -0.82093845320411007 -0.80678222479251283 -0.81631856791169444 -0.80158528413118058 -0.81109190704100853 -0.79926983562048337 -0.81413605589663296 -0.82876397005294256 -0.81714585070837964 -0.78195168083268174 -0.82438499637559493 -0.78020112805992758 -0.79944482996547028 -0.83290594171289056 -0.78687332310565117 -0.82265432078651524 -0.81878237916466567 -0.8346597550895889 -0.80166033987214858 -0.78877269835958563
leaf_weight=513.65285966545343 3017.8191035687923 343.92542519420385 347.76669862121344 87.000716231763363 7.209279738366603 13096.993558488786 816.70126393437386 11370.167896017432 3611.094349808991 271.30196206271648 62.029576867818832 826.86549560725689 9.9762338921427709 98.104014836251736 27.856938168406487 532.02365490049124 677.83849485218525 36.838797800242901 71.020885981619358 16.009450480341911 37.630733720958233 60.774354852735996 77.260127499699593 11.652801230549811 10.079805806279181 66.670792706310749 45.535358123481274 82.956903874874115 34.282458551228046 171.92814669013023
leaf_count=985 6615 695 1029 209 31 33213 1639 22089 8723 611 145 1489 31 223 58 982 1577 93 131 36 73 146 173 27 25 178 97 189 81 389
internal_value=-0.810689 -0.811243 -0.812844 -0.809167 -0.814096 -0.814246 -0.808915 -0.809515 -0.808907 -0.809838 -0.800153 -0.8035 -0.807146 -0.807768 -0.818337 -0.807152 -0.808098 -0.809454 -0.801446 -0.827009 -0.810689 -0.786052 -0.7999 -0.794479 -0.808267 -0.81686 -0.833393 -0.829166 -0.810689 -0.790512
internal_weight=36441 31514.7 17801.1 13713.6 13512.7 13444.8 13527.4 12186.9 4288.35 3882.4 405.955 1340.52 4926.31 4544.46 245.757 4298.7 3695.66 134.943 603.045 186.176 53.6402 67.9836 381.85 227.84 154.011 76.7506 132.536 110.814 45.9353 181.904
internal_count=81982 71210 44593 26617 34419 34242 26202 23728 10174 9334 840 2474 10772 9868 563 9305 8192 316 1113 415 109 177 904 528 376 203 306 247 108 420
is_linear=0
shrinkage=1


Tree=2
num_leaves=29
num_cat=0
split_feature=71 50 53 53 50 61 47 17 30 50 86 50 51 5 86 51 51 53 50 18 50 39 50 40 26 61 5 26
split_gain=105.241 41.5674 53.3915 42.3902 56.2589 40.8052 40.279 37.1251 34.1291 59.8473 49.2042 40.8592 46.1618 31.5513 31.0553 30.6184 28.4898 27.7015 66.5265 43.7437 36.5649 30.7091 23.4399 23.1211 21.4848 19.634 17.9567 14.8125
threshold=0.99995940275738693 -0.015870432369410988 -0.0077393928077071896 -0.0052522914484143248 -0.0182000333443284 0.015993897259427532 0.14174165815809317 0.0016008712245284961 0.0010495311523403045 -0.0038600220577791329 0.59552700584481955 -0.0065203537233173839 0.36590167880058294 0.0023973981523578536 0.34547201945721911 0.7091163992881776 0.23717183619737628 0.00850900122895837 0.0040139292832463988 0.0041799158927011103 0.0035020710201933984 0.54273681597333001 0.022998519241809848 0.7851711026615914 -0.22252093395631442 0.0032007824461081379 -9.4458597767501564e-05 0.81174490092936691
decision_type=2 2 2 2 2 2 2 2 2 2 2 2 2 2 2 2 2 2 2 2 2 2 2 2 2 2 2 2
left_child=8 3 5 4 7 15 16 -2 9 11 13 12 -1 -11 -13 -3 -4 18 20 21 -10 -19 -21 -12 -20 -8 -6 -7
right_child=1 2 6 -5 26 27 25 -9 17 10 23 14 -14 -15 -16 -17 -18 19 24 22 -22 -23 -24 -25 -26 -27 -28 -29
leaf_value=-0.81459721862196399 -0.79850859635954319 -0.8127971283619374 -0.8031979086976101 -0.83762330443553057 -0.78415254466791828 -0.83231693273759388 -0.81123024768982765 -0.81714659094778286 -0.81476062983058672 -0.81030673407260956 -0.81314245990134626 -0.81498559543911775 -0.799291788533113 -0.78457753065564506 -0.82420980533338428 -0.79626413630469139 -0.80882703609527107 -0.8177629054127955 -0.81841100163191749 -0.8128084594581152 -0.78983719782186945 -0.80856009450382127 -0.77665410256776091 -0.82153372483672371 -0.82928070082909333 -0.81874112838348989 -0.82358589073330057 -0.80459675660442176
leaf_weight=1199.281459890306 217.08937974274158 3617.2929121553898 871.3321198374033 24.997445248067379 173.00946003198624 123.00451572984457 949.23143737018108 165.96202403306961 2502.36739923805 9027.8426373228431 754.26163467764854 666.28680389374495 204.64045113325119 40.190449006855488 676.02350471168756 100.43872403353453 11997.13017180562 585.7626198977232 307.11482920497656 21.532597407698631 50.857658423483372 724.11235801130533 45.321999944746494 497.48974922299385 399.21772270649672 470.78830982744694 8.299516409635542 16.889051117002964
leaf_count=2803 392 7808 1948 71 338 293 2267 308 6027 19822 1833 1383 434 78 1530 226 26631 1583 757 64 109 1605 81 1179 1087 1273 14 38
internal_value=-0.811128 -0.809561 -0.809819 -0.801732 -0.799958 -0.812945 -0.808972 -0.806645 -0.812787 -0.811999 -0.810954 -0.815932 -0.812324 -0.810181 -0.819672 -0.812331 -0.808442 -0.814999 -0.816505 -0.811407 -0.814228 -0.812658 -0.7883 -0.816518 -0.824648 -0.813752 -0.786294 -0.828694
internal_weight=36437.8 18735.5 18146.1 589.358 564.36 3857.63 14288.5 383.051 17702.3 13066 10319.8 2746.23 1403.92 9068.03 1342.31 3717.73 12868.5 4636.29 3259.56 1376.73 2553.23 1309.87 66.8546 1251.75 706.333 1420.02 181.309 139.894
internal_count=81982 41607 40484 1123 1052 8365 32119 700 40375 29062 22912 6150 3237 19900 2913 8034 28579 11313 7980 3333 6136 3188 145 3012 1844 3540 352 331
is_linear=0
shrinkage=1


Tree=3
num_leaves=31
num_cat=0
split_feature=24 62 24 24 50 76 43 42 23 6 42 60 27 50 79 1 45 43 74 76 41 49 29 17 25 23 29 24 49 46
split_gain=569.591 110.292 107.621 75.5891 56.0456 44.6523 25.26 24.7394 15.6244 10.5905 10.0053 9.88211 13.8 9.26085 8.4428 8.03681 7.6496 7.25826 6.45624 5.72397 5.50719 4.8058 7.24902 4.75364 3.66996 3.11476 3.3584 3.05351 2.77704 2.73019
threshold=-0.37940952255126015 1.0000000180025095e-35 -0.12940952255126037 -0.9159756150367534 -0.020290754735469815 0.0015566630447573701 0.0012837370784950914 0.00198927164538111 0.37940952255126054 1.0000000180025095e-35 0.0023559911018421176 0.001947817000134568 0.00025008288669561932 -0.011661310680210589 2.3610334413594337e-07 0.0010396715889621534 0.00077334037736039799 0.0011056496730743896 0.43738946533443929 0.004209049809462421 0.0015150233089733774 0.48144951462745672 -5.1871544818942387e-05 0.031722446013849277 1.0000000180025095e-35 0.60355339059327384 0.0005190692962110734 0.78656609248549303 0.21015540510416034 0.00095052889769658316
decision_type=2 2 2 2 2 2 2 2 2 2 2 2 2 2 2 2 2 2 2 2 2 2 2 2 2 2 2 2 2 2
left_child=3 2 6 11 19 -6 14 8 20 -8 15 21 17 28 -2 27 -10 -13 -15 -4 -5 29 -23 -14 -17 26 -12 -3 -9 -1
right_child=1 10 4 7 5 -7 9 13 16 -11 25 12 23 18 -16 24 -18 -19 -20 -21 -22 22 -24 -25 -26 -27 -28 -29 -30 -31
leaf_value=-0.0065399729084385629 -0.0037425570869839002 4.8568372255836914e-05 -0.010822638681889403 -0.010405008807630156 0.0066710762965755746 0.012452657743906163 0.0061602901137950009 -0.00056636764293895459 -0.0063215246122842279 0.0009569109364249899 0.025975860932099529 -0.0010574357836846124 -0.0093748863668611983 -0.00090504543279258448 0.0032667213236624863 -0.004025664647220973 0.0017051760414520747 0.0059395179864965373 0.010042782343130023 0.0032517371025738307 -0.0072611772968865151 0.022023125022878776 -0.0082834249841922131 -0.0002018311937541663 -0.0089753861061204667 0 0 0.01908736270027216 -0.015120257098962565 0.0023248881651598617
leaf_weight=265.97028337046504 858.81515013054013 32.38105233758688 137.67828791216016 3191.654002442956 2749.8625367693603 2209.1666878201067 733.3336155898869 21.858327269554138 629.57718330621719 707.18499802425504 11.136111099272968 177.20250611007214 102.02826640382409 266.32950523123145 181.54063687101007 244.38857523724437 120.55524306371808 457.76491286233068 55.413724761456251 26.715073090046644 721.40170050039887 11.859924886375667 9.4985901936888677 112.27706595510244 441.88336733356118 9.8611110299825651 4.1677002720534793 8.4808695763349515 45.083059266209602 28.493916019797325
leaf_count=1304 4481 186 606 14396 17427 15391 4616 118 3110 4049 106 972 464 1468 1089 1264 706 2875 379 164 3493 106 39 627 2053 53 21 75 172 172
internal_value=0 0.00511441 0.00620051 -0.00687474 0.00868364 0.00925869 0.00105604 -0.00846249 -0.0090692 0.00363391 -0.00580524 0 0.00169931 -0.00109329 -0.00248482 -0.00648928 -0.00499005 0.00394404 0.000963472 -0.00833895 -0.00983909 -0.00449186 0.00795331 -0.0047762 -0.00728146 0.0114809 0.0188673 0.00571926 -0.011025 -0.00556651
internal_weight=14573.6 8356.6 7604.3 6216.97 5123.42 4959.03 2480.87 5051.87 4663.19 1440.52 752.299 1165.1 849.273 388.685 1040.36 727.134 750.132 634.967 321.743 164.393 3913.06 315.823 21.3585 214.305 686.272 25.1649 15.3038 40.8619 66.9414 294.464
internal_count=81982 51581 47823 30401 33588 32818 14235 23842 21705 8665 3758 6559 4938 2137 5570 3578 3816 3847 1847 770 17889 1621 145 1091 3317 180 127 261 290 1476
is_linear=0
shrinkage=0.03


Tree=4
num_leaves=30
num_cat=0
split_feature=10 53 86 50 45 17 79 76 30 76 20 7 76 27 30 48 53 50 53 53 30 29 18 28 53 17 53 18 3
split_gain=82.8024 77.283 60.1025 55.6776 62.7892 49.9727 48.3816 40.5457 47.3399 35.9379 39.8661 29.743 33.5749 24.6481 21.7213 31.0121 26.7814 32.7023 25.8896 23.9214 21.4357 20.0998 19.1092 17.829 28.3993 17.6307 12.0138 6.53853 1.89329
threshold=0.82523841453742175 -0.0073837891686707726 0.49024473719276568 -0.00024167270748876033 0.00047197274735729175 0.020214386301899295 -1.8739677472713345e-06 0.0025322536741755855 0.0011020888859144375 0.0051144408876402274 -0.011230365030144428 0.00058977757376260122 0.0016650277974208315 0.00050577807030728866 0.0015595134026874541 0.0084765404462814348 0.018492694944143299 0.0085610081441700476 0.019675808027386669 0.0083858612924814242 0.00099690456099219026 -0.00013609900142995868 -0.0018140678672923156 0.00091597440823966024 0.016925533302128318 -0.13466222968144079 0.028619946911931041 0.0041799158927011103 0.88054120623086152
decision_type=2 2 2 2 2 2 2 2 2 2 2 2 2 2 2 2 2 2 2 2 2 2 2 2 2 2 2 2 2
left_child=1 2 3 6 -5 11 -1 21 -9 10 -4 12 -3 -13 15 16 17 -2 -18 20 -17 -7 -11 28 25 -25 -21 -26 -16
right_child=14 5 9 4 -6 7 -8 8 -10 22 -12 13 -14 -15 23 19 18 -19 -20 26 -22 -23 -24 24 27 -27 -28 -29 -30
leaf_value=-0.016321630495356225 0.0038745262929097673 -0.0021125797381611158 0.02201795076631248 0.020490091348349299 -0.0075404111901061378 0.0024904258857702207 0.004891439556569302 -0.012602609059014894 -0.001034829242269364 -0.021592208248834687 -0.0024444567962330181 0.016104752516612465 -0.0059234715672017929 -0.0086195409406878074 0.0071870336465604586 -0.020961490506388455 0.021825290935580659 -0.0032682051306545355 0.006178833759174069 -0.022588340126783443 0.0073803269511964805 -0.00034390848525469415 0.011532780881786145 -0.0062976950474515044 -0.0036933815649331288 0.014167182069615307 0 -0.027730065240735874 0.031593965985306033
leaf_weight=95.106928870081902 3166.4414706155658 7631.2767086699605 59.074646085500717 77.680572718381882 637.99462958425283 3094.2563493847847 5224.244504660368 477.7134892269969 964.30944902449846 119.40484900027514 1640.1887736395001 126.27593094855547 2885.8611150607467 46.513284891843796 9.1100697666406614 27.540634050965309 118.77593714743853 698.3132738545537 511.73423614352942 86.156437836587429 107.68106959760189 8204.3530268073082 14.816431529819964 40.240621693432331 37.021920576691628 262.43388395756483 26.693779617547989 14.280099749565123 34.949953764677048
leaf_count=200 6938 17799 108 149 1467 6494 10952 1171 2536 287 3916 270 7648 114 22 62 214 1632 947 196 256 17591 45 106 102 600 54 33 73
internal_value=0 -0.000579625 0.0019907 0.00343776 -0.00438336 -0.00144422 0.00449754 -0.000172505 -0.00490597 -0.00275388 -0.0015391 -0.00295662 -0.00316252 0.00924502 0.00352731 0.00294935 0.00352498 0.00257463 0.00926308 -0.0072795 0.00106123 0.000430108 -0.0175448 0.0102663 0.00776281 0.0113131 -0.0173013 -0.0120989 0.0279648
internal_weight=36440.4 31299.1 7868.51 6035.03 715.675 23430.6 5319.35 12740.6 1442.02 1833.48 1699.26 10689.9 10517.1 172.789 5141.37 4743.34 4495.26 3864.75 630.51 248.072 135.222 11298.6 134.221 398.037 353.977 302.675 112.85 51.302 44.06
internal_count=81982 70747 17124 12768 1616 53623 11152 27792 3707 4356 4024 25831 25447 384 11235 10299 9731 8570 1161 568 318 24085 332 936 841 706 250 135 95
is_linear=0
shrinkage=0.03


Tree=5
num_leaves=27
num_cat=0
split_feature=71 24 24 44 53 53 53 24 53 51 86 20 61 24 51 53 76 75 18 51 29 86 85 6 17 29
split_gain=99.5452 75.2156 60.6556 40.2794 44.1185 43.0348 39.6925 36.9792 51.7481 37.3559 35.6145 34.2289 34.0157 33.9408 32.083 39.9852 37.4849 30.5384 23.3642 31.8899 28.9712 23.0702 18.07 16.034 7.8457 7.41079
threshold=0.99995940275738693 -0.37940952255126015 0.78656609248549303 0.00015084204521642421 0.024941364303231243 -0.0062405588105320922 -0.047537984326481812 -0.9159756150367534 0.033774876967072494 0.72077244520187389 0.54594490992046951 0.003690705813211531 0.0027230546137519429 0.98296291314453421 0.7091163992881776 -0.0012880518916063009 0.0043809952421335089 0.99930810704867123 0.0014729101662628644 0.91037839651107799 -4.3570338471894079e-05 0.16035620945530107 1.0000000180025095e-35 0.0027291145712049392 -0.035301315072433816 9.1249409816363184e-05
decision_type=2 2 2 2 2 2 2 2 2 2 2 2 2 2 2 2 2 2 2 2 2 2 2 2 2 2
left_child=1 6 11 5 12 21 24 9 -9 -8 -7 14 -5 18 16 -16 -2 -6 20 -20 -4 -3 23 -13 -1 -24
right_child=2 3 13 4 17 10 7 8 -10 -11 -12 22 -14 -15 15 -17 -18 -19 19 -21 -22 -23 25 -25 -26 -27
leaf_value=-0.002441739040250252 0.0015027897347250269 -0.017001125810758445 -0.0056330858053250995 -0.010237217166334227 0.014926958621729349 0.00055025307836745988 -0.00137552463143401 0.0015552571378070503 0.028350063275189748 -0.014793761943489513 -0.0058137589131567087 -0.0059692822861542091 -0.0037299626230919334 -0.028362524190815568 0.017556912224490826 0.004228195699656814 0.011438966293722964 -0.010942971668890737 -0.017441780032594324 0.018655587108723205 0.0050120697397799353 -0.0049180641806968756 -0.028089168521594727 0.007698977194267655 -0.031069764437106576 -0.0027507539609415363
leaf_weight=14.510323174297808 14582.353437386453 156.32977879792452 645.66702855378389 1492.9585949331522 140.45211070030928 4232.3179642930627 1156.2916036099195 6049.6742285937071 62.743773132562637 221.57352597266436 968.91522472351789 402.3881344050169 1447.631749778986 50.389779701828957 228.66759956628084 1783.6302165165544 348.11296933889389 53.715061381459236 176.92009882628918 21.829120688140392 351.43866471201181 1661.4325933381915 38.82476332783699 91.054024502635002 38.999193876981735 18.471741385757923
leaf_count=21 31685 351 1663 3636 330 10410 2604 11505 124 494 2633 1099 3952 126 480 3759 854 159 566 53 919 4097 106 250 59 47
internal_value=0 -0.00161331 0.00152381 -0.0032992 -0.00613004 -0.00202856 0.000652293 0.000844808 0.00184898 -0.00358248 -0.000632175 0.0019808 -0.007051 -0.00485631 0.0022216 0.00578157 0.00173872 0.00756045 -0.00377231 -0.01311 -0.00184733 -0.006 -0.00534484 -0.00335539 -0.0243793 -0.0209612
internal_weight=36437.3 17697.5 18739.7 10153.8 3134.76 7019 7543.79 7490.28 6112.42 1377.87 5201.23 17493.5 2940.59 1246.24 16942.8 2012.3 14930.5 194.167 1195.85 198.749 997.106 1817.76 550.739 493.442 53.5095 57.2965
internal_count=81982 40375 41607 25568 8077 17491 14807 14727 11629 3098 13043 38280 7588 3327 36778 4239 32539 489 3201 619 2582 4448 1502 1349 80 153
is_linear=0
shrinkage=0.03


Tree=6
num_leaves=31
num_cat=0
split_feature=24 24 1 24 41 50 24 50 42 42 42 24 3 42 86 5 60 86 78 50 26 28 78 74 75 5 52 50 6 50
split_gain=545.144 99.0162 83.5303 73.121 43.479 34.9493 34.4886 34.0115 26.1329 24.0549 22.886 11.867 11.8559 11.8196 10.144 9.58193 9.40355 16.8046 10.818 9.04787 7.79603 7.93734 6.9796 6.16194 5.99749 5.3637 2.83663 3.39193 2.01092 1.85257
threshold=-0.37940952255126015 -0.12940952255126037 0.0014205960359275958 -0.9159756150367534 0.0016213952021782198 -0.020290754735469815 0.37940952255126048 0.0096576786600053328 0.0012888579186325457 0.00198927164538111 0.0019384155764565522 -0.78656609248549325 1.2592294123144503 0.0014854476157521092 0.4015998001924343 0.00065721431802263821 0.001947817000134568 0.45326193857127489 0.00092750710361092219 -0.011661310680210589 0.81174490092936691 0.00062474965146465259 0.00038193128790658595 0.43738946533443929 0.9988493533539673 0.0019712072420270924 1.0000000180025095e-35 -0.00064631435088813294 -0.0023723084946133395 -0.0016298245755024252
decision_type=2 2 2 2 2 2 2 2 2 2 2 2 2 2 2 2 2 2 2 2 2 2 2 2 2 2 2 2 2 2
left_child=3 8 4 16 7 -6 13 -3 20 11 -8 15 14 -4 -10 -5 26 24 -19 28 22 -22 -2 -21 -18 -13 29 -28 -11 -1
right_child=1 2 6 9 5 -7 10 -9 12 19 -12 25 -14 -15 -16 -17 17 18 -20 23 21 -23 -24 -25 -26 -27 27 -29 -30 -31
leaf_value=-0.0047354845556204983 0 0.0097028784954182063 0.0026022963706113207 -0.0071851761604338387 -0.0097879804529898817 0.020325590089268004 -0.0041766503409796287 0.00032356461900904729 0.0015257597013233028 -0.0024413075500587314 0.0055186184663305327 -0.0097486335834643355 -0.0062984893098977047 0.0097516195922659754 0.0068070619684547969 0.00074247857779228274 -0.0056703558963324572 0.011092945988282994 -0.0016580208870292173 -0.00086907753995499326 0.010730838432455508 -0.0016348283102951685 -0.0057465634476107589 0.009794768336723934 0.00080464100690424685 0 0.0080577755211238816 -0.0036644592006135086 -0.015074499102802152 -0.013233047816124483
leaf_weight=180.6631289459765 248.8094874098897 2840.5339586064219 395.62504063546658 585.8049930408597 34.338389810174704 463.89256390929222 772.12184638902545 404.29393714293838 863.46027967333794 25.78125211596489 300.83619691058993 3819.848624330014 113.10864042490721 479.66763500496745 546.97109467163682 169.58042950183153 187.41089270636439 208.16603917255998 77.242177061736584 265.9387152120471 62.89411062374711 149.33819159865379 718.02927256003022 55.821157529950142 378.07787846401334 50.783032365143299 28.350540425628424 72.752216879278421 40.669699892401695 32.68346181884408
leaf_count=923 1405 18896 2331 2852 151 3625 3976 2275 4991 134 1870 17588 553 3193 3479 977 936 1425 416 1468 435 811 3590 379 2161 288 191 377 156 130
internal_value=0 0.00497676 0.00722127 -0.0067615 0.00984412 0.0181441 0.00215937 0.00854486 0.00023629 -0.00833386 -0.0014226 -0.0089364 0.00283935 0.00657427 0.0036052 -0.00537 0 0.00164697 0.00755669 -0.00106375 -0.00310056 0.00198879 -0.00425136 0.000961975 -0.00130709 -0.00961997 -0.00440042 0 -0.0109223 -0.00634138
internal_weight=14573.5 8393.92 5691.31 6179.57 3743.06 498.231 1948.25 3244.83 2702.61 5014.23 1072.96 4626.02 1523.54 875.293 1410.43 755.385 1165.35 850.897 285.408 388.211 1179.07 212.232 966.839 321.76 565.489 3870.63 314.449 101.103 66.451 213.347
internal_count=81982 51581 36317 30401 24947 3776 11370 21171 15264 23842 5846 21705 9023 5524 8470 3829 6559 4938 1841 2137 6241 1246 4995 1847 3097 17876 1621 568 290 1053
is_linear=0
shrinkage=0.03


Tree=7
num_leaves=31
num_cat=0
split_feature=10 23 76 76 30 9 75 61 71 28 49 18 72 17 72 17 60 72 27 21 47 29 17 10 49 41 75 27 60 46
split_gain=77.6241 88.7575 57.3618 38.6633 49.4019 36.1855 32.7278 30.0848 35.3654 32.0909 23.6361 22.1994 21.0105 20.4061 19.3315 19.2847 18.6882 18.2731 33.6932 19.0757 17.0201 16.7306 14.1951 16.1694 12.5531 11.065 10.786 4.31311 3.96652 1.00854
threshold=0.82523841453742175 -0.91597561503675329 0.0043809952421335089 0.0024617576241629338 0.0011261135918618657 0.0069527154183184978 0.99976660638071302 0.0041820349469349951 0.99995940275738693 0.0016739127513718422 0.12208916619420053 -0.0032717296916061375 0.0014406596897327047 0.36687275134009939 0.00036624939255037314 -0.38282927708626197 0.0080994268721258002 0.0026046940135563928 0.0011128000152343615 0.0021137591163946775 0.34023828520471794 -4.9838396720293619e-05 -0.083260103362349291 1.2369163509899808 0.24122992902994159 0.0010503265759226343 0.99247856186700312 0.00014091808929523922 0.014709918743905958 0.00045640850102969982
decision_type=2 2 2 2 2 2 2 2 2 2 2 2 2 2 2 2 2 2 2 2 2 2 2 2 2 2 2 2 2 2
left_child=1 2 6 7 5 -5 11 8 -3 -9 -6 -1 14 26 27 28 -17 22 19 -19 -20 -8 23 -14 -15 -24 -4 29 -16 -2
right_child=12 3 13 4 10 -7 21 9 -10 -11 -12 -13 17 24 15 16 -18 18 20 -21 -22 -23 25 -25 -26 -27 -28 -29 -30 -31
leaf_value=0.016312913712210227 0.010454079679816396 0.0015637552812746804 0.016519243532067632 0.01138864477872171 -0.013452471545201395 -0.011720596103052445 -0.0026273271673649739 0.0027785849174973248 -0.0022574483831358195 -0.0068145459420047502 0.00072906129869465455 -0.00058323727154758901 -0.004588882151085074 -0.012215323431500037 0.031836972496331863 0.0039917101838030091 -0.001345823385762333 0.001199426986665444 -0.011601901728144435 -0.010997583707454203 0.016947632163337386 -0.005805986044618518 0.0021240402388826131 0.025402227629444718 0.025166137463663169 0.0086431584501278687 -0.023571721706183376 0.00062709738415290227 0.0046325126108262967 0.033515604593903466
leaf_weight=68.123390793800354 11.070194117724897 5065.643713593483 3.3605835661292067 63.667761325836182 109.92098770290613 641.9322562739253 4739.1426326408982 8241.3937591686845 3820.6722794100642 321.76066789776087 1655.556159041822 4145.1749765872955 153.77389921993017 13.870155669748785 18.817612260580066 974.74837600439787 1477.2309883609414 364.9157906472683 18.282997019588947 163.22993456572294 136.3375676497817 2225.1081238165498 296.45332911610603 14.930222027003763 11.934966810047625 1476.0414434745908 168.0607453212142 9.589585714042185 11.393176794052122 17.416056498885155
leaf_count=157 35 10428 6 134 241 1501 11763 17345 8025 702 4005 10443 352 43 36 2009 3581 741 31 434 249 5435 575 25 23 3094 496 20 24 29
internal_value=0 -0.000561135 -0.00267557 0.000644936 -0.00286152 -0.00955368 -0.0023867 0.00114362 -7.60041e-05 0.00241236 -0.000158259 -0.000291521 0.00341439 -0.0186156 0.00143912 0.00108726 0.0007661 0.00529637 0.00101737 -0.00255455 0.0132249 -0.00364929 0.00678207 -0.00136251 0.00485264 0.00757515 -0.0223432 0.0218922 0.0238261 0.0273563
internal_weight=36439.6 31295.3 11374.8 19920.5 2471.08 705.6 11177.5 17449.5 8886.32 8563.15 1765.48 4213.3 5144.23 197.226 2520.27 2482.19 2451.98 2623.97 682.766 528.146 154.621 6964.25 1941.2 168.704 25.8051 1772.49 171.421 38.0758 30.2108 28.4863
internal_count=81982 70747 28366 42381 5881 1635 27798 36500 18453 18047 4246 10600 11235 568 5734 5650 5590 5501 1455 1175 280 17198 4046 377 66 3669 502 84 60 64
is_linear=0
shrinkage=0.03


Tree=8
num_leaves=26
num_cat=0
split_feature=48 24 53 50 23 61 53 60 53 23 50 30 30 42 49 50 50 60 49 23 26 60 50 6 36
split_gain=74.7819 69.1973 48.1488 39.0485 66.7875 54.0231 38.0468 51.4383 42.688 43.2645 42.5519 37.8146 37.3818 34.9171 37.6417 33.1723 31.7859 30.0978 27.3548 21.9139 16.2769 12.4886 6.61425 5.8574 1.82021
threshold=0.0034737243549898271 0.98296291314453421 -0.0073837891686707726 -0.015870432369410988 -0.37940952255126059 0.011722775472921955 0.0075901297386735686 0.026335833896350139 0.018492694944143299 0.78656609248549325 0.0022708063479512934 0.0024047600734631905 0.00135275413776227 0.0036236706278319534 0.76891323924064647 -0.0068550228606909505 0.0028213707264512782 0.015244636924453712 0.62736433744430553 0.37940952255126054 1.0000000180025095e-35 0.0041442601415666502 -0.014954636339098213 0.00065340626752512048 0.0010233773725277613
decision_type=2 2 2 2 2 2 2 2 2 2 2 2 2 2 2 2 2 2 2 2 2 2 2 2 2
left_child=1 2 3 4 -1 -5 10 8 9 -8 13 15 16 14 -2 -4 -12 -10 -14 -13 23 -22 -15 24 -3
right_child=6 20 11 5 -6 -7 7 -9 17 -11 12 19 18 22 -16 -17 -18 -19 -20 -21 21 -23 -24 -25 -26
leaf_value=0.011464832448398273 -0.0055101335335694139 -0.032699988184980225 0.0054032675912262622 -0.00128393329248179 -0.0055090745328979594 -0.0106214004909705 0.0044191369923256485 0.033623593243618771 -0.0078203999434867146 -0.016040745573892391 -0.019206484341370952 -0.0214090646299483 0.009083683512513251 0 0.0075544929102159073 0.001117164254245637 -0.0045125639682150644 0.0042508238964089357 -0.018156925537335892 0.0078514659926807485 -0.017102290690240954 0.024194478648050542 0.032508522929695791 -0.002678264151048603 -0.011497889174450276
leaf_weight=516.16833864152431 618.29551743716002 70.149949036538601 1764.0536530911922 6380.8157372772694 343.71590618044138 609.95147830992937 1172.9905495494604 36.376864105463028 871.30122511088848 97.60089848190546 143.69448406994343 97.960400648415089 33.011922463774681 8.3720069825649244 287.70967920869589 21050.437914781272 1622.1732280403376 230.52626378834248 379.15881715714931 26.397784218192101 11.497498869895937 8.966856583952902 30.878938362002373 10.917837351560591 13.380013301968573
leaf_count=1057 1368 167 4212 13869 659 1412 2695 66 1787 275 315 291 83 22 599 47361 3965 492 1050 64 26 21 68 34 24
internal_value=0 0.000575158 0.000663884 -0.00136175 0.00464963 -0.00210713 -0.00321127 -0.000363864 -0.000939437 0.00278987 -0.00539524 0.00135854 -0.00769949 -4.66316e-05 -0.00131711 0.00145055 -0.00575576 -0.005263 -0.015853 -0.0149237 -0.0223558 0.000494001 0.0265802 -0.0274774 -0.0301669
internal_weight=36436.5 30904.4 30789.5 7850.65 859.884 6990.77 5532.09 2408.8 2372.42 1270.59 3123.29 22938.8 2178.04 945.256 906.005 22814.5 1765.87 1101.83 412.171 124.358 114.912 20.4644 39.2509 94.4478 83.53
internal_count=81982 69197 68925 16997 1716 15281 12785 5315 5249 2970 7470 51928 5413 2057 1967 51573 4280 2279 1133 355 272 47 90 225 191
is_linear=0
shrinkage=0.03


Tree=9
num_leaves=31
num_cat=0
split_feature=23 23 23 23 23 53 62 1 53 30 42 43 86 1 3 1 53 23 1 53 38 86 42 53 62 51 9 27 43 26
split_gain=215.84 214.182 75.7837 69.1577 65.0862 44.4105 31.527 30.8893 42.0614 27.9108 27.2704 25.7479 21.4715 21.0798 15.422 15.0828 13.0412 12.7393 12.3671 11.8045 11.3856 9.23251 6.7576 5.87464 5.55661 4.68933 1.89038 1.77566 1.73354 1.6409
threshold=-0.91597561503675329 -0.60355339059327362 -0.5 0.91597561503675362 -0.98296291314453399 -0.016238852404057976 1.0000000180025095e-35 0.0017732461852868605 0.0098668816499412077 0.00070556655948743482 0.0018898143278201524 0.0013391506057214631 0.41791558196150719 0.0013832650963972767 0.91993750235017968 0.0011605688209494547 -0.019548973068594929 -0.70710678118654735 0.0010244769624364232 0.009489305783063175 0.84518653968915969 0.53349960919634876 0.0019052719314307345 0.017750918865203861 1.0000000180025095e-35 0.37574520707130438 0.015037380418735808 0.00052023876962340961 0.002042426895584933 0.81174490092936691
decision_type=2 2 2 2 2 2 2 2 2 2 2 2 2 2 2 2 2 2 2 2 2 2 2 2 2 2 2 2 2 2
left_child=4 10 7 5 11 -4 9 8 -3 25 17 15 -11 -5 20 23 28 18 -2 -18 -13 -16 -9 -1 -17 -6 29 -19 -12 -8
right_child=1 2 3 13 6 -7 26 22 -10 12 16 14 -14 -15 21 24 19 27 -20 -21 -22 -23 -24 -25 -26 -27 -28 -29 -30 -31
leaf_value=0.0092649715421282714 -0.0041549744196513029 0.030225208813854914 -0.007896998169451927 0.017285955802382853 -0.0062728859176639533 0.00099480071724135474 -0.0098105947358319446 -0.0033001364080289244 0.0034880861687584604 0.0025902849478034659 0 0.018899306059740415 0.008368801726326168 0.0027073967288149337 0.0074084865492650906 0.0022489279668966846 0.0056104687415725312 -0.010974911719995678 -0.0082123832180595151 -0.0047159024927346093 -0.0075884744777785056 0.018227684755988682 0.011082508321288225 -0.0063277030634598056 -0.0086709688523010763 -0.00053957338189599769 0.0053099522828585263 -0.0043213932366185995 -0.011450534827587419 -0.0011587175155997863
leaf_weight=570.29266705363989 1059.6347424723208 158.45120707899332 604.19260122254491 271.75304310396314 167.49816614016891 3003.3810590617359 191.30690857023001 71.609081692993641 84.101938094943762 1649.7248060107231 11.216449845582245 358.78472761064768 912.24346731230617 141.9558468721807 418.03284851834178 281.59148846566677 264.57045194506645 1084.0156354047358 2134.3338774032891 153.44491541385651 12.043149545788763 92.949236378073692 44.016095925122499 18.295750308781862 45.77919590473175 583.40619049966335 4.3794466368854037 58.500943377614021 89.883731245994568 31.930639777332544
leaf_count=3759 5505 1419 2881 2038 820 17231 872 372 505 9709 65 2742 5936 839 2667 1643 1654 4870 10183 777 51 710 306 84 209 3243 32 301 387 172
internal_value=0 -0.00277713 0.00202766 0.000836813 0.00479894 -0.000491404 0.00242333 0.0151962 0.0212325 0.003174 -0.00711551 0.00944892 0.00466693 0.0124111 0.0131344 0.00583688 -0.000551496 -0.00789345 -0.00688084 0.00174202 0.0179048 0.0095298 0.00206395 0.00869995 0.000566221 -0.00187812 -0.00827154 -0.0106726 -0.0100995 -0.00873746
internal_weight=14573.3 9235.06 4379.46 4021.28 5338.26 3607.57 3540.49 358.178 242.553 3312.87 4855.6 1797.77 2561.97 413.709 881.81 915.959 519.116 4336.49 3193.97 418.015 370.828 510.982 115.625 588.588 327.371 750.904 227.617 1142.52 101.1 223.238
internal_count=81982 49333 25591 22989 32649 20112 20784 2602 1924 19708 23742 11865 15645 2877 6170 5695 2883 20859 15688 2431 2793 3377 678 3843 1852 4063 1076 5171 452 1044
is_linear=0
shrinkage=0.03


Tree=10
num_leaves=30
num_cat=0
split_feature=10 24 24 76 50 76 50 25 76 43 30 48 24 76 49 10 50 41 86 61 46 23 61 23 23 86 60 79 23
split_gain=73.0261 97.7736 67.0046 62.793 59.0167 52.966 35.7079 21.7899 42.6743 30.3635 20.386 29.5694 21.9479 21.8106 19.9349 27.0608 19.5584 31.5744 19.5775 17.3528 23.1642 14.8854 14.7284 14.4885 14.9742 10.2526 9.9238 9.91349 9.03504
threshold=0.82523841453742175 -0.37940952255126015 0.98296291314453421 0.004580647451131562 -0.0015828280011191962 0.001681671657988996 0.0072936390060931453 0.6078576107927941 0.0025083045251535589 0.002509051166716438 0.0015595134026874541 0.0084765404462814348 0.25881904510252057 0.0051144408876402274 0.27768978476524359 0.38153762274715197 0.015088895335793497 0.0013852502718285566 0.2735157700203385 0.0023318829125001874 0.00078001176581581468 0.25881904510252091 0.0026933864544630118 0.91597561503675362 -0.25881904510252113 0.48764594774427333 0.022044992307076058 -1.052303535699876e-07 0.37940952255126054
decision_type=2 2 2 2 2 2 2 2 2 2 2 2 2 2 2 2 2 2 2 2 2 2 2 2 2 2 2 2 2
left_child=1 3 4 7 5 -3 -6 8 -1 -9 11 16 13 -13 21 -16 18 -18 -2 20 26 -5 -4 24 -21 -24 -12 -14 -22
right_child=10 2 22 14 6 -7 -8 9 -10 -11 19 12 27 -15 15 -17 17 -19 -20 23 28 -23 25 -25 -26 -27 -28 -29 -30
leaf_value=0.0032029274332323037 0.007690775005389546 0.0018770819943452232 -0.007085068178920342 -0.025273392087610182 -0.0047055728296230117 -0.0031450145096669786 -0.0003699910895480122 -0.00037215565495008049 -0.0046305499979521396 0.011942220960439155 0.02544800795347087 -0.0048451539837562263 0.00035330470642311074 0.027648527958188944 0.029660248436867688 -0.014229197710148857 0.021663068401040309 0.00048836472877974632 0.001945195038365994 0.0049231701668279327 -0.0013064422605281365 0.0058869380492015079 0.027555829977039131 0.022682793105739403 -0.015481443609984713 0 -0.0035195589019151904 -0.024438893063634583 0.017919581934659545
leaf_weight=7609.500576376915 631.22459661215544 4526.3972987905145 12.756229318678377 119.11165669560432 7554.8756166100502 3238.9763432219625 2230.0467437431216 4970.3815273120999 676.37286769598722 183.95131577551365 123.41926541924477 147.62898623198271 15.240158773958681 18.154896281659603 15.652168698608873 36.244703084230423 128.76963455229998 128.12498370558023 3611.9667124301195 96.615120857954025 75.574964538216591 12.714018322527407 90.683311998844147 23.127657286822796 44.491524673998356 13.97929675132036 8.927508741617201 66.900062784552574 26.584287568926811
leaf_count=14810 1276 10797 38 268 19220 8479 5521 9362 1468 398 262 327 50 36 32 74 237 266 7952 220 189 38 185 51 129 57 34 155 51
internal_value=0 -0.000544022 -0.00201714 0.00136416 -0.00217135 -0.000214203 -0.00372095 0.00160588 0.00255842 6.82023e-05 0.00331118 0.00275127 -0.00724026 -0.000680864 -0.0158999 0 0.00331285 0.0113453 0.00281181 0.00983336 0.0150422 -0.0219815 0.0202633 0.00207991 -0.00149067 0.0239797 0.0232376 -0.0196363 0.00377983
internal_weight=36438.4 31291.6 17667.7 13623.9 17550.3 7765.37 9784.92 13440.2 8285.87 5154.33 5146.75 4748.01 247.924 165.784 183.723 51.8969 4500.09 256.895 4243.19 398.74 234.506 131.826 117.419 164.234 141.107 104.663 132.347 82.1402 102.159
internal_count=81982 70747 44297 26450 44017 19276 24741 26038 16278 9760 11235 10299 568 363 412 106 9731 503 9228 936 536 306 280 400 349 242 296 205 240
is_linear=0
shrinkage=0.03


Tree=11
num_leaves=29
num_cat=0
split_feature=71 24 24 50 30 44 50 21 24 24 50 50 23 1 76 30 40 18 29 24 60 18 60 75 86 76 17 18
split_gain=90.7172 69.5545 56.712 66.4671 40.8058 37.8189 32.9454 53.5401 31.8238 29.2106 30.122 28.808 28.7835 28.3595 28.2296 27.8555 26.5033 23.5932 22.5235 19.0684 49.4491 26.8516 19.0007 16.2628 15.0363 14.9268 14.5686 6.5086
threshold=0.99995940275738693 -0.37940952255126015 0.78656609248549303 -0.015870432369410988 0.0024047600734631905 0.00015084204521642421 -0.0015828280011191962 0.00029429180472033775 0.98296291314453421 -0.9159756150367534 0.0029027109267190103 0.018970284610986713 0.91597561503675362 0.0020253860494744598 0.0043809952421335089 0.0011727011999022282 0.52825078419484905 -0.0027753189439119414 0.0002614060090097007 0.1294095225512602 0.015244636924453712 0.0010205835982362423 0.012128956980454591 1.0005999401762968 0.28236227917947737 0.0034342128452358994 -0.035301315072433816 0.0020343450355845552
decision_type=2 2 2 2 2 2 2 2 2 2 2 2 2 2 2 2 2 2 2 2 2 2 2 2 2 2 2 2
left_child=1 9 3 12 14 6 13 -8 15 10 22 16 17 -3 -5 18 -11 -2 -4 21 -21 -7 -1 -14 -6 -12 -17 -13
right_child=2 5 8 4 24 19 7 -9 -10 11 25 27 23 -15 -16 26 -18 -19 -20 20 -22 -23 -24 -25 -26 -27 -28 -29
leaf_value=-0.00099456381869789503 0.010916474335399398 -0.005985755419606502 -0.0017922653650387604 0.0015771814218310848 0.0025669671395665027 -0.0055399246007837447 0.0041564927353412197 -0.0027056597292378455 -0.027561059209633375 -0.00083172539939814201 -0.010149455800521248 0 0.022466048360412896 0.0042101560674312928 0.012336197980504551 -0.004194668217255019 0.0031287698774501694 0.027490120746067478 0.024728313481656161 -0.0058225768525887985 0.0086699312020922757 -0.014602195508043293 0.018282568484507659 -0.018063313482664572 -0.019216888426134206 0.015966341033859209 -0.017444828292402563 0.028561857292590084
leaf_weight=834.06356339901686 325.46833322942257 2105.4257679209113 851.43921196460724 16655.740002244711 33.947723999619484 907.57921416312456 1517.9194836169481 3119.2714982926846 50.038099646568298 2768.8865799531341 486.71754739433527 8.7975180819630605 8.1919016242027265 272.18367905914783 220.40893518179655 152.60706517100334 3342.7062187492847 108.32381521910429 26.750049367547035 1529.4013478755951 241.70387891680002 451.60011576861143 45.686172179877758 36.670348972082138 112.36906597018242 17.049267150461674 164.31010475754738 40.280062228441238
leaf_count=1886 668 5501 2176 36374 78 2423 3990 7411 126 5315 1092 19 20 589 560 482 6279 184 68 3979 596 1079 85 77 319 47 475 84
internal_value=0 -0.00154098 0.0014539 0.00189547 0.0015822 -0.00316333 -0.00193195 -0.00045173 -0.00471814 0.000637091 -0.00329073 0.00152521 0.0128949 -0.00480211 0.00172164 -0.00367007 0.00133001 0.0152842 -0.000868954 -0.00590871 -0.00381655 -0.0085985 3.12604e-05 -0.00909151 -0.0140118 -0.00911712 -0.0112573 0.02378
internal_weight=36435.5 17689.3 18746.3 17501.1 17022.5 10145.1 7014.8 4637.19 1245.14 7544.19 1383.52 6160.67 478.654 2377.61 16876.1 1195.11 6111.59 433.792 878.189 3130.28 1771.11 1359.18 879.75 44.8623 146.317 503.767 316.917 49.0776
internal_count=81982 40375 41607 38280 37331 25568 17491 11401 3327 14807 3110 11697 949 6090 36934 3201 11594 852 2244 8077 4575 3502 1971 97 397 1139 957 103
is_linear=0
shrinkage=0.03


Tree=12
num_leaves=31
num_cat=0
split_feature=62 43 53 30 1 71 1 43 30 51 53 1 26 49 76 46 1 43 53 50 25 8 50 36 37 36 27 71 8 36
split_gain=173.686 86.2524 49.7287 58.1475 48.5733 30.4213 23.8896 11.3679 10.9023 8.8006 8.03916 7.62162 7.36446 6.26105 6.20167 6.08073 5.39195 5.11766 3.91481 3.6902 3.74101 4.1896 3.33953 2.29712 1.61242 1.13628 0.783717 0.779722 0.465247 0.0300653
threshold=1.0000000180025095e-35 0.0011645432401235784 -0.023026061244308945 0.0011593259593560706 0.00109647589299175 1.0016661664697848 0.00085186205745619258 0.0019210615975631523 0.00082642021372595319 0.58512690663337719 -0.008346538990736006 0.0014517401187303278 0.81174490092936691 0.63433507084846508 0.0012536097241211399 0.00052954803726741704 0.0009310113601320426 0.0012440924542094628 -0.038727374747395509 -0.010733347386121748 1.0000000180025095e-35 0.0026329252578739175 0.00012505112681537869 0.0012598944786257028 0.0030583831797702187 9.1042348140647048e-05 0.0011128000152343615 1.0003723618146665 0.0027110171921906974 -0.00067220946192409522
decision_type=2 2 2 2 2 2 2 2 2 2 2 2 2 2 2 2 2 2 2 2 2 2 2 2 2 2 2 2 2 2
left_child=1 6 9 4 -4 -5 8 12 10 18 -1 14 16 -11 -8 -10 27 25 -3 28 21 -21 -19 -13 -18 -14 -22 -2 -9 -30
right_child=7 2 3 5 -6 -7 11 19 15 13 -12 23 17 -15 -16 -17 24 22 -20 20 26 -23 -24 -25 -26 -27 -28 -29 29 -31
leaf_value=-0.0051006393500876721 0.0022726222801208768 -0.011227894503643022 0.0049464060808207741 0.0099763589276590757 -0.00049061405141589639 0.00084859785862990663 -0.0041795828155798201 -0.011606900832395671 0.01529233808986539 0 0.001147733127492891 -0.006770397150343577 -0.0084857517887713934 0.034165325037750799 -0.00070362111808164264 0.0027252294145116451 -0.010084050954967864 -0.0026474897854777825 -0.0048412358767396151 0.0013453062265238196 0.001550950570969831 0.028069354179271668 0.009491502585058615 0.0011374788492306252 0 -0.0033122448955394007 -0.0076997885783411275 -0.0044488572791911681 -0.0018610420162234347 0
leaf_weight=223.81147103756666 33.77591385692358 128.76264344900846 2851.8275198750198 1578.4357405491173 3048.5661306194961 424.84744083508849 1230.5314316786826 13.376078158617021 64.824008125811815 18.232328519225124 1009.9897643141448 731.40394280850887 132.90494933724403 4.5717707127332678 777.61463288590312 89.115698877722025 1498.0372510403395 43.121004931628704 394.99140303209424 15.670094389468433 47.752150744199753 8.1680923663079721 30.937845684587955 27.047692961990833 10.545577198266981 95.761412344872952 6.838015913963317 22.860810548067093 4.8126118034124374 3.9829165637493116
leaf_count=1131 204 563 17511 10527 16967 2415 6387 52 480 105 5816 3590 625 57 4320 531 6876 228 2012 94 280 83 213 160 62 505 27 114 22 25
internal_value=-2.20857e-07 0.00129259 0.00303379 0.00364174 0.00213335 0.0080597 -0.00224157 -0.00828265 0.000951998 -0.00567489 0 -0.0038536 -0.00881323 0.0111419 -0.00285156 0.00839956 -0.00965981 -0.00428608 -0.00652332 0.00124947 0.00456305 0.0137341 0.00220632 -0.00644562 -0.0100009 -0.00651962 0 -2.47045e-05 -0.00842681 0
internal_weight=14573.1 12604.6 8450.23 7903.68 5900.39 2003.28 4154.34 1968.54 1387.74 546.558 1233.8 2766.6 1867.94 22.8041 2008.15 153.94 1565.22 302.725 523.754 100.6 78.4284 23.8382 74.0589 758.452 1508.58 228.666 54.5902 56.6367 22.1716 8.79553
internal_count=81982 72572 50157 47420 34478 12942 22415 9410 7958 2737 6947 14457 8827 162 10707 1011 7256 1571 2575 583 484 177 441 3750 6938 1130 307 318 99 47
is_linear=0
shrinkage=0.03


Tree=13
num_leaves=31
num_cat=0
split_feature=53 19 86 23 23 23 53 7 25 51 26 76 23 43 30 17 51 86 44 5 23 53 53 41 42 51 28 30 44 8
split_gain=64.3701 73.4669 58.6253 51.4771 48.0651 45.6569 44.5215 41.5461 37.9468 37.1938 40.5426 33.2755 50.869 32.6599 44.4181 32.6258 31.7406 30.9364 30.0108 28.021 39.6974 27.891 27.1144 29.6359 26.6765 38.5676 34.1853 25.6505 25.5829 24.3583
threshold=-0.0073837891686707726 0.0022513685349774058 0.46034096327767349 -0.91597561503675329 0.78656609248549325 0.37940952255126054 -0.038727374747395509 0.0006361156452250646 0.6078576107927941 0.21448300778865817 0.81174490092936691 0.0038398985716781176 -0.98296291314453399 0.0012382804297797411 0.0010537872844594844 0.030010917030566433 0.24134255200624469 0.25381425858522721 0.00014244996476467787 -0.00084726876428512963 0.12940952255126045 0.018818714655935768 -0.047537984326481812 0.0025655663216373691 0.0019384155764565522 0.31928649544715887 0.0014914155295497357 0.00086042918031611459 3.280690387305254e-05 0.0022425252894850999
decision_type=2 2 2 2 2 2 2 2 2 2 2 2 2 2 2 2 2 2 2 2 2 2 2 2 2 2 2 2 2 2
left_child=2 3 5 9 7 24 17 -5 11 10 -2 21 -13 27 -15 -6 19 -7 -11 20 -4 -3 29 -24 26 -26 -1 -10 -8 -18
right_child=1 8 16 4 15 6 28 -9 13 18 -12 12 -14 14 -16 -17 22 -19 -20 -21 -22 -23 23 -25 25 -27 -28 -29 -30 -31
leaf_value=0.0030024181914659704 -0.016745214171022111 0.0038684938970474344 -0.0074753848087095506 7.3332785514069245e-05 -0.011683850227638586 -0.024104472385777859 -0.011582020039102815 0.02467045570545013 0 -0.0039065167046114417 0.0098879455753795344 0.020809057449289556 -0.012268147160332327 -0.011259460526090862 0.00094761920080061021 -0.0012868321839961819 -0.017477287992007779 0.0053327275508112323 0.00024591222642105333 -0.019237297233458711 0.01155880626426707 0.011072440702342258 0.00093877369973690444 -0.014739604057607183 0.0055287421702131688 -0.0080291588977205539 0.016312644384590659 0.010963121578857069 0.012948852726581465 0.025581289828215243
leaf_weight=4201.9224361851811 316.73139363527298 2406.2387961372733 533.9961759224534 12720.999732419848 528.92853230237961 51.822331339120865 36.485558234155178 59.123466603457928 620.6384252756834 6132.077096581459 57.74177411198616 48.724718950688839 210.02250629663467 466.14070048183203 616.20498414337635 571.68040297925472 11.357497818768023 72.814267739653587 2085.2245732918382 129.91087217628956 117.00440350174904 614.50127696245909 1549.6599589213729 113.61874158680439 315.36945006251335 456.86905099451542 179.69243341684341 276.887915186584 872.26866919547319 62.150208942592144
leaf_count=8858 907 5362 1225 26564 1549 91 82 114 1308 15227 159 100 601 1160 1542 1503 24 113 5264 292 323 1154 3673 300 607 1153 317 548 1739 123
internal_value=1.34889e-07 -0.000705526 0.00225111 -0.00145338 -0.000321152 0.0038225 0.00958059 0.000195234 0.00248325 -0.00327834 -0.0125131 0.00446318 -0.00575765 -0.000782992 -0.00429863 -0.00632877 -0.00159861 -0.00695072 -0.00284944 -0.00661298 -0.00397117 0.00535343 0.000646274 -0.000138823 0.00265723 -0.00245367 0.00356591 0.00342347 0.0118962 0.0181119
internal_weight=36436.8 27731.9 8704.94 22472.5 13880.7 6187.24 1033.39 12780.1 5259.36 8591.77 374.473 3279.49 258.747 1979.87 1082.35 1100.61 2517.7 124.637 8217.3 780.911 651.001 3020.74 1736.79 1663.28 5153.85 772.239 4381.61 897.526 908.754 73.5077
internal_count=81982 63062 18920 51287 29730 12960 2025 26678 11775 21557 1066 7217 701 4558 2702 3052 5960 204 20491 1840 1548 6516 4120 3973 10935 1760 9175 1856 1821 147
is_linear=0
shrinkage=0.03


Tree=14
num_leaves=31
num_cat=0
split_feature=71 23 18 50 49 48 51 86 30 50 50 48 5 50 18 45 23 5 86 50 49 42 49 51 51 27 30 23 51 43
split_gain=85.8096 41.6423 55.186 52.0559 36.1701 32.5719 30.7832 48.9553 40.2874 46.0183 34.6077 28.4279 26.7896 26.7881 41.1819 28.2255 22.5264 23.876 22.2409 28.5423 23.4597 22.1218 21.6109 20.9957 20.3799 20.2704 19.2106 16.3728 15.5259 6.10389
threshold=0.99995940275738693 -0.60355339059327362 0.0027003752614824009 -0.015870432369410988 0.10844615474343301 -0.0097626904025673849 0.36110803484916693 0.54594490992046951 0.0010448084293129668 -0.0040510315448045722 0.0082623031921684759 0.0042734853923320779 0.0023973981523578536 -0.0033312847372144456 -0.00066031658354070804 0.00053180824168150135 -0.5 0.00030145007916290283 0.59166009195650349 0.0013132684980519118 0.59842249751091015 0.0015983030001743019 0.89266708493232738 0.91037839651107799 0.60775962471961986 -0.0012042101374839667 0.00073600070675425332 0.25881904510252091 0.27519398927688604 0.0016441756239948329
decision_type=2 2 2 2 2 2 2 2 2 2 2 2 2 2 2 2 2 2 2 2 2 2 2 2 2 2 2 2 2 2
left_child=6 2 3 21 -5 25 13 8 12 -10 11 -9 -8 14 15 -1 17 -15 19 -7 -20 -2 23 -4 -12 27 -18 -3 -16 -24
right_child=1 5 22 4 -6 18 7 10 9 -11 24 -13 -14 16 28 -17 26 -19 20 -21 -22 -23 29 -25 -26 -27 -28 -29 -30 -31
leaf_value=-0.0091689505597432712 -0.0017220739040681632 0.023397666481689148 -0.020500394661119307 0.013176623164292533 0.0020281370405727897 -0.001528789723270161 0.00089494065817432135 -0.004146651809443392 0.0068264854904364078 -0.0046662044807408171 0.026849014258032336 -0.012358859960938304 0.027532507071550444 -0.0058711809819175283 -0.0049941017467431664 -0.0014555398837643677 0.023698221285375007 0.0072798154289636322 -0.0013964647529565403 0.0032642938986008427 -0.01169820009400975 0.017613460685503613 -0.0042772412180422208 0.0058512239727782816 -0.00029440277875252382 -0.029087320603392572 0.0011656143763461232 -0.016921403087763388 -0.014775297922601925 0.027447612967609804
leaf_weight=552.30641331523657 61.483490698039532 13.192254394292833 156.01787818223238 265.89175133407116 12286.778958007693 2752.6322077214718 8589.1679487526417 1103.5516111329198 356.10634609311819 2396.3099800869823 22.697064220905304 594.13538327813148 31.204361118376255 353.81443510949612 236.62175045162439 1916.4132639542222 64.843770608305931 186.64686377346516 646.46308996528387 1875.711155295372 290.55012314766645 281.9459529966116 5.3417371213436153 29.434550449252129 750.00982265174389 55.538254678249359 75.023281954228878 17.504692129790783 455.41760297864676 11.348881430923937
leaf_count=1287 137 28 384 530 26766 6052 18816 2827 860 5751 48 1480 63 753 517 4563 139 350 1564 4516 815 553 26 67 1812 115 165 30 944 24
internal_value=0 0.00141378 0.00234285 0.00258981 0.00226977 -0.000734254 -0.00149905 -0.00083656 -2.02399e-06 -0.00316258 -0.00466167 -0.00705503 0.00100439 -0.00387632 -0.00503999 -0.00320237 0.00148449 -0.0012592 -0.00044018 0.000408064 -0.00464989 0.0140803 -0.0130737 -0.0161322 0.000564972 -0.0187239 0.0121002 5.61715e-05 -0.0115101 0.016666
internal_weight=36434.1 18749.8 13098.2 12896.1 12552.7 5651.59 17684.3 13843.2 11372.8 2752.42 2470.39 1697.69 8620.37 3841.09 3160.76 2468.72 680.328 540.461 5565.36 4628.34 937.013 343.429 202.143 185.452 772.707 86.2352 139.867 30.6969 692.039 16.6906
internal_count=81982 41607 28487 27986 27296 13120 40375 31657 25490 6611 6167 4307 18879 8718 7311 5850 1407 1103 12947 10568 2379 690 501 451 1860 173 304 58 1461 50
is_linear=0
shrinkage=0.03


Tree=15
num_leaves=31
num_cat=0
split_feature=24 24 1 24 76 53 53 25 42 42 42 38 53 42 53 23 53 24 42 5 10 53 76 50 24 53 44 28 76 1
split_gain=499.453 92.6337 75.5295 69.0908 45.2933 36.0522 38.4332 32.7494 27.1535 23.9443 22.2228 21.927 17.0378 19.5051 15.762 14.8189 13.2051 12.0664 11.5756 9.827 13.9782 8.90982 14.0852 8.49283 7.50795 7.09006 3.26559 2.56434 2.44121 1.80249
threshold=-0.12940952255126037 -0.37940952255126015 0.0017010334522605923 -0.9159756150367534 0.0028160617650920907 -0.023026061244308945 0.018492694944143299 0.6078576107927941 0.0011300716453093542 0.0016213221712099936 0.00198927164538111 0.81212603183589605 -0.020785324275493618 0.0018614474737800684 -0.0073837891686707726 0.37940952255126054 0.018092330545187 0.37940952255126048 0.0012888579186325457 -0.00053648422128636959 -0.013775896434622415 -0.016238852404057976 0.0040685507941569232 -0.011661310680210589 0.37940952255126048 0.0053078024648129949 4.607209012068756e-05 0.0009665517299264336 0.00084810698683119299 0.0022827088689136811
decision_type=2 2 2 2 2 2 2 2 2 2 2 2 2 2 2 2 2 2 2 2 2 2 2 2 2 2 2 2 2 2
left_child=1 3 4 21 5 24 -7 11 26 16 15 -6 17 -14 -9 -5 18 -10 -3 20 -11 27 -23 -12 -2 -21 -4 -1 -18 -28
right_child=2 9 8 10 7 6 -8 14 12 19 23 -13 13 -15 -16 -17 28 -19 -20 25 -22 22 -24 -25 -26 -27 29 -29 -30 -31
leaf_value=-0.0085492813896881539 0.0037112111785565231 -0.0028882326195684518 0.0046387365987016734 -0.0094345412990576669 0.017788959103848926 0.0096516724702586151 0.00062801670374080089 0.0077279502848715724 0.0074459585220853315 -0.0054806570521389935 -0.010728534179329789 -0.0042968248892690424 0.00095035061563480592 0.010143904970074244 0.040047472794004654 -0.0046726879420714114 0.00051708338314010189 -0.0097998508221057816 0.0018654795796198948 0.0054539848142734519 0.011942627032513028 0.00070686555013659046 0.032066031104417018 0.00083991258001071194 -0.0090070056662384015 -0.0022284732834870979 -0.0049074313263880185 -0.00023234360834264829 -0.013385589517636496 -0.010681151422054617
leaf_weight=120.16255236417055 55.653962973505259 1140.817103408277 14.012347400188444 3814.6096076704562 167.29352506622672 3408.2804259248078 493.92382961884141 21.183310929685831 44.914317335933447 45.361632540822029 65.531349785625935 49.083556298166513 534.5540881678462 346.25249281153083 79.096604604274035 738.70071410015225 8.0123900957405549 137.362454328686 762.41287377104163 224.42834771797061 244.68200983852148 977.09066311269999 10.137882906943558 323.24093928188086 126.63421528786421 197.03209721297026 124.52632835134864 56.446217160671949 92.6872294023633 148.70114099234343
leaf_count=562 337 6070 91 17889 1257 22517 2784 141 293 221 290 244 3049 2304 797 3816 49 624 4421 1389 1689 5576 106 1847 585 1048 631 315 377 663
internal_value=-4.01869e-07 -0.00448649 0.0068737 -0.00653586 0.00877738 0.00790624 0.00851854 0.0197405 0.000641112 0.000112808 -0.00808366 0.012652 0.0028749 0.00462052 0.0339335 -0.00867218 -0.00155505 -0.00533668 -0.000968271 0.00483908 0.00908711 1.4834e-05 0.00115536 -0.00110071 -0.00496491 0.0018014 -0.00746711 -0.0061064 -0.0120071 -0.0082402
internal_weight=14572.8 8821.35 5751.47 6105.92 4401.15 4084.49 3902.2 316.657 1350.32 2715.43 4942.08 216.377 1063.08 880.807 100.28 4553.31 2003.93 182.277 1903.23 711.504 290.044 1163.84 987.229 388.772 182.288 421.46 287.24 176.609 100.7 273.227
internal_count=81982 45665 36317 30401 28662 26223 25301 2439 7655 15264 23842 1501 6270 5353 938 21705 10917 917 10491 4347 1910 6559 5682 2137 922 2437 1385 877 426 1294
is_linear=0
shrinkage=0.03


Tree=16
num_leaves=31
num_cat=0
split_feature=53 19 24 24 86 6 6 24 25 24 18 41 53 76 30 18 76 20 9 18 79 28 24 41 28 7 53 26 4 5
split_gain=61.3932 69.1267 113.198 58.1052 56.3002 45.6364 36.9418 44.1045 36.4859 58.2409 39.8172 35.3643 30.1184 32.1156 29.1546 28.1549 29.2017 38.6936 29.1717 29.4083 27.2301 26.7048 26.2596 23.0432 30.23 22.7073 21.4962 19.9829 13.8039 12.0339
threshold=-0.0073837891686707726 0.0022513685349774058 -0.5 0.98296291314453421 0.46034096327767349 -0.0021558009941921499 0.00074553037798502414 0.60355339059327384 0.6078576107927941 0.78656609248549303 0.0041799158927011103 0.0019382368825744233 0.0044848045799881229 0.0017009301007285336 0.0010537872844594844 -0.0018140678672923156 0.0051144408876402274 -0.011230365030144428 0.0078279333528406408 -0.0010021844208497604 1.157888285602267e-06 0.0015288088295606942 0.25881904510252057 0.0033668791021955391 0.00064838508953143751 -0.00021086969193874228 -0.01034882105886936 0.81174490092936691 0.46714148888568247 0.00049191781503957178
decision_type=2 2 2 2 2 2 2 2 2 2 2 2 2 2 2 2 2 2 2 2 2 2 2 2 2 2 2 2 2 2
left_child=4 2 12 5 6 -4 7 11 9 21 14 -1 13 -2 -10 16 17 -6 19 -17 -14 -3 -18 24 -8 -11 -20 -9 -12 -5
right_child=1 8 3 29 15 -7 23 27 10 25 28 -13 20 -15 -16 18 22 -19 26 -21 -22 -23 -24 -25 -26 -27 -28 -29 -30 -31
leaf_value=0.0043897834642848358 0.00079959270206654694 0.0065232615106013067 -0.014320663447467637 0.029505665149450671 0.017373404829305817 -0.0031201527413369048 -0.016108765425239875 0.013621277882277372 -0.0027471998083844202 0.016587617431131858 0.0095486142883974869 -0.003348015167186053 0.0025019629307521654 -0.0047464966748349277 0.0049759186582531093 0.0041278218318978226 -0.025525402004317157 -0.0061037992982695046 0.0072167002978858925 -0.0073415847875421165 0.026267691367818941 -0.0026904905921925838 0.0087332153576349988 -0.022273191078182247 0.0019879427082201452 -0.011579679332329392 -0.0037973850890768196 0.00066253324503814384 -0.028751341834189353 -0.0012067562252737998
leaf_weight=4273.7794050052762 3672.7747448012233 2695.8962971717119 335.31653726100922 55.492815211415291 67.140140376985073 12373.466900974512 99.831043779850006 606.3699856325984 1238.7795952260494 25.211429551243782 7.1191145777702323 600.32489031553268 4719.8188735842705 1257.3287929370999 678.23696910589933 305.97901856154203 104.69437503069639 602.28669590502977 646.27575087547302 563.63654386997223 41.127551414072514 309.7518310919404 21.711277596652508 50.492956474423409 422.62908942997456 250.48283034563065 205.37289152294397 136.2968934327364 55.79726592451334 11.709491200745104
leaf_count=8806 7167 5741 1012 130 121 31286 205 1250 2773 66 9 1338 9099 2466 1635 652 242 1500 1530 1318 86 779 59 121 996 631 538 244 141 41
internal_value=1.70694e-07 -0.000689095 -0.00141481 -0.00326969 0.00219818 -0.00342134 0.00373746 0.00448005 0.00240325 0.0043439 -0.00079958 0.00342912 0.00102768 -0.000610777 0 -0.00157508 -0.00623298 -0.00363753 0.000568217 -0.00327131 0.00272997 0.00556202 -0.0193433 -0.00347565 -0.00148509 -0.00874539 0.00452157 0.0112955 -0.0237252 0.023904
internal_weight=36435.1 27728.3 22467 12776 8706.82 12708.8 6189.72 5616.77 5261.28 3281.34 1979.93 4874.1 9691.05 4930.1 1917.02 2517.1 795.832 669.427 1721.26 869.616 4760.95 3005.65 126.406 572.953 522.46 275.694 851.649 742.667 62.9164 67.2023
internal_count=81982 63062 51287 32469 18920 32298 12960 11638 11775 7217 4558 10144 18818 9633 4408 5960 1922 1621 4038 1970 9185 6520 301 1322 1201 697 2068 1494 150 171
is_linear=0
shrinkage=0.03


Tree=17
num_leaves=27
num_cat=0
split_feature=71 24 24 50 53 53 61 44 53 53 24 53 51 47 86 61 24 53 23 30 41 86 6 51 28 51
split_gain=80.9751 67.4043 53.0277 61.1051 45.8322 37.429 36.3352 35.3727 42.3113 37.8919 32.9403 48.7118 34.7633 32.0791 31.6009 31.0788 30.0279 28.9795 28.6471 26.7338 24.3363 22.333 21.332 18.732 14.6732 7.75279
threshold=0.99995940275738693 -0.37940952255126015 0.78656609248549303 -0.015870432369410988 -0.0077393928077071896 -0.047537984326481812 0.015993897259427532 0.00015084204521642421 0.024941364303231243 -0.0062405588105320922 -0.9159756150367534 0.033774876967072494 0.72077244520187389 0.14174165815809317 0.54594490992046951 0.0027230546137519429 0.98296291314453421 -0.0094266221858561022 0.91597561503675362 0.0011727011999022282 0.0012511353631765689 0.16035620945530107 -0.0019822714125012756 0.23023711144924167 0.0016205192925055369 0.33746680617332464
decision_type=2 2 2 2 2 2 2 2 2 2 2 2 2 2 2 2 2 2 2 2 2 2 2 2 2 2
left_child=1 5 3 17 6 25 -5 9 15 21 12 -12 -7 -6 -11 -9 19 18 -2 22 -10 -3 -4 -21 -19 -1
right_child=2 7 16 4 13 10 -8 8 20 14 11 -13 -14 -15 -16 -17 -18 24 -20 23 -22 -23 -24 -25 -26 -27
leaf_value=-0.030427998266575915 0.017231672802896524 -0.016435340723923664 0.021405225715009038 -0.00089642378394079068 0.0027964341247239399 -0.00118006651680872 -0.0170244941951871 -0.0096693563183537275 -0.018711230707732798 0.00055903750769164141 0.0015358180678280392 0.027490862815807888 -0.014148636414388028 -0.0021084416383202508 -0.005441617147936729 -0.0034398601732067375 -0.026870184802215664 -0.02111270961794488 -0.0076889625069917712 0.0025230446876811394 0.011822703210998192 -0.0045314486449978091 -0.0018413550473886319 -0.014807161099379525 0.013875751193008276 -0.0021713878219734571
leaf_weight=38.498478204011917 393.74572994560003 155.71624400466681 33.983380220830441 3499.4639496803284 12079.130982287228 1154.9162272661924 127.79608410596848 1487.1610943675041 23.771700106561184 4231.8012402206659 6050.0391940623522 62.965678222477436 220.58094598352909 1323.1418614089489 966.58535654097795 1444.9182850569487 49.670069977641106 30.740791253745556 42.89581460505724 67.606844641268253 170.20372101664543 1657.3775060847402 844.0292544439435 248.81399343907833 12.333502300083635 14.705417744815348
leaf_count=56 724 351 78 7523 26316 2604 303 3636 59 10410 11505 124 494 3189 2633 3952 126 100 92 119 430 4097 2166 838 33 24
internal_value=0 -0.00145655 0.00137312 0.0017998 0.00149915 0.000687751 -0.00148651 -0.00305446 -0.00571186 -0.00186346 0.000874329 0.00182142 -0.00330779 0.0023096 -0.000553448 -0.00661636 -0.0045977 0.0123346 0.0146795 -0.00358145 0.00770048 -0.00559579 -0.000837722 -0.0110215 -0.0101921 -0.0236845
internal_weight=36432.6 17679.2 18753.4 17509.2 17029.5 7541.71 3627.26 10137.5 3126.05 7011.48 7488.5 6113 1375.5 13402.3 5198.39 2932.08 1244.1 479.716 436.642 1194.43 193.975 1813.09 878.013 316.421 43.0743 53.2039
internal_count=81982 40375 41607 38280 37331 14807 7826 25568 8077 17491 14727 11629 3098 29505 13043 7588 3327 949 816 3201 489 4448 2244 957 133 80
is_linear=0
shrinkage=0.03


Tree=18
num_leaves=31
num_cat=0
split_feature=24 24 1 24 86 24 24 8 53 23 60 30 45 8 28 3 53 30 13 76 60 86 86 23 53 49 7 7 49 28
split_gain=476.041 88.7246 72.3023 66.9502 37.7268 37.1332 22.6951 21.7758 21.5854 25.0605 21.4453 23.5725 20.3861 18.5086 16.8774 14.6867 11.609 10.7622 10.7206 15.1325 8.85684 15.5303 8.8524 8.36929 7.60892 7.43681 6.52198 5.39641 4.73394 4.5592
threshold=-0.12940952255126037 -0.37940952255126015 0.0012476339784598138 -0.9159756150367534 0.55186851651201352 0.37940952255126048 0.78656609248549303 0.002184278328531446 0.021583779715001587 0.91597561503675362 0.011084440817378515 0.00089107990746227137 0.00076112434168774219 0.0016375659741618065 0.001456574109281388 0.89332181314271286 0.018092330545187 0.00072309227388082974 1.0000000180025095e-35 0.0020848239917585555 0.001947817000134568 0.45326193857127489 0.71077304844289324 0.37940952255126054 -0.020785324275493618 0.47562782466411596 -1.1105152219010694e-05 0.00020742009282283255 0.48144951462745672 0.002573905619186388
decision_type=2 2 2 2 2 2 2 2 2 2 2 2 2 2 2 2 2 2 2 2 2 2 2 2 2 2 2 2 2 2
left_child=1 3 4 20 8 18 24 -8 9 -2 11 -6 23 16 -12 29 17 -3 19 -4 28 -22 -14 -5 -7 -17 -10 -20 -1 -15
right_child=2 13 5 12 10 6 7 -9 26 -11 14 -13 22 15 -16 25 -18 -19 27 -21 21 -23 -24 -25 -26 -27 -28 -29 -30 -31
leaf_value=-0.0053259175026417393 0.0081037780363324777 -0.0037462653254793665 0.0049498088837193676 -0.0098596247773408193 0.013888335573319189 -0.010751657787736856 0.00061330294388204363 0.015277782813081961 -0.0046642223552533953 0.022751157399993466 0.0012926376833736163 0.028081546063780539 -0.0054266624802777053 0.012519937877429187 0.047546555529418458 0.0052232980688597056 -0.011271219433601159 0.00088602328067137145 0.012656354878064038 0.012678352886212337 -0.0012175006732934026 0.0072838477602160693 0.0042909578648423 -0.0057890920171361814 -0.0024816645197756507 -0.0019737319287673871 0.0058392978529379054 -0.0056724699228642931 0.0081419095986602404 -0.004129808112854811
leaf_weight=290.92963549867272 2339.6523655839264 709.63916439190507 733.03185227885842 2918.5585237927735 334.17889383807778 119.18154887482524 363.61970043927431 120.92264131456614 144.79094757512212 110.95333736762404 116.53132085129619 174.38051113858819 1297.3032172583044 181.24946689978242 4.7124737016856661 248.13837957382202 98.368834991008043 1212.0870420262218 13.710319329053162 349.45795958116651 563.39622746035457 287.7788206115365 84.574650373309851 604.62457290291786 696.69673883542418 256.26654487475753 79.051630850881338 85.136420391499996 21.221805743873119 11.844426002353428
leaf_count=1476 15017 3709 4468 13628 2358 533 2059 882 725 898 662 1504 6630 1262 69 1528 426 6913 102 2416 3097 1841 525 3059 3714 1370 494 416 145 56
internal_value=-7.07178e-07 -0.00440251 0.00667701 -0.0064192 0.00958557 0.00278554 -0.00069199 0.004406 0.00799145 0.00880618 0.0162376 0.0189498 -0.00795296 9.18347e-05 0.00443654 0.00430484 -0.00135223 -0.000812136 0.00663101 0.00750058 2.58655e-05 0.00163714 -0.00480225 -0.0091751 -0.00376132 0.00151762 -0.00079441 -0.00253773 -0.00424632 0.0112981
internal_weight=14572 8785.98 5786.01 6068.39 3304.25 2481.76 1300.42 484.542 2674.45 2450.61 629.803 508.559 4905.06 2717.59 121.244 697.499 2020.1 1921.73 1181.34 1082.49 1163.33 851.175 1381.88 3523.18 815.878 504.405 223.843 98.8467 312.151 193.094
internal_count=81982 45665 36317 30401 21727 14590 7188 2941 17134 15915 4593 3862 23842 15264 731 4216 11048 10622 7402 6884 6559 4938 7155 16687 4247 2898 1219 518 1621 1318
is_linear=0
shrinkage=0.03


Tree=19
num_leaves=30
num_cat=0
split_feature=10 24 53 76 24 6 26 76 50 53 50 25 30 5 53 50 53 53 24 61 53 28 53 17 5 30 25 46 3
split_gain=61.8688 86.5737 78.3972 57.1805 50.9858 45.681 44.2144 44.6584 43.1289 41.6617 46.2099 23.4578 19.9212 25.7179 26.7986 42.1653 27.6104 22.2682 24.5495 18.8645 17.2512 16.9063 24.9544 15.8576 15.4192 11.3776 9.4774 5.74086 1.8549
threshold=0.82523841453742175 -0.37940952255126015 -0.0077393928077071896 0.004580647451131562 0.98296291314453421 -0.0021558009941921499 0.81174490092936691 0.004209049809462421 -0.015870432369410988 -0.015816105529665943 -0.0078932829201221449 1.0000000180025095e-35 0.0015595134026874541 0.002524170750814464 0.018492694944143299 0.0085610081441700476 0.019675808027386669 0.0083858612924814242 0.25881904510252057 0.0026933864544630118 0.02723370119929314 0.00091597440823966024 0.016925533302128318 -0.13466222968144079 -0.0028864864694416836 0.0015595134026874541 0.6078576107927941 0.00076769494831450318 0.88054120623086152
decision_type=2 2 2 2 2 2 2 2 2 2 2 2 2 2 2 2 2 2 2 2 2 2 2 2 2 2 2 2 2
left_child=1 3 6 9 5 -4 7 -3 -8 11 -11 -1 13 14 15 -2 -16 18 -15 -6 -19 28 23 -23 26 -26 -5 -24 -14
right_child=12 2 4 24 19 -7 8 -9 -10 10 -12 -13 21 17 16 -17 -18 20 -20 -21 -22 22 27 -25 25 -27 -28 -29 -30
leaf_value=0.011594047227798814 0.0035786733420941951 0.0037791065424202454 -0.01390408638508661 -0.028364342628521885 -0.016319967732594708 -0.0028618662714524558 0.0095899763648928053 -0.014930941281863104 -0.0080025063786121047 -0.0059092210398938826 0.0014660425289538595 0.0033448472429856899 0.0065152902137141895 0.0056461772837000978 0.021550533627977739 -0.0046656617468013349 0.0055786435368540936 -0.02445761946353869 -0.020809395639204645 0.027728689108602378 0 -0.0063098301858369506 0 0.013073156449554344 0.019384025487589124 -0.0094207811115251533 -0.008211614424620017 -0.019396782392510772 0.030184964964456537
leaf_weight=512.48648999631405 3150.6258667558432 3338.8998121395707 345.06779576092958 73.795994095504284 7.2147153690457335 12977.716273456812 150.88642767071724 115.41323480755091 655.160191886127 815.93270400166512 11290.847096845508 826.21448908001184 9.1419384256005269 154.84284792095423 122.08904141187668 672.96755586564541 505.18884402513504 74.206860207021236 36.422659739851952 61.387144275009632 37.228063896298409 40.220524087548256 21.005721762776375 263.53394839912653 12.249580182135103 56.462759606540203 40.087588377296925 30.059680677950382 35.144719012081623
leaf_count=978 6856 7941 1029 172 31 32987 312 319 1532 1636 21939 1485 22 358 214 1544 936 203 125 146 63 106 52 600 26 127 87 83 73
internal_value=4.79851e-07 -0.000500539 -0.00188786 0.00129421 -0.00301619 -0.00315318 0.00165133 0.00313289 -0.00464888 0.0015242 0.000965171 0.00654406 0.0030463 0.0024935 0.00307434 0.00211728 0.00882268 -0.00589527 0.000210264 0.0221875 -0.0163677 0.0094881 0.00705585 0.0103722 -0.0152303 -0.00327123 -0.02192 -0.0115971 0.0266567
internal_weight=36432.5 31279.8 17651.7 13628.1 13391.4 13322.8 4260.36 3454.31 806.047 13445.5 12106.8 1338.7 5152.68 4753.57 4450.87 3823.59 627.278 302.7 191.266 68.6019 111.435 399.107 354.82 303.754 182.596 68.7123 113.884 51.0654 44.2867
internal_count=81982 70747 44297 26450 34193 34016 10104 8260 1844 26038 23575 2463 11235 10299 9550 8400 1150 749 483 177 266 936 841 706 412 153 259 135 95
is_linear=0
shrinkage=0.03


Tree=20
num_leaves=30
num_cat=0
split_feature=71 23 20 25 53 86 20 76 53 23 23 30 79 51 60 29 53 8 4 60 25 72 53 51 51 1 62 51 73
split_gain=76.5372 38.0057 44.2004 43.2962 45.3664 39.6962 39.1991 36.8701 30.8532 44.0798 36.7882 30.0391 30.2795 29.3933 29.1591 27.7868 27.2949 26.6252 25.3944 23.0459 22.0619 41.4269 21.9297 15.9232 14.6542 13.6631 13.1669 10.7349 8.68048
threshold=0.99995940275738693 -0.60355339059327362 0.0041005406505155604 -1.0000000180025095e-35 -0.015816105529665943 0.59552700584481955 -0.0082954721737406954 0.00099565350405321105 0.031951539218425758 -0.78656609248549303 0.78656609248549325 0.0010495311523403045 3.3071704807786152e-07 0.39027646183967596 0.015801563579994463 -7.2455680690913964e-05 -0.038727374747395509 0.0039439780830836267 0.56847902097902125 0.0024521439560427414 0.87837969732492682 0.0012163769020369652 -0.034519469365477555 0.88592836260795604 0.62866011261940014 0.0011132092522863114 1.0000000180025095e-35 0.81014296412467968 0.5359429475470584
decision_type=2 2 2 2 2 2 2 2 2 2 2 2 2 2 2 2 2 2 2 2 2 2 2 2 2 2 2 2 2
left_child=8 2 6 4 26 16 22 -6 10 23 11 14 -13 -11 -1 -8 -5 -15 28 -7 25 -22 -2 24 -10 -12 -3 -20 -4
right_child=1 3 18 5 7 19 15 -9 9 13 20 12 -14 17 -16 -17 -18 -19 27 -21 21 -23 -24 -25 -26 -27 -28 -29 -30
leaf_value=-0.0006696452018647548 -0.019140388581818438 -0.025601249205977498 -0.026016121468596599 0.016037804093780337 0.0071078954178377257 -0.00083165174532830156 0.00082894112957699782 -0.0071836534977339382 0.015720233208268933 -0.022851525054495191 -0.013986386324449143 -0.0066067989317783017 -0.00136454108787369 0.023199313744509932 0.012739976293991814 0.0037170891691440653 0.0013248583031967259 -0.013305931665179434 -0.0089669035423008119 -0.011116541891976235 0.01460409058514019 -0.016529615276751741 0.011010454131758038 0.014611115748594425 -0.019000624721777305 -0.0056118826239722778 0.0012540902583219834 0.0056372347158295628 -0.0029777661951186367
leaf_weight=12158.391059629619 19.183993585407734 120.54416809231043 78.274476267397404 114.62439423054457 209.46167678385973 439.3448770493269 6831.5804595723748 671.50833086669445 9.5940468236803991 12.891409881412981 350.41838926076889 1656.2469618096948 2516.8829808980227 167.17641791701317 144.54682700335979 5391.2608933225274 3716.534066028893 17.074353665113449 97.699641011655331 362.2874453291297 97.384435817599297 58.986192993819714 587.52987218648195 18.683922901749611 69.484108589589596 396.22860274463892 16.210901141166687 77.381099633872509 22.749132931232452
leaf_count=26832 32 252 221 193 483 965 14620 1673 34 19 1089 4287 5861 361 310 11777 8489 54 319 1034 245 132 1294 28 137 986 31 168 56
internal_value=0 0.00133452 0.00222165 -0.000717852 -0.00631323 0.000508151 0.00247993 -0.00373913 -0.00141662 0.00814117 -0.00158191 -0.00125583 -0.00345554 0.0162771 -0.000506591 0.0021059 0.00178508 0.0194972 -0.00956975 -0.00554118 -0.00747453 0.0025815 0.00991841 -0.00796367 -0.014002 -0.00962249 -0.0222446 -0.00235756 -0.0213521
internal_weight=36430.2 18756.2 13105.7 5650.52 1017.73 4632.79 12829.6 880.97 17674 294.904 17379.1 16476.1 4173.13 197.142 12302.9 12222.8 3831.16 184.251 276.104 801.632 903.018 156.371 606.714 97.7621 79.0782 746.647 136.755 175.081 101.024
internal_count=81982 41607 28487 13120 2439 10681 27723 2156 40375 633 39742 37290 10148 434 27142 26397 8682 415 764 1999 2452 377 1326 199 171 2075 283 487 277
is_linear=0
shrinkage=0.03


Tree=21
num_leaves=31
num_cat=0
split_feature=24 62 24 24 53 43 41 43 24 23 53 43 43 53 50 53 53 50 1 51 23 40 18 41 46 53 25 24 51 68
split_gain=455.59 91.4691 86.1237 64.9774 55.9442 39.6743 20.3941 20.3659 14.3811 14.2755 11.2255 9.12138 8.93271 11.1129 13.0422 8.33159 7.81346 7.48634 6.82211 6.10548 5.92933 5.73408 5.06554 5.04841 3.89799 3.47379 3.20688 3.06383 2.60034 1.55185
threshold=-0.37940952255126015 1.0000000180025095e-35 -0.12940952255126037 -0.9159756150367534 -0.021507562138140198 0.0017187496754578447 0.0016213952021782198 0.0019058782314335079 0.37940952255126048 0.37940952255126054 0.018092330545187 0.002042426895584933 0.0011005543320171693 -0.016238852404057976 0.014003288466483356 -0.030600241385400292 -0.012680952437222002 -0.011661310680210589 0.0010396715889621534 0.79911714792251598 1.0000000180025095e-35 0.44852941176470346 0.00077177571305067215 0.0015150233089733774 0.00069656963311083857 -0.0092906537465751154 1.0000000180025095e-35 0.78656609248549303 0.7509773075580598 -0.0031686468182697265
decision_type=2 2 2 2 2 2 2 2 2 2 2 2 2 2 2 2 2 2 2 2 2 2 2 2 2 2 2 2 2 2
left_child=3 2 6 12 8 -6 10 9 -4 23 -2 18 19 22 -15 -8 -11 29 27 24 -21 -19 -14 -5 -1 -13 -20 -3 -27 -9
right_child=1 11 4 7 5 -7 15 17 -10 16 -12 25 13 14 -16 -17 -18 21 26 20 -22 -23 -24 -25 -26 28 -28 -29 -30 -31
leaf_value=-0.0027062497828204885 -0.00026543752772302938 0 0.0047642229161392177 -0.0097388575334015244 0.007104808994230204 0.014035688530400969 -0.011965110596232554 0.0044996251185639262 -0.0076955370443031901 -0.010410987923791578 -0.011132670056890389 -0.0014866046503716247 -0.0086831919427990296 0.004881721386451935 -0.0099234009690292897 0.0058917845687646905 -0.0027350166240038541 0.0052486493366562248 -0.0040172443387558642 -0.0060321878620464486 0.033212792391019368 -0.0025525191961484907 0.0046619033152355705 -0.006609440838527182 -0.010736387116614669 0.022099166309423029 -0.008756577927510778 0.017845867229374628 0 -0.011360533394737183
leaf_weight=297.328084487468 1737.6667860001326 32.647439040243626 118.75704582408071 3055.1207034736872 3988.774569645524 933.10137251764536 20.600235860794783 1.6525704488158215 250.24273988977075 156.85726690664887 87.443986553698778 15.338607355952261 109.31171765550971 594.79998926445842 54.855035893619061 657.289540335536 567.75019598007202 129.20598850026727 237.7584387883544 2.9077376127243033 4.8494887389242649 231.83586846664548 27.874668974429369 661.81726591289043 70.94107560813427 13.40556897595525 425.51007064059377 8.8066052757203561 9.652569003403185 66.695108134299517
leaf_count=1588 9699 183 724 14392 25121 6540 81 15 1203 715 381 80 511 3661 241 4074 3065 806 1237 9 59 1239 177 3318 313 117 2010 75 56 292
internal_value=-5.70055e-07 0.00445652 0.00541753 -0.00631079 0.00758629 0.00843262 0.000817631 -0.00783111 -0.00359882 -0.0084355 -0.000819929 -0.00556368 3.5449e-05 0.00187745 0.00354578 0.00525475 -0.00447396 -0.00149485 -0.00637022 -0.00372416 0.0181336 0.000177122 -0.00571589 -0.0091955 -0.00440818 0.00790349 -0.00712846 0.00474921 0.0147532 -0.0103835
internal_weight=14570.8 8537 7793.88 6033.8 5290.88 4921.88 2503 4870.93 369 4441.55 1825.11 743.119 1162.87 786.841 649.655 677.89 724.607 429.39 704.723 376.026 7.75723 361.042 137.186 3716.94 368.269 38.3967 663.269 41.454 23.0581 68.3477
internal_count=81982 51581 47823 30401 33588 31661 14235 23842 1927 21490 10080 3758 6559 4590 3902 4155 3780 2352 3505 1969 68 2045 688 17710 1901 253 3247 258 173 307
is_linear=0
shrinkage=0.03


Tree=22
num_leaves=31
num_cat=0
split_feature=12 24 24 50 30 72 51 72 72 38 60 71 25 72 27 24 86 51 60 74 39 86 17 49 26 71 49 61 30 45
split_gain=52.3599 84.6959 56.8 52.0811 49.3362 35.0018 30.5763 26.7534 21.4076 19.8574 21.2294 22.4816 18.3684 17.9433 31.7526 18.6789 18.1176 17.5943 17.8492 17.4402 15.4273 15.2009 14.7874 14.5177 13.6059 15.5282 13.124 12.1881 10.826 11.5376
threshold=1.0000000180025095e-35 -0.37940952255126015 0.98296291314453421 -0.0015828280011191962 0.0012094724075123163 0.0015422380896455785 0.88592836260795604 0.0034269195513649937 0.0014406596897327047 0.6204961949527118 0.0080994268721258002 0.99895821203024482 0.6078576107927941 0.0026046940135563928 0.0011128000152343615 0.37940952255126048 0.28414202847764009 0.94521126151084911 0.0097368812130110716 -0.53759760845636495 0.82955597105327328 0.629083647332074 -0.083260103362349291 0.12208916619420053 1.0000000180025095e-35 1.0002498638513118 0.69499209523201 0.0041072859561298398 0.00083149430731719101 0.00077334037736039799
decision_type=2 2 2 2 2 2 2 2 2 2 2 2 2 2 2 2 2 2 2 2 2 2 2 2 2 2 2 2 2 2
left_child=1 6 3 4 -3 -5 7 12 9 28 21 -12 -1 20 16 -16 -15 18 -8 -19 22 -11 -10 -9 27 -26 -22 -4 -2 -30
right_child=8 2 24 5 -6 -7 17 23 13 10 11 -13 -14 14 15 -17 -18 19 -20 -21 26 -23 -24 -25 25 -27 -28 -29 29 -31
leaf_value=0.002225460292785151 0.00079813180180183109 0.0011616352935183323 0.0023361903636772699 -0.0041724651045180177 -0.0045593273753107011 0.00074813401558559988 0.023662157984321201 -0.024349630446540236 -0.0044357437490373519 0.00097762017585615929 -0.0071066249927429067 0.0012235523571309213 -5.665179893767107e-05 0.012344215388040434 0.01804046046985627 -0.0055193192886203203 -0.0050712436993424724 0.019179982839169444 -0.0021422802486570584 -0.027825700635623677 0.021889584380118756 0.011303616810427896 0.0057436395401350478 -0.0049294343330526522 -0.026028908488849287 0.019526125423586373 0.008373487417657869 0.029030331072668593 0.0145834942250986 0.0012993334265847887
leaf_weight=8184.3042246028781 201.96474625915289 6033.88255315274 23.079867981374264 8334.5005028918386 1746.5404165163636 1528.8014632835984 109.60485227406025 41.740398265421391 136.28251813352108 571.54478624463081 604.60762660950422 549.22937745600939 5142.7619886994362 57.165349617600441 118.6127530708909 36.427781857550144 460.33199648559093 8.8111863136291522 27.471221618354321 14.012036748230456 86.982363700866699 165.86402457207441 1355.1937463358045 197.99815893918276 10.110427960753443 10.590909168124197 322.96071301400661 74.186678975820541 178.41909518092871 95.760105833411217
leaf_count=16118 422 14749 71 21179 4579 3806 198 72 308 1190 1451 1384 9729 100 213 67 1052 19 54 23 170 357 2795 404 32 15 667 162 357 239
internal_value=5.02425e-07 -0.000449299 -0.00181766 -0.00195934 -0.000120008 -0.00340674 0.00131912 0.00116131 0.00287143 0.000795539 -0.000571149 -0.00312262 0.00134275 0.00476594 0.000502355 0.0123154 -0.00302975 0.0142564 0.0183414 -0.00839684 0.00625506 0.00337714 0.0047864 -0.00869338 0.018648 -0.00193543 0.0114522 0.0232548 0.00625623 0.0101164
internal_weight=36429.7 31488.4 17761.7 17643.7 7780.42 9863.3 13726.7 13566.8 4941.35 2367.39 1891.25 1153.84 13327.1 2573.96 672.538 155.041 517.497 159.899 137.076 22.8232 1901.42 737.409 1491.48 239.739 117.968 20.7013 409.943 97.2665 476.144 274.179
internal_count=81982 71210 44593 44313 19328 24985 26617 26323 10772 5400 4382 2835 25847 5372 1432 280 1152 294 252 42 3940 1547 3103 476 280 47 837 233 1018 596
is_linear=0
shrinkage=0.03


Tree=23
num_leaves=27
num_cat=0
split_feature=71 24 24 50 53 53 61 44 53 53 24 53 51 53 61 75 85 53 24 30 53 29 86 60 51 51
split_gain=72.2529 64.0016 49.3618 57.3545 41.5447 35.8925 35.7685 33.4304 39.8379 34.692 30.6923 45.3756 33.4911 29.9111 29.775 29.2842 28.7139 28.3505 27.8732 25.3493 24.3545 21.7853 21.5164 18.4247 18.0787 7.59279
threshold=0.99995940275738693 -0.37940952255126015 0.78656609248549303 -0.015870432369410988 -0.0077393928077071896 -0.047537984326481812 0.015993897259427532 0.00015084204521642421 0.024941364303231243 -0.0062405588105320922 -0.9159756150367534 0.033774876967072494 0.72077244520187389 -0.0021602811757475133 0.0027230546137519429 0.99930810704867123 1.0000000180025095e-35 -0.0094266221858561022 0.98296291314453421 0.0011727011999022282 -0.047537984326481812 0.0002614060090097007 0.16035620945530107 0.0025646954807252375 0.23023711144924167 0.33746680617332464
decision_type=2 2 2 2 2 2 2 2 2 2 2 2 2 2 2 2 2 2 2 2 2 2 2 2 2 2
left_child=1 5 3 17 6 25 -5 9 14 22 12 -12 -7 -11 -9 -10 -6 20 19 21 -2 -4 -3 -19 -21 -1
right_child=2 7 18 4 16 10 -8 8 15 13 11 -13 -14 -15 -16 -17 -18 23 -20 24 -22 -23 -24 -25 -26 -27
leaf_value=-0.02989405794635977 -0.010711473818614342 -0.016007668821017836 -0.0017299716136857405 -0.00084168239993150421 0.00088031944933143606 -0.0010564400717145176 -0.016854202045965098 -0.0093921569738640177 0.014688958736473304 0.0048267521625966299 0.0015324776208018843 0.02654660112151102 -0.013799530993065011 -0.0014940389648727479 -0.0032898755113646596 -0.010655150018603508 0.0036697482019822643 -0.022910496064308623 -0.026045027389829847 0.0025533347662930663 0.016161232021109737 0.024330609681131286 -0.0043072781341868226 0.016045198192447093 -0.014472820082687807 -0.001938694484009491
leaf_weight=38.292012840509415 29.376229807734489 155.19776134192944 851.06884041428566 3498.1972266063094 7139.6253111064434 1154.0194389298558 127.60525631159544 1484.052840910852 140.56076053529978 791.28367920219898 6049.9905241504312 63.171477541327477 219.98767755180597 4405.8069590106606 1443.3906083330512 53.597914770245552 6270.5489636734128 30.25060448795557 49.134624563157558 67.578894786536694 407.81959614157677 26.80363504588604 1654.8818321377039 12.841402247548102 248.20813869684935 14.675118133425711
leaf_count=56 58 351 2176 7523 16006 2604 303 3636 330 1965 11505 124 494 11078 3952 159 13499 95 126 119 758 68 4097 38 838 24
internal_value=0 -0.00137683 0.0012963 0.00170766 0.00141628 0.000712515 -0.00142696 -0.00293491 -0.0055205 -0.00177691 0.00089494 0.00180877 -0.0031441 -0.000523668 -0.00640008 0.00748483 0.00218741 0.0119079 -0.00446759 -0.00349126 0.0142267 -0.000820067 -0.00535185 -0.0103621 -0.0107454 -0.0232038
internal_weight=36428 17668.9 18759.1 17516.3 17036 7540.14 3625.8 10128.8 3121.6 7007.17 7487.17 6113.16 1374.01 5197.09 2927.44 194.159 13410.2 480.288 1242.79 1193.66 437.196 877.872 1810.08 43.092 315.787 52.9671
internal_count=81982 40375 41607 38280 37331 14807 7826 25568 8077 17491 14727 11629 3098 13043 7588 489 29505 949 3327 3201 816 2244 4448 133 957 80
is_linear=0
shrinkage=0.03


Tree=24
num_leaves=31
num_cat=0
split_feature=24 62 24 24 86 53 43 43 40 23 86 53 26 43 53 50 79 50 44 43 50 9 43 6 24 79 1 72 40 49
split_gain=434.59 87.4694 81.7757 62.8679 53.5545 49.662 19.9366 19.7973 19.3141 13.9668 14.9855 12.1157 11.4274 8.57387 10.6948 12.6143 8.18786 7.32207 6.28439 5.89709 9.05326 4.83234 4.81572 4.73784 6.7996 3.59843 3.43363 3.29231 2.55842 2.15939
threshold=-0.37940952255126015 1.0000000180025095e-35 -0.12940952255126037 -0.9159756150367534 0.57974975365801862 -0.021507562138140198 0.0012837370784950914 0.0019058782314335079 0.82347730568815358 0.37940952255126054 0.60760072060593029 0.0053078024648129949 0.81174490092936691 0.0011005543320171693 -0.016238852404057976 0.014003288466483356 2.40781057515074e-07 -0.011661310680210589 0.00014475080260606575 0.0012475160248400089 -0.0052639918867498628 0.009016967952547127 0.0019210615975631523 0.00033309494399811165 -0.98296291314453399 -3.3018568639578995e-07 0.0010298115469522849 0.001592975347795337 0.40694884888433108 0.21015540510416034
decision_type=2 2 2 2 2 2 2 2 2 2 2 2 2 2 2 2 2 2 2 2 2 2 2 2 2 2 2 2 2 2
left_child=3 2 6 13 5 -4 16 9 -6 21 -11 -8 22 23 25 -16 -2 29 -19 27 -21 -5 26 28 -25 -15 -3 -14 -1 -9
right_child=1 12 4 7 8 -7 11 17 -10 10 -12 -13 19 14 15 -17 -18 18 -20 20 -22 -23 -24 24 -26 -27 -28 -29 -30 -31
leaf_value=-0.0024087623845055047 -0.0036047517115330662 0.0006674112327746841 -0.0050600763755540793 -0.0096485069283369466 0.015962767384924543 0.0069233997695945905 0.0051631659117264053 -0.0010077028906007209 0.002243699415748689 -0.0060666505602719988 0.006547914324890089 -0.00039289656095736742 0.0025955411496229926 0.0036651565995128783 0.0047803770623739573 -0.0098193982567588208 0.0034050645219635043 -0.0056574359619829609 0.0028708495960088729 -0.0030527623991865789 0.021362173880294464 -0.0067465077244760118 0.0022562600933629189 0.013814921813321973 -0.0026248150157902705 -0.0079569057118513628 -0.0086072984910606498 -0.0080271775571963775 -0.0088429918873652019 -0.013985811273146147
leaf_weight=126.4880770817399 861.27385974675417 31.700619012117386 331.53032563626766 2917.1297446116805 750.894566539675 4130.8020925223827 910.99610329046845 22.790867790579796 112.4055102057755 627.99378877878189 93.187422413378954 559.53655936941504 51.115877337753773 24.462131917476654 596.78148398175836 54.477313905954361 174.69462037831545 108.42404730245471 252.29925133287907 20.952557560056448 26.238412007689476 768.19395998865366 38.150027476251125 26.66162134706974 88.031689159572124 112.08950211852789 528.05158427357674 44.171067044138908 133.55539599061012 45.052519641816616
leaf_count=682 4519 183 1680 13850 5423 25838 5574 123 647 3179 601 3091 307 153 3661 241 1051 541 1504 107 217 3860 226 198 466 535 2513 205 623 184
internal_value=-1.78143e-06 0.00432935 0.00526322 -0.00619643 0.00736594 0.00602356 0.000780101 -0.00770171 0.0142251 -0.0083016 -0.00437486 0.00303223 -0.00549064 4.20859e-05 0.00184328 0.00347384 -0.0023874 -0.00144935 0.000199468 0.00194726 0.0103898 -0.00905771 -0.00731386 -0.00364972 0.0011966 -0.0056259 -0.00802797 -0.00211819 -0.00589053 -0.0102768
internal_weight=14570.1 8572.51 7832.13 5997.62 5325.63 4462.33 2506.5 4835.07 863.3 4406.5 721.181 1470.53 740.38 1162.55 787.81 651.259 1035.97 428.567 360.723 142.478 47.191 3685.32 597.902 374.737 114.693 136.552 559.752 95.2869 260.043 67.8434
internal_count=81982 51581 47823 30401 33588 27518 14235 23842 6070 21490 3780 8665 3758 6559 4590 3902 5570 2352 2045 836 324 17710 2922 1969 664 688 2696 512 1305 307
is_linear=0
shrinkage=0.03


Tree=25
num_leaves=31
num_cat=0
split_feature=53 19 24 86 24 51 23 53 25 24 43 41 53 53 86 51 25 51 51 46 23 53 49 7 53 53 5 48 24 51
split_gain=53.6656 58.6995 96.965 52.4427 50.45 44.2014 40.3025 41.4148 34.849 55.2835 30.3343 40.7103 28.9936 29.4644 28.6066 27.42 36.1558 33.849 26.9353 27.9532 26.7654 26.4908 26.3796 26.2169 25.318 39.7359 36.7319 25.1953 22.7693 21.1566
threshold=-0.0073837891686707726 0.0022513685349774058 -0.5 0.49024473719276568 0.98296291314453421 0.19816139340400699 0.37940952255126054 -0.038727374747395509 0.6078576107927941 0.78656609248549303 0.0012382804297797411 0.0014911449784257209 0.0044848045799881229 0.0031586565310135488 0.25381425858522721 0.65237855911254894 1.0000000180025095e-35 0.63123202323913585 0.23023711144924167 0.00075860510589123478 0.91597561503675362 -0.047537984326481812 0.78396442532539379 0.00053565331004594538 -0.020785324275493618 -0.011920322198420761 -0.0013112335204276202 -0.0044423008803278199 -0.37940952255126015 0.41385589540004736
decision_type=2 2 2 2 2 2 2 2 2 2 2 2 2 2 2 2 2 2 2 2 2 2 2 2 2 2 2 2 2 2
left_child=3 2 12 6 5 -4 15 14 9 29 28 -12 13 -2 -8 17 -17 -1 24 20 -20 -21 -11 -14 26 -26 -5 -9 -10 -3
right_child=1 8 4 18 -6 -7 7 27 10 22 11 -13 23 -15 -16 16 -18 -19 19 21 -22 -23 -24 -25 25 -27 -28 -29 -30 -31
leaf_value=0.0024816850948221106 0.00024304741589729057 -0.0036501977231009862 -0.013276097020647125 0.012945018344817144 0.022246623243925651 -0.0028591482470934921 -0.023703965402511261 0.028363311829815222 -0.0017808875373151272 -0.01694669631240258 -0.012499194925475271 -0.00014582668999112277 0.002342602299163958 -0.0065586827101562269 0.0039250894245542846 -0.018554822194564953 0.0019331244083393218 0.019413150398311436 -0.0023684886889142939 0.023224891583413898 -0.027783941967499327 0.0026365520584756847 0.0013945671216078715 0.021408476022068853 -0.016831661271030602 0.00066700449304001248 -0.019586236655609112 0.0093317630517375169 0.0077079963975830766 0.0059877804783184507
leaf_weight=5029.4799867346883 4273.4734364002943 215.2715792581439 377.01287201792002 106.40402089804411 67.412814527750015 12311.293225295842 51.646834433078766 67.375936083495617 431.93730703741312 151.49564977735281 360.75089523941278 721.28771057724953 4700.3048294559121 657.8006743863225 82.734947696328163 125.0151636749506 189.64670127630234 106.26961479336023 757.8289887085557 59.411846004426479 36.658530376851559 656.46713135391474 123.98902770131826 63.319429695606232 312.421296864748 180.01164276897907 40.391786366701126 909.24498918652534 466.73342147469521 2793.8010438755155
leaf_count=10698 8376 429 1071 247 171 31227 91 134 809 400 914 1788 9072 1257 135 285 397 233 1870 114 98 1482 297 113 735 468 80 1853 1047 6091
internal_value=1.10051e-06 -0.000643646 -0.0013131 0.00205545 -0.0030322 -0.0031741 0.00338911 0.00859973 0.00220428 0.00409994 -0.000925582 -0.00431525 0.000945893 -0.000661616 -0.00676094 0.00231734 -0.00621066 0.002849 -0.00200051 0.000168064 -0.00367891 0.00447673 -0.00865791 0.00261564 -0.00714798 -0.0104091 0.00358058 0.0107582 0.00312323 0.00528536
internal_weight=36426.9 27715.9 22450.6 8711.01 12755.7 12688.3 6561.41 1111 5265.27 3284.56 1980.71 1082.04 9694.9 4931.27 134.382 5450.41 314.662 5135.75 2149.6 1510.37 794.488 715.879 275.485 4763.62 639.229 492.433 146.796 976.621 898.671 3009.07
internal_count=81982 63062 51287 18920 32469 32298 13826 2213 11775 7217 4558 2702 18818 9633 226 11613 682 10931 5094 3564 1968 1596 697 9185 1530 1203 327 1987 1856 6520
is_linear=0
shrinkage=0.03


Tree=26
num_leaves=27
num_cat=0
split_feature=71 24 24 50 53 53 61 44 53 53 47 86 61 24 53 51 61 53 24 30 53 29 86 60 51 17
split_gain=68.6789 61.4207 47.1834 54.6896 39.7178 34.7148 34.5735 31.888 38.4051 33.0937 30.2004 29.4587 29.4409 29.0931 43.5802 32.1921 27.1779 27.1218 26.3692 24.514 23.4451 20.9792 20.76 17.8225 17.3579 7.47944
threshold=0.99995940275738693 -0.37940952255126015 0.78656609248549303 -0.015870432369410988 -0.0077393928077071896 -0.047537984326481812 0.015993897259427532 0.00015084204521642421 0.016925533302128318 -0.0062405588105320922 0.14174165815809317 0.54594490992046951 0.0027230546137519429 -0.9159756150367534 0.033774876967072494 0.72077244520187389 0.0079871995979596301 -0.0094266221858561022 0.98296291314453421 0.0011727011999022282 -0.047537984326481812 0.0002614060090097007 0.16035620945530107 0.0025646954807252375 0.23023711144924167 -0.035301315072433816
decision_type=2 2 2 2 2 2 2 2 2 2 2 2 2 2 2 2 2 2 2 2 2 2 2 2 2 2
left_child=1 5 3 17 6 25 -5 9 12 22 -6 -11 -9 15 -15 -7 -10 20 19 21 -2 -4 -3 -19 -21 -1
right_child=2 7 18 4 10 13 -8 8 16 11 -12 -13 -14 14 -16 -17 -18 23 -20 24 -22 -23 -24 -25 -26 -27
leaf_value=-0.0015780768777323862 -0.010578410902329709 -0.015713231899675006 -0.0016948810054945849 -0.00082435458108960017 0.0026067278544641523 -0.0010050138747257891 -0.016582598814363081 -0.0098449528320895905 0.0064358758438716667 0.00055854828347665043 -0.0021518653988019912 -0.0052385644581352713 -0.0034928737940543783 0.0015012558102051562 0.02599775297025848 -0.013511280212497662 -0.011999705627493059 -0.022539944676742665 -0.025456794622608369 0.0024503189609976577 0.015783279012641767 0.023853162075398913 -0.0042062344422220694 0.01576389013536577 -0.014225471424330335 -0.029430409975164901
leaf_weight=14.409449025988577 29.355988971889019 154.81422118097544 850.89140554517508 3497.8182504996657 12090.212307840586 1153.650008007884 127.34492061287165 1365.6245109438896 356.78698822110891 4231.4698503911495 1323.3652127385139 965.19603890180588 1309.9408661052585 6050.9826919361949 63.271888017654419 219.47008816897869 86.312204256653786 30.184424296021461 48.697684839367867 67.622454635798931 408.31058276444674 26.865214802324772 1653.7158752307296 12.853573478758333 247.7468673735857 38.365133240818977
leaf_count=21 58 351 2176 7523 26316 2604 303 3382 892 10410 3189 2633 3550 11505 124 494 253 95 126 119 758 68 4097 38 838 59
internal_value=0 -0.00134278 0.00126351 0.0016655 0.00138086 0.000703728 -0.00139943 -0.00286972 -0.00539653 -0.00173869 0.00213464 -0.000514803 -0.00675361 0.000882892 0.00177228 -0.00305083 0.00272097 0.0116218 -0.00437401 -0.00342674 0.013887 -0.000800294 -0.00523221 -0.0101668 -0.0105662 -0.0228575
internal_weight=36425.3 17664 18761.3 17519.4 17038.7 7540.15 3625.16 10123.9 3118.66 7005.2 13413.6 5196.67 2675.57 7487.37 6114.25 1373.12 443.099 480.705 1241.82 1193.13 437.667 877.757 1808.53 43.038 315.369 52.7746
internal_count=81982 40375 41607 38280 37331 14807 7826 25568 8077 17491 29505 13043 6932 14727 11629 3098 1145 949 3327 3201 816 2244 4448 133 957 80
is_linear=0
shrinkage=0.03


Tree=27
num_leaves=31
num_cat=0
split_feature=24 62 24 24 86 24 71 42 43 24 86 42 60 86 4 7 1 60 86 51 51 29 49 73 4 24 9 24 30 3
split_gain=414.819 83.6075 77.5774 60.8306 50.019 33.1788 22.7678 20.348 19.0742 10.8859 10.7688 8.63934 8.26464 14.5869 12.0005 6.97523 6.88002 6.68342 5.22031 4.65886 7.63621 7.47232 4.61881 6.98863 4.07048 3.09923 2.98011 2.82657 2.46465 2.07674
threshold=-0.37940952255126015 1.0000000180025095e-35 -0.12940952255126037 -0.9159756150367534 0.57974975365801862 0.37940952255126048 1.0017017612363495 0.0020071865684613836 0.0012837370784950914 -0.78656609248549325 0.4015998001924343 0.0023559911018421176 0.001947817000134568 0.41578900573653615 0.55210833996993947 0.00022837701717719945 0.0010349499336520928 0.0021372552838357412 0.7903081906800139 0.43051032721996313 0.55437454581260692 -0.00021162722909789111 0.48144951462745672 0.24679725112215486 0.69751016320739534 0.78656609248549303 0.0089803840202814633 0.78656609248549303 0.0033261573257047906 1.4245536169780719
decision_type=2 2 2 2 2 2 2 2 2 2 2 2 2 2 2 2 2 2 2 2 2 2 2 2 2 2 2 2 2 2
left_child=3 2 8 12 5 -4 -6 9 15 17 -10 16 22 24 -15 -2 25 -5 -11 21 -21 -9 26 -24 -14 -3 -1 -13 -29 -18
right_child=1 11 4 7 6 -7 -8 19 10 18 -12 27 13 14 -16 -17 29 -19 -20 20 -22 -23 23 -25 -26 -27 -28 28 -30 -31
