{"learner":{"attributes":{"best_iteration":"16","best_score":"1.0836056808711914","scikit_learn":"{\"_estimator_type\": \"classifier\"}"},"feature_names":["return","hl_ratio","close_pos","volume_change","rsi","macd_line","macd_signal","macd_hist","atr","channel_width_3x","channel_position","above_upper_1x","above_upper_2x","above_upper_3x","below_lower_1x","below_lower_2x","below_lower_3x","atr_slope","ema_diff","price_ema30","price_ema60","ema30_slope","ema_cross","hour_sin","hour_cos","dow_sin","dow_cos","ret_mean_10","ret_std_10","ret_mean_20","ret_std_20","ret_slope_10","ret_slope_20","ret_lag1","ret_lag2","ret_lag3","ret_lag4","ret_lag5","rsi_lag1","rsi_lag2","rsi_lag3","atr_lag1","atr_lag2","atr_lag3","atr_std_10","up_atr_ratio","down_atr_ratio","atr_asymmetry","m15_ema_bias","m15_rsi","h1_ema_bias","h1_rsi","h1_macd_sign","h4_ema_bias","m15_h1_trend_align","m5_m15_dir_align","rsi_oversold","rsi_overbought","bullish_divergence","bearish_divergence","support_distance","resistance_distance","volume_surge","price_ema50_distance","reversal_candle","bullish_engulfing","bearish_engulfing","atr_expansion"],"feature_types":["float","float","float","float","float","float","float","float","float","float","float","float","float","float","float","float","float","float","float","float","float","float","float","float","float","float","float","float","float","float","float","float","float","float","float","float","float","float","float","float","float","float","float","float","float","float","float","float","float","float","float","float","float","float","float","float","float","float","float","float","float","float","float","float","float","float","float","float"],"gradient_booster":{"model":{"cats":{"enc":[],"feature_segments":[],"sorted_idx":[]},"gbtree_model_param":{"num_parallel_tree":"1","num_trees":"201"},"iteration_indptr":[0,3,6,9,12,15,18,21,24,27,30,33,36,39,42,45,48,51,54,57,60,63,66,69,72,75,78,81,84,87,90,93,96,99,102,105,108,111,114,117,120,123,126,129,132,135,138,141,144,147,150,153,156,159,162,165,168,171,174,177,180,183,186,189,192,195,198,201],"tree_info":[0,1,2,0,1,2,0,1,2,0,1,2,0,1,2,0,1,2,0,1,2,0,1,2,0,1,2,0,1,2,0,1,2,0,1,2,0,1,2,0,1,2,0,1,2,0,1,2,0,1,2,0,1,2,0,1,2,0,1,2,0,1,2,0,1,2,0,1,2,0,1,2,0,1,2,0,1,2,0,1,2,0,1,2,0,1,2,0,1,2,0,1,2,0,1,2,0,1,2,0,1,2,0,1,2,0,1,2,0,1,2,0,1,2,0,1,2,0,1,2,0,1,2,0,1,2,0,1,2,0,1,2,0,1,2,0,1,2,0,1,2,0,1,2,0,1,2,0,1,2,0,1,2,0,1,2,0,1,2,0,1,2,0,1,2,0,1,2,0,1,2,0,1,2,0,1,2,0,1,2,0,1,2,0,1,2,0,1,2,0,1,2,0,1,2,0,1,2,0,1,2],"trees":[{"base_weights":[-2.0646122E-3,-1.8642338E-1,1.3671651E-1,-4.3810636E-2,-2.945681E-1,4.680106E-2,2.239288E-1,-1.7649864E-1,8.596093E-3,-4.7493356E-1,-2.1719363E-1,9.406309E-2,-3.5251216E-3,2.3142624E-1,1.8508355E-4,-2.698651E-1,-8.283437E-2,-9.765369E-2,6.282489E-2,-5.732102E-1,-4.2818943E-1,-1.8949662E-1,-3.8526848E-1,1.847692E-1,3.2384593E-2,7.742063E-3,-1.4587426E-1,1.9975553E-1,2.6479596E-1,3.0239037E-1,-1.9107334E-1,-3.8661897E-1,-2.1722203E-1,2.8659073E-1,-1.071862E-1,4.046175E-2,-1.6356352E-1,2.841499E-1,4.55795E-2,4.823723E-1,-5.7772285E-1,-4.348569E-1,2.607621E-1,-1.4249551E-1,-2.618209E-1,-2.166274E-1,-4.6551317E-1,1.0935364E-1,2.6884237E-1,2.2606846E-2,5.978673E-1,2.738552E-2,-1.01271465E-1,-2.4847369E-1,2.4876186E-1,1.9583343E-1,9.078122E-1,2.561593E-1,4.2291886E-1,2.2491926E-1,7.600605E-1,-3.081891E-1,9.878598E-2,-2.2085853E-2,-1.0668385E-2,-5.1377187E-3,-1.4749547E-2,4.3873102E-3,4.742774E-2,-6.5386533E-3,1.0557671E-2,5.6142733E-3,-9.12524E-3,-1.3712821E-2,-3.013365E-3,1.6705314E-2,-1.5582198E-2,6.6947336E-3,9.2142646E-4,-3.0300472E-2,5.5245638E-2,-3.0405207E-2,-2.1191053E-2,-2.2243008E-2,-2.4384707E-3,-1.1109283E-2,3.809425E-2,-1.0150406E-2,-2.2359907E-3,-5.1808166E-3,-1.4451856E-2,-1.2360619E-2,3.7272844E-2,-2.5761385E-2,-8.7964935E-3,1.4814801E-2,3.5934157E-3,1.960511E-2,9.885589E-3,8.472829E-3,-1.637288E-4,3.4382787E-2,-1.644413E-2,-2.0319405E-4,3.8242338E-3,-7.036929E-3,3.2283142E-3,-1.5832713E-2,2.3895164E-3,4.7527812E-3,3.1966288E-2,1.1736675E-2,7.218649E-3,-4.6292325E-3,5.1138777E-2,1.0255305E-2,1.4263079E-2,2.8705722E-2,9.65482E-3,-2.3495026E-2,1.5311375E-2,4.8270594E-2,1.429652E-2,-1.7197654E-2,2.1590272E-2,2.6634907E-2,-8.079507E-3],"categories":[],"categories_nodes":[],"categories_segments":[],"categories_sizes":[],"default_left":[0,0,0,0,0,0,0,0,0,0,0,0,0,0,0,0,0,0,0,0,0,0,0,0,0,0,0,0,0,0,0,0,0,0,0,0,0,0,0,0,0,0,0,0,0,0,0,0,0,0,0,0,0,0,0,0,0,0,0,0,0,0,0,0,0,0,0,0,0,0,0,0,0,0,0,0,0,0,0,0,0,0,0,0,0,0,0,0,0,0,0,0,0,0,0,0,0,0,0,0,0,0,0,0,0,0,0,0,0,0,0,0,0,0,0,0,0,0,0,0,0,0,0,0,0,0,0],"id":0,"left_children":[1,3,5,7,9,11,13,15,17,19,21,23,25,27,29,31,33,35,37,39,41,43,45,47,49,51,53,55,57,59,61,63,65,67,69,71,73,75,77,79,81,83,85,87,89,91,93,95,97,99,101,103,105,107,109,111,113,115,117,119,121,123,125,-1,-1,-1,-1,-1,-1,-1,-1,-1,-1,-1,-1,-1,-1,-1,-1,-1,-1,-1,-1,-1,-1,-1,-1,-1,-1,-1,-1,-1,-1,-1,-1,-1,-1,-1,-1,-1,-1,-1,-1,-1,-1,-1,-1,-1,-1,-1,-1,-1,-1,-1,-1,-1,-1,-1,-1,-1,-1,-1,-1,-1,-1,-1,-1],"loss_changes":[5.79764E3,1.5007661E3,1.01361426E3,2.9196588E2,7.7194727E2,1.5145349E2,1.0996582E2,1.0375604E2,1.7335179E2,7.556909E1,1.7995764E2,1.8357205E2,4.9509106E1,6.681616E1,1.23272575E2,3.6184174E1,5.336257E1,9.259923E1,7.587129E1,2.5802612E1,5.1947754E1,1.1282019E2,7.36698E1,8.401871E1,1.0776004E2,6.11275E1,9.173707E1,8.9767456E1,4.175952E1,2.8668274E1,4.44205E1,1.7188477E1,3.63237E1,4.7605225E1,4.1833183E1,5.2544823E1,7.852525E1,4.2915398E1,4.425187E1,1.6394627E1,2.4131104E1,4.2826416E1,2.6548416E1,1.191781E2,5.615796E1,5.200638E1,5.294507E1,4.890587E1,5.4674164E1,7.312381E1,2.7977676E1,3.7412994E1,2.8565117E1,3.6478203E1,2.7588081E1,6.465466E1,2.1093155E1,4.3245483E1,5.496811E1,4.0165257E1,1.0626747E1,2.4733124E1,4.263226E1,0E0,0E0,0E0,0E0,0E0,0E0,0E0,0E0,0E0,0E0,0E0,0E0,0E0,0E0,0E0,0E0,0E0,0E0,0E0,0E0,0E0,0E0,0E0,0E0,0E0,0E0,0E0,0E0,0E0,0E0,0E0,0E0,0E0,0E0,0E0,0E0,0E0,0E0,0E0,0E0,0E0,0E0,0E0,0E0,0E0,0E0,0E0,0E0,0E0,0E0,0E0,0E0,0E0,0E0,0E0,0E0,0E0,0E0,0E0,0E0,0E0,0E0,0E0,0E0],"parents":[2147483647,0,0,1,1,2,2,3,3,4,4,5,5,6,6,7,7,8,8,9,9,10,10,11,11,12,12,13,13,14,14,15,15,16,16,17,17,18,18,19,19,20,20,21,21,22,22,23,23,24,24,25,25,26,26,27,27,28,28,29,29,30,30,31,31,32,32,33,33,34,34,35,35,36,36,37,37,38,38,39,39,40,40,41,41,42,42,43,43,44,44,45,45,46,46,47,47,48,48,49,49,50,50,51,51,52,52,53,53,54,54,55,55,56,56,57,57,58,58,59,59,60,60,61,61,62,62],"right_children":[2,4,6,8,10,12,14,16,18,20,22,24,26,28,30,32,34,36,38,40,42,44,46,48,50,52,54,56,58,60,62,64,66,68,70,72,74,76,78,80,82,84,86,88,90,92,94,96,98,100,102,104,106,108,110,112,114,116,118,120,122,124,126,-1,-1,-1,-1,-1,-1,-1,-1,-1,-1,-1,-1,-1,-1,-1,-1,-1,-1,-1,-1,-1,-1,-1,-1,-1,-1,-1,-1,-1,-1,-1,-1,-1,-1,-1,-1,-1,-1,-1,-1,-1,-1,-1,-1,-1,-1,-1,-1,-1,-1,-1,-1,-1,-1,-1,-1,-1,-1,-1,-1,-1,-1,-1,-1],"split_conditions":[3.5638772E-3,-2.5881904E-1,8.950324E-4,-8.660254E-1,2.0641165E-3,-2.5881904E-1,9.659258E-1,2.2571982E-4,2.4547102E-4,1.5127469E-3,9.659258E-1,-2.5881904E-1,9.659258E-1,1.1814089E-3,3.6449013E-3,-9.659258E-1,-7.738606E-4,-1.9275687E-3,-4.1909385E-3,-9.190464E-4,8.655355E-3,8.660254E-1,0E0,8.8456036E-5,1.0120279E-2,9.659258E-1,6.4925706E-1,3.41414E-2,1.6556135E-3,4.439642E-4,1.1763441E-2,9.749279E-1,-1.144344E-4,-4.084053E-4,1.2570762E-2,1.08448476E-4,1.6010429E-4,5.9501086E-5,-5E-1,1.182036E-3,5.938939E-3,3.8542121E-3,-2.688568E-5,-2.5881904E-1,-7.55594E-3,8.1257707E-1,4.067745E-3,-8.366939E-3,4.3053154E-4,-3.9456245E-3,6.434881E-4,7.5870485E-4,9.749279E-1,4.8255143E-3,1.0235073E-3,-1.8369701E-16,5.7902196E-3,4.2560554E-1,6.234898E-1,-9.774306E-3,1.8753163E-3,4.1198285E-4,6.725878E-4,-2.2085853E-2,-1.0668385E-2,-5.1377187E-3,-1.4749547E-2,4.3873102E-3,4.742774E-2,-6.5386533E-3,1.0557671E-2,5.6142733E-3,-9.12524E-3,-1.3712821E-2,-3.013365E-3,1.6705314E-2,-1.5582198E-2,6.6947336E-3,9.2142646E-4,-3.0300472E-2,5.5245638E-2,-3.0405207E-2,-2.1191053E-2,-2.2243008E-2,-2.4384707E-3,-1.1109283E-2,3.809425E-2,-1.0150406E-2,-2.2359907E-3,-5.1808166E-3,-1.4451856E-2,-1.2360619E-2,3.7272844E-2,-2.5761385E-2,-8.7964935E-3,1.4814801E-2,3.5934157E-3,1.960511E-2,9.885589E-3,8.472829E-3,-1.637288E-4,3.4382787E-2,-1.644413E-2,-2.0319405E-4,3.8242338E-3,-7.036929E-3,3.2283142E-3,-1.5832713E-2,2.3895164E-3,4.7527812E-3,3.1966288E-2,1.1736675E-2,7.218649E-3,-4.6292325E-3,5.1138777E-2,1.0255305E-2,1.4263079E-2,2.8705722E-2,9.65482E-3,-2.3495026E-2,1.5311375E-2,4.8270594E-2,1.429652E-2,-1.7197654E-2,2.1590272E-2,2.6634907E-2,-8.079507E-3],"split_indices":[9,24,8,24,9,24,24,46,30,9,24,23,24,1,61,24,18,53,50,18,50,23,25,18,50,23,4,53,46,27,53,25,50,6,53,5,46,18,23,53,53,61,7,23,53,49,60,53,28,50,30,8,25,60,18,24,50,4,26,53,41,27,46,0,0,0,0,0,0,0,0,0,0,0,0,0,0,0,0,0,0,0,0,0,0,0,0,0,0,0,0,0,0,0,0,0,0,0,0,0,0,0,0,0,0,0,0,0,0,0,0,0,0,0,0,0,0,0,0,0,0,0,0,0,0,0,0],"split_type":[0,0,0,0,0,0,0,0,0,0,0,0,0,0,0,0,0,0,0,0,0,0,0,0,0,0,0,0,0,0,0,0,0,0,0,0,0,0,0,0,0,0,0,0,0,0,0,0,0,0,0,0,0,0,0,0,0,0,0,0,0,0,0,0,0,0,0,0,0,0,0,0,0,0,0,0,0,0,0,0,0,0,0,0,0,0,0,0,0,0,0,0,0,0,0,0,0,0,0,0,0,0,0,0,0,0,0,0,0,0,0,0,0,0,0,0,0,0,0,0,0,0,0,0,0,0,0],"sum_hessian":[2.2659555E5,9.731896E4,1.2927659E5,4.1973562E4,5.53454E4,6.365542E4,6.562117E4,1.18862E4,3.0087363E4,1.6611406E4,3.8733992E4,3.2831742E4,3.0823682E4,6.3491363E4,2.1298064E3,5.9489478E3,5.9372524E3,1.0163712E4,1.9923652E4,5.3472314E3,1.1264175E4,3.325844E4,5.4755503E3,1.3284736E4,1.9547006E4,2.8560502E4,2.2631807E3,3.2586229E4,3.0905135E4,8.26266E2,1.3035404E3,1.8438169E3,4.105131E3,3.6523392E2,5.5720186E3,3.2810347E3,6.8826777E3,1.4369941E3,1.8486658E4,2.1840115E1,5.3253916E3,1.1157293E4,1.06882416E2,2.016426E4,1.3094182E4,1.7686055E3,3.7069446E3,7.007288E3,6.277448E3,1.9216654E4,3.3035046E2,2.420438E4,4.3561206E3,1.7974962E3,4.6568442E2,3.2408691E4,1.7753706E2,2.9310002E4,1.5951315E3,7.088593E2,1.1740669E2,9.296024E2,3.7393796E2,1.3955596E3,4.4825732E2,1.6642622E3,2.4408687E3,2.8231763E2,8.29163E1,5.1896587E3,3.8235968E2,2.4837036E3,7.9733105E2,3.3192515E3,3.5634263E3,1.3270052E3,1.09988884E2,4.34174E3,1.4144917E4,7.6642213E0,1.4175894E1,4.442259E3,8.831328E2,1.08741045E4,2.831886E2,5.420359E1,5.2678825E1,1.24517705E4,7.7124883E3,1.9253752E3,1.1168807E4,1.7153372E3,5.326838E1,3.161658E3,5.4528656E2,1.1670201E3,5.8402676E3,2.292797E3,3.9846511E3,2.8814185E3,1.6335236E4,3.0189847E2,2.8451996E1,1.4748367E4,9.456014E3,3.5212725E3,8.3484814E2,1.4625353E3,3.34961E2,3.3598233E2,1.2970212E2,1.8449236E4,1.3959454E4,1.7871035E1,1.5966603E2,1.0650826E4,1.8659176E4,9.599355E2,6.3519604E2,7.3116165E1,6.3574316E2,8.046542E1,3.694127E1,8.87901E2,4.1701435E1,1.4056438E2,2.333736E2],"tree_param":{"num_deleted":"0","num_feature":"68","num_nodes":"127","size_leaf_vector":"1"}},{"base_weights":[-6.978252E-4,4.1796082E-1,-2.3163521E-1,1.6179413E-1,5.979008E-1,-5.8628675E-2,-3.9099014E-1,4.582121E-1,4.9669154E-2,8.850809E-1,4.4341007E-1,-1.6245908E-1,7.7768296E-2,-3.227751E-1,-5.1220363E-1,6.213635E-1,3.4140632E-1,3.7447295E-1,-3.453621E-2,1.0592127E0,7.9865485E-1,4.8738736E-1,1.409895E-1,-3.099073E-1,-6.567906E-2,3.965364E-2,3.029624E-1,-3.946102E-1,-2.1814646E-1,-4.7545254E-1,-5.788281E-1,9.054401E-1,5.842361E-1,3.6592975E-1,6.6557396E-3,5.1219034E-1,2.829758E-1,-1.6508202E-1,6.5340735E-2,7.825211E-1,1.1458943E0,6.026504E-1,1.035696E0,5.93396E-1,4.071605E-1,4.307691E-1,9.861698E-2,-1.4270723E-1,-3.3764136E-1,1.9747505E-2,-1.4769222E-1,9.88E-2,-1.124776E-1,3.8976106E-1,1.5810287E-1,-4.4124568E-1,-3.0178297E-1,-2.3376012E-1,-2.5215985E-2,-5.310091E-1,-4.41445E-1,-5.639448E-1,-6.4397514E-1,2.514576E-2,5.1917475E-2,1.6095838E-2,3.0536292E-2,6.4637675E-3,2.0062465E-2,2.0210749E-2,-3.3495256E-3,2.676313E-2,-1.6896183E-2,7.000141E-3,1.6861865E-2,-1.0258667E-2,1.995553E-4,6.6558174E-3,-1.99382E-3,5.885721E-2,3.323454E-2,4.1342575E-2,6.087603E-2,4.058519E-2,2.356716E-2,4.458508E-2,6.0817856E-2,3.558199E-2,2.4794515E-2,1.9043887E-2,3.444134E-2,3.4078117E-2,8.689992E-3,3.0157452E-3,2.2687724E-2,-1.6247452E-3,-1.1335756E-2,-1.7729374E-2,-1.3354956E-2,4.661196E-3,-4.158675E-3,-4.9803862E-3,-1.0785926E-2,1.0478289E-2,1.303338E-3,-1.1410516E-2,5.3368945E-4,8.262659E-3,2.2233203E-2,9.0894755E-3,-1.9149194E-2,-1.7251983E-2,-2.4182636E-2,-2.3820318E-2,-1.4446596E-2,-9.404261E-3,-1.4638421E-2,2.4605557E-4,-1.7084012E-2,-2.7867336E-2,-2.262259E-2,-2.1508798E-2,-2.797704E-2,-3.0086607E-2,-2.726299E-2,-3.2855492E-2,-2.886259E-2],"categories":[],"categories_nodes":[],"categories_segments":[],"categories_sizes":[],"default_left":[0,0,0,0,0,0,0,0,0,0,0,0,0,0,0,0,0,0,0,0,0,0,0,0,0,0,0,0,0,0,0,0,0,0,0,0,0,0,0,0,0,0,0,0,0,0,0,0,0,0,0,0,0,0,0,0,0,0,0,0,0,0,0,0,0,0,0,0,0,0,0,0,0,0,0,0,0,0,0,0,0,0,0,0,0,0,0,0,0,0,0,0,0,0,0,0,0,0,0,0,0,0,0,0,0,0,0,0,0,0,0,0,0,0,0,0,0,0,0,0,0,0,0,0,0,0,0],"id":1,"left_children":[1,3,5,7,9,11,13,15,17,19,21,23,25,27,29,31,33,35,37,39,41,43,45,47,49,51,53,55,57,59,61,63,65,67,69,71,73,75,77,79,81,83,85,87,89,91,93,95,97,99,101,103,105,107,109,111,113,115,117,119,121,123,125,-1,-1,-1,-1,-1,-1,-1,-1,-1,-1,-1,-1,-1,-1,-1,-1,-1,-1,-1,-1,-1,-1,-1,-1,-1,-1,-1,-1,-1,-1,-1,-1,-1,-1,-1,-1,-1,-1,-1,-1,-1,-1,-1,-1,-1,-1,-1,-1,-1,-1,-1,-1,-1,-1,-1,-1,-1,-1,-1,-1,-1,-1,-1,-1],"loss_changes":[2.1954393E4,3.7205781E3,4.0344966E3,1.1068324E3,2.102668E3,9.938312E2,6.2930273E2,1.7350317E2,6.612618E2,2.477998E2,4.096997E2,5.6837366E2,2.6012628E2,3.660205E2,6.635498E1,3.891858E1,4.357483E1,6.217798E1,2.5032661E2,1.299497E2,5.137583E2,2.2818604E2,4.7793694E1,7.291724E1,1.6862427E2,2.3342017E2,5.483728E1,1.2460986E2,5.9661865E1,3.2697266E1,8.4782715E0,2.2092163E1,2.2786987E1,4.1188904E1,1.0920383E1,3.918396E1,2.2949356E1,5.6512802E1,7.758966E1,5.9466553E1,9.351953E1,1.656919E2,1.2836182E2,1.3267871E2,1.1267505E2,3.1544327E1,4.6242756E1,2.0698338E1,1.5777344E1,8.911135E1,3.99812E1,1.5038309E2,1.0358741E2,3.340802E1,2.1090015E1,7.7878174E1,2.118274E1,4.9193604E1,1.4378144E1,1.3116577E1,1.38811035E1,4.7077637E0,5.7958984E-1,0E0,0E0,0E0,0E0,0E0,0E0,0E0,0E0,0E0,0E0,0E0,0E0,0E0,0E0,0E0,0E0,0E0,0E0,0E0,0E0,0E0,0E0,0E0,0E0,0E0,0E0,0E0,0E0,0E0,0E0,0E0,0E0,0E0,0E0,0E0,0E0,0E0,0E0,0E0,0E0,0E0,0E0,0E0,0E0,0E0,0E0,0E0,0E0,0E0,0E0,0E0,0E0,0E0,0E0,0E0,0E0,0E0,0E0,0E0,0E0,0E0,0E0,0E0,0E0],"parents":[2147483647,0,0,1,1,2,2,3,3,4,4,5,5,6,6,7,7,8,8,9,9,10,10,11,11,12,12,13,13,14,14,15,15,16,16,17,17,18,18,19,19,20,20,21,21,22,22,23,23,24,24,25,25,26,26,27,27,28,28,29,29,30,30,31,31,32,32,33,33,34,34,35,35,36,36,37,37,38,38,39,39,40,40,41,41,42,42,43,43,44,44,45,45,46,46,47,47,48,48,49,49,50,50,51,51,52,52,53,53,54,54,55,55,56,56,57,57,58,58,59,59,60,60,61,61,62,62],"right_children":[2,4,6,8,10,12,14,16,18,20,22,24,26,28,30,32,34,36,38,40,42,44,46,48,50,52,54,56,58,60,62,64,66,68,70,72,74,76,78,80,82,84,86,88,90,92,94,96,98,100,102,104,106,108,110,112,114,116,118,120,122,124,126,-1,-1,-1,-1,-1,-1,-1,-1,-1,-1,-1,-1,-1,-1,-1,-1,-1,-1,-1,-1,-1,-1,-1,-1,-1,-1,-1,-1,-1,-1,-1,-1,-1,-1,-1,-1,-1,-1,-1,-1,-1,-1,-1,-1,-1,-1,-1,-1,-1,-1,-1,-1,-1,-1,-1,-1,-1,-1,-1,-1,-1,-1,-1,-1],"split_conditions":[3.225382E-3,-2.5881904E-1,4.962574E-3,-8.660254E-1,2.0641165E-3,-1.8369701E-16,7.850178E-3,2.5080414E-3,1.9722162E-3,5E-1,1E0,-2.5881904E-1,9.659258E-1,-1.8369701E-16,1.0976125E-2,1.4999502E-4,3.945785E-3,1.5923681E-3,-2.5881904E-1,0E0,9.659258E-1,2.5616856E-3,5E-1,-8.660254E-1,5E-1,5E-1,6.9125433E-4,-2.5881904E-1,9.659258E-1,-2.5881904E-1,2.94715E-3,-4.408726E-5,2.8936586E-1,-1.1854932E-4,2.7202237E-3,1.2570762E-2,-2.5881904E-1,1E0,2.7735417E-3,-2.5881904E-1,-5E-1,1.5539699E-3,-1.8369701E-16,5E-1,1E0,2.293325E-4,9.659258E-1,4.2116456E-3,1E0,4.099723E-3,4.011192E-3,3.825043E-3,8.660254E-1,3.3203885E-1,8.9100385E-3,-8.660254E-1,-1.9351715E-2,6.211214E-3,9.404661E-4,-2.5881904E-1,1E0,-2.5881904E-1,8.660254E-1,2.514576E-2,5.1917475E-2,1.6095838E-2,3.0536292E-2,6.4637675E-3,2.0062465E-2,2.0210749E-2,-3.3495256E-3,2.676313E-2,-1.6896183E-2,7.000141E-3,1.6861865E-2,-1.0258667E-2,1.995553E-4,6.6558174E-3,-1.99382E-3,5.885721E-2,3.323454E-2,4.1342575E-2,6.087603E-2,4.058519E-2,2.356716E-2,4.458508E-2,6.0817856E-2,3.558199E-2,2.4794515E-2,1.9043887E-2,3.444134E-2,3.4078117E-2,8.689992E-3,3.0157452E-3,2.2687724E-2,-1.6247452E-3,-1.1335756E-2,-1.7729374E-2,-1.3354956E-2,4.661196E-3,-4.158675E-3,-4.9803862E-3,-1.0785926E-2,1.0478289E-2,1.303338E-3,-1.1410516E-2,5.3368945E-4,8.262659E-3,2.2233203E-2,9.0894755E-3,-1.9149194E-2,-1.7251983E-2,-2.4182636E-2,-2.3820318E-2,-1.4446596E-2,-9.404261E-3,-1.4638421E-2,2.4605557E-4,-1.7084012E-2,-2.7867336E-2,-2.262259E-2,-2.1508798E-2,-2.797704E-2,-3.0086607E-2,-2.726299E-2,-3.2855492E-2,-2.886259E-2],"split_indices":[9,24,9,24,9,24,9,9,9,23,62,23,23,24,9,28,61,9,23,25,23,9,23,23,23,23,41,23,23,24,41,7,51,7,9,53,23,26,9,23,23,9,24,23,23,45,23,9,26,9,9,9,23,51,60,23,53,9,28,23,62,24,24,0,0,0,0,0,0,0,0,0,0,0,0,0,0,0,0,0,0,0,0,0,0,0,0,0,0,0,0,0,0,0,0,0,0,0,0,0,0,0,0,0,0,0,0,0,0,0,0,0,0,0,0,0,0,0,0,0,0,0,0,0,0,0,0],"split_type":[0,0,0,0,0,0,0,0,0,0,0,0,0,0,0,0,0,0,0,0,0,0,0,0,0,0,0,0,0,0,0,0,0,0,0,0,0,0,0,0,0,0,0,0,0,0,0,0,0,0,0,0,0,0,0,0,0,0,0,0,0,0,0,0,0,0,0,0,0,0,0,0,0,0,0,0,0,0,0,0,0,0,0,0,0,0,0,0,0,0,0,0,0,0,0,0,0,0,0,0,0,0,0,0,0,0,0,0,0,0,0,0,0,0,0,0,0,0,0,0,0,0,0,0,0,0,0],"sum_hessian":[2.2707283E5,8.072543E4,1.4634739E5,3.3309684E4,4.7415746E4,7.017027E4,7.617712E4,9.139801E3,2.416988E4,1.6582629E4,3.083312E4,3.984345E4,3.0326824E4,4.8749992E4,2.7427129E4,3.8097864E3,5.330014E3,4.9765225E3,1.919336E4,5.4947393E3,1.108789E4,2.6916691E4,3.916427E3,1.5785794E4,2.4057654E4,2.5939838E4,4.386986E3,2.8900303E4,1.984969E4,1.768658E4,9.74055E3,4.3610693E2,3.3736794E3,4.9647183E3,3.6529617E2,1.9824962E3,2.9940264E3,8.321265E3,1.0872094E4,1.3145226E3,4.180217E3,6.072399E3,5.015491E3,1.1589777E4,1.5326914E4,4.969424E2,3.4194846E3,2.2493486E3,1.3536445E4,1.1780995E4,1.2276659E4,1.8680697E4,7.2591406E3,2.740036E3,1.6469498E3,1.9230133E4,9.67017E3,1.8360953E4,1.4887365E3,6.7044775E3,1.0982103E4,7.943208E3,1.7973416E3,1.1037493E2,3.25732E2,3.1237317E2,3.0613062E3,6.4718005E2,4.317538E3,5.7452904E1,3.0784326E2,1.9310458E3,5.145041E1,8.272118E2,2.1668147E3,6.7285146E3,1.5927499E3,6.6153213E3,4.2567725E3,2.992103E2,1.01531226E3,7.699913E2,3.4102256E3,2.3391943E3,3.7332048E3,2.795814E3,2.219677E3,5.2327144E3,6.357063E3,1.4022571E4,1.3043427E3,2.496725E2,2.4726993E2,3.0889182E3,3.305664E2,9.761061E2,1.2732427E3,1.0905534E4,2.6309106E3,6.87664E3,4.904355E3,7.1983247E3,5.078334E3,7.400971E3,1.1279727E4,3.7439417E3,3.5151987E3,5.4098236E2,2.1990535E3,1.5793981E3,6.755171E1,5.8896353E3,1.3340497E4,6.577337E2,9.012436E3,1.0356921E4,8.0040317E3,1.3587466E3,1.2998982E2,5.011747E3,1.6927305E3,1.003355E4,9.485528E2,2.6089973E3,5.3342104E3,1.4880692E3,3.0927237E2],"tree_param":{"num_deleted":"0","num_feature":"68","num_nodes":"127","size_leaf_vector":"1"}},{"base_weights":[-3.5052028E-4,-1.9318382E-1,1.1180038E-1,-3.098989E-1,-1.1206044E-1,5.731047E-2,2.2056639E-1,-1.8583731E-1,-3.6779675E-1,-8.836102E-2,-3.0181378E-1,1.0801453E-1,-9.263094E-3,1.7794551E-1,2.9899248E-1,-2.814856E-1,-1.0585531E-1,-4.3104208E-1,-2.570378E-1,-5.2250165E-2,-2.695604E-1,-3.5269693E-1,-3.6372047E-2,1.373194E-2,1.4313255E-1,-7.8187935E-2,4.5959864E-2,1.5838242E-1,2.7974683E-1,2.8634116E-1,6.435622E-1,-4.408259E-1,-2.1946105E-1,-1.2828614E-1,2.1265522E-1,-5.2641815E-1,-3.8244683E-1,5.8500665E-1,-2.7003312E-1,-2.0900849E-1,-2.2295969E-2,5.8889985E-1,-2.8985688E-1,-2.1786267E-1,-4.4537032E-1,-4.1013107E-1,5.4991327E-2,-5.7218462E-2,8.8966705E-2,7.731466E-2,1.6771871E-1,8.84846E-1,-8.331803E-2,5.168741E-5,1.24528356E-1,2.1377844E-1,1.1343104E-1,3.2962245E-1,1.7169401E-1,1.1979944E-1,3.053289E-1,3.852894E-1,8.7848973E-1,-1.3082762E-2,-2.4467446E-2,-1.7231576E-2,-2.1805863E-3,-1.2360703E-2,-3.318318E-3,2.0349044E-2,-5.102064E-3,-2.9473806E-2,-2.1264302E-2,-2.3051683E-2,-5.233213E-3,5.171141E-2,1.3559155E-2,-1.2324836E-2,-2.3747278E-2,-1.4007849E-2,-4.7030877E-3,-4.9265805E-3,4.5841155E-4,4.066282E-2,-1.0772324E-2,-1.670434E-2,4.8169956E-4,5.2318224E-3,-1.3715625E-2,-2.8029263E-2,-1.8683923E-2,3.3827137E-2,-2.3619408E-2,4.607596E-3,-3.5575654E-2,-3.5897673E-3,1.25980545E-2,1.051001E-2,2.1523915E-3,4.6490137E-3,-6.443237E-3,9.052686E-3,2.615513E-3,4.8538122E-2,-2.6810361E-2,-6.812007E-3,-1.4726883E-3,2.5367394E-2,-4.409726E-4,5.6531853E-3,2.1966299E-2,1.6599825E-2,9.19969E-3,2.3364926E-2,5.0651007E-3,1.3967509E-2,2.5101716E-2,1.1562342E-2,-3.7605686E-3,1.4265588E-3,3.4070488E-2,1.6710721E-2,1.1263463E-2,3.3223685E-2,6.671025E-3,4.59147E-2,-3.0058041E-2],"categories":[],"categories_nodes":[],"categories_segments":[],"categories_sizes":[],"default_left":[0,0,0,0,0,0,0,0,0,0,0,0,0,0,0,0,0,0,0,0,0,0,0,0,0,0,0,0,0,0,0,0,0,0,0,0,0,0,0,0,0,0,0,0,0,0,0,0,0,0,0,0,0,0,0,0,0,0,0,0,0,0,0,0,0,0,0,0,0,0,0,0,0,0,0,0,0,0,0,0,0,0,0,0,0,0,0,0,0,0,0,0,0,0,0,0,0,0,0,0,0,0,0,0,0,0,0,0,0,0,0,0,0,0,0,0,0,0,0,0,0,0,0,0,0,0,0],"id":2,"left_children":[1,3,5,7,9,11,13,15,17,19,21,23,25,27,29,31,33,35,37,39,41,43,45,47,49,51,53,55,57,59,61,63,65,67,69,71,73,75,77,79,81,83,85,87,89,91,93,95,97,99,101,103,105,107,109,111,113,115,117,119,121,123,125,-1,-1,-1,-1,-1,-1,-1,-1,-1,-1,-1,-1,-1,-1,-1,-1,-1,-1,-1,-1,-1,-1,-1,-1,-1,-1,-1,-1,-1,-1,-1,-1,-1,-1,-1,-1,-1,-1,-1,-1,-1,-1,-1,-1,-1,-1,-1,-1,-1,-1,-1,-1,-1,-1,-1,-1,-1,-1,-1,-1,-1,-1,-1,-1],"loss_changes":[4.9051514E3,7.8947046E2,8.497584E2,2.452915E2,2.2107623E2,3.2256744E2,1.596875E2,8.305664E1,1.6284839E2,2.8609094E2,7.355084E1,1.7951318E2,1.572354E2,6.1505493E1,7.278821E1,4.8534332E1,4.2373276E1,6.81001E1,9.2779724E1,1.7118948E2,1.2664703E2,5.6811096E1,3.0288752E1,7.862471E1,6.3810913E1,9.0465965E1,8.263882E1,6.461133E1,2.660669E1,5.1146484E1,3.509662E1,1.1536102E1,7.8375824E1,4.0658455E1,2.3997934E1,3.1134888E1,2.143584E2,1.7195599E1,3.9798706E1,4.7631134E1,7.352737E1,3.0722084E1,9.4226074E1,3.4158943E1,2.1721985E1,1.2007549E1,1.9918262E1,3.4070816E1,3.967199E1,3.472966E1,4.4139954E1,1.2574356E1,5.2026558E1,6.5405304E1,3.0178452E1,4.0704468E1,6.1356552E1,2.9048126E1,2.336338E1,8.510808E1,3.3376343E1,1.9619041E1,1.8938202E1,0E0,0E0,0E0,0E0,0E0,0E0,0E0,0E0,0E0,0E0,0E0,0E0,0E0,0E0,0E0,0E0,0E0,0E0,0E0,0E0,0E0,0E0,0E0,0E0,0E0,0E0,0E0,0E0,0E0,0E0,0E0,0E0,0E0,0E0,0E0,0E0,0E0,0E0,0E0,0E0,0E0,0E0,0E0,0E0,0E0,0E0,0E0,0E0,0E0,0E0,0E0,0E0,0E0,0E0,0E0,0E0,0E0,0E0,0E0,0E0,0E0,0E0,0E0,0E0],"parents":[2147483647,0,0,1,1,2,2,3,3,4,4,5,5,6,6,7,7,8,8,9,9,10,10,11,11,12,12,13,13,14,14,15,15,16,16,17,17,18,18,19,19,20,20,21,21,22,22,23,23,24,24,25,25,26,26,27,27,28,28,29,29,30,30,31,31,32,32,33,33,34,34,35,35,36,36,37,37,38,38,39,39,40,40,41,41,42,42,43,43,44,44,45,45,46,46,47,47,48,48,49,49,50,50,51,51,52,52,53,53,54,54,55,55,56,56,57,57,58,58,59,59,60,60,61,61,62,62],"right_children":[2,4,6,8,10,12,14,16,18,20,22,24,26,28,30,32,34,36,38,40,42,44,46,48,50,52,54,56,58,60,62,64,66,68,70,72,74,76,78,80,82,84,86,88,90,92,94,96,98,100,102,104,106,108,110,112,114,116,118,120,122,124,126,-1,-1,-1,-1,-1,-1,-1,-1,-1,-1,-1,-1,-1,-1,-1,-1,-1,-1,-1,-1,-1,-1,-1,-1,-1,-1,-1,-1,-1,-1,-1,-1,-1,-1,-1,-1,-1,-1,-1,-1,-1,-1,-1,-1,-1,-1,-1,-1,-1,-1,-1,-1,-1,-1,-1,-1,-1,-1,-1,-1,-1,-1,-1,-1],"split_conditions":[5.437112E-4,3.3857542E-4,5.266328E-4,-2.5881904E-1,9.659258E-1,-1.8369701E-16,8.11021E-4,1.1424592E-3,3.8546923E-4,8.660254E-1,9.399346E-3,-8.660254E-1,5.8061414E-4,1.7253205E-4,9.659258E-1,-8.660254E-1,3.8656972E-3,5E-1,-4.3388373E-1,-8.660254E-1,-4.3388373E-1,-1.8369701E-16,3.729995E-4,7.100474E-4,3.9867157E-4,-4.3388373E-1,8.192798E-5,-2.5881904E-1,6.234898E-1,2.1737589E-1,1.1386372E-3,-4.3876055E-3,3.533015E-4,-8.660254E-1,1.6595415E-3,1.5054752E-4,7.0710677E-1,1.4342058E-3,1E0,4.83278E-4,1.8501327E-4,6.0106385E-1,8.127376E-4,-9.774306E-3,2.443421E-4,9.564764E-3,8.457223E-1,2.3956401E-3,4.175532E-1,6.35549E-4,7.4524025E-4,7.3202176E-4,3.2555428E-4,-2.3257978E-2,1.7812459E-3,-8.865218E-3,-1.2597136E-2,6.9666994E-1,7.053435E-1,2.5881904E-1,4.1027968E-5,2.8623105E-4,7.181572E-1,-1.3082762E-2,-2.4467446E-2,-1.7231576E-2,-2.1805863E-3,-1.2360703E-2,-3.318318E-3,2.0349044E-2,-5.102064E-3,-2.9473806E-2,-2.1264302E-2,-2.3051683E-2,-5.233213E-3,5.171141E-2,1.3559155E-2,-1.2324836E-2,-2.3747278E-2,-1.4007849E-2,-4.7030877E-3,-4.9265805E-3,4.5841155E-4,4.066282E-2,-1.0772324E-2,-1.670434E-2,4.8169956E-4,5.2318224E-3,-1.3715625E-2,-2.8029263E-2,-1.8683923E-2,3.3827137E-2,-2.3619408E-2,4.607596E-3,-3.5575654E-2,-3.5897673E-3,1.25980545E-2,1.051001E-2,2.1523915E-3,4.6490137E-3,-6.443237E-3,9.052686E-3,2.615513E-3,4.8538122E-2,-2.6810361E-2,-6.812007E-3,-1.4726883E-3,2.5367394E-2,-4.409726E-4,5.6531853E-3,2.1966299E-2,1.6599825E-2,9.19969E-3,2.3364926E-2,5.0651007E-3,1.3967509E-2,2.5101716E-2,1.1562342E-2,-3.7605686E-3,1.4265588E-3,3.4070488E-2,1.6710721E-2,1.1263463E-2,3.3223685E-2,6.671025E-3,4.59147E-2,-3.0058041E-2],"split_indices":[41,1,46,24,23,24,46,60,41,24,53,24,1,44,24,24,60,24,25,24,25,24,41,41,28,25,44,24,26,51,46,53,41,24,48,45,23,60,23,41,46,49,1,53,28,53,51,48,49,5,30,6,46,53,6,53,50,51,51,23,7,53,49,0,0,0,0,0,0,0,0,0,0,0,0,0,0,0,0,0,0,0,0,0,0,0,0,0,0,0,0,0,0,0,0,0,0,0,0,0,0,0,0,0,0,0,0,0,0,0,0,0,0,0,0,0,0,0,0,0,0,0,0,0,0,0,0],"split_type":[0,0,0,0,0,0,0,0,0,0,0,0,0,0,0,0,0,0,0,0,0,0,0,0,0,0,0,0,0,0,0,0,0,0,0,0,0,0,0,0,0,0,0,0,0,0,0,0,0,0,0,0,0,0,0,0,0,0,0,0,0,0,0,0,0,0,0,0,0,0,0,0,0,0,0,0,0,0,0,0,0,0,0,0,0,0,0,0,0,0,0,0,0,0,0,0,0,0,0,0,0,0,0,0,0,0,0,0,0,0,0,0,0,0,0,0,0,0,0,0,0,0,0,0,0,0,0],"sum_hessian":[2.2680894E5,8.3405125E4,1.4340381E5,3.419647E4,4.9208656E4,9.554402E4,4.7859797E4,1.0885096E4,2.3311375E4,4.374872E4,5.459937E3,5.4240223E4,4.1303797E4,3.1014512E4,1.6845283E4,4.953077E3,5.932019E3,1.4833677E4,8.477697E3,3.6482285E4,7.266433E3,4.57981E3,8.8012714E2,1.472449E4,3.9515734E4,1.8376443E4,2.2927355E4,2.6021455E4,4.9930576E3,1.6251857E4,5.9342554E2,1.3838397E3,3.5692373E3,5.543771E3,3.882483E2,5.0000835E3,9.833594E3,1.2759442E2,8.350104E3,5.849198E3,3.0633088E4,1.6661555E2,7.0998174E3,1.869111E3,2.710699E3,1.7327185E2,7.068553E2,7.574719E3,7.1497705E3,1.0753305E4,2.876243E4,9.5947845E1,1.8280494E4,1.4476178E4,8.451178E3,1.1649842E4,1.4371612E4,3.4116238E3,1.581434E3,1.6667169E3,1.4585141E4,2.8493945E2,3.084861E2,2.9846344E2,1.0853763E3,2.0828503E3,1.486387E3,1.894322E3,3.649449E3,2.4083055E2,1.4741774E2,3.073758E3,1.9263252E3,7.6631655E3,2.170428E3,5.087737E1,7.671705E1,7.4939824E3,8.5612085E2,3.6093408E3,2.2398574E3,8.95339E3,2.16797E4,1.3075467E2,3.5860893E1,6.187569E3,9.122487E2,2.76984E2,1.592127E3,1.0344524E3,1.6762466E3,8.419229E0,1.6485262E2,6.756323E2,3.122297E1,7.2359507E3,3.3876825E2,1.9601589E3,5.189612E3,9.996723E3,7.56582E2,2.5778875E4,2.9835544E3,9.110819E1,4.839651E0,9.215437E3,9.065059E3,2.487986E2,1.4227379E4,8.157052E3,2.941254E2,2.3390386E3,9.310804E3,4.7366138E2,1.3897951E4,2.6457034E3,7.659202E2,1.2758027E3,3.056312E2,1.4353903E3,2.3132668E2,1.0711145E4,3.873996E3,1.3342314E2,1.5151631E2,3.011034E2,7.3827E0],"tree_param":{"num_deleted":"0","num_feature":"68","num_nodes":"127","size_leaf_vector":"1"}},{"base_weights":[1.8123545E-4,-2.0985804E-1,1.07091375E-1,-5.7073914E-2,-3.193639E-1,2.397615E-2,2.086736E-1,-2.0419128E-1,-5.217475E-3,-4.6530998E-1,-2.4170247E-1,7.964257E-2,-3.6049407E-2,2.1675391E-1,-3.0293033E-2,-6.1348796E-2,-2.764651E-1,1.1151285E-1,-6.477889E-2,-5.5281216E-1,-4.217743E-1,-2.0926413E-1,-4.1537583E-1,1.6861638E-1,2.3087649E-2,-2.0496828E-2,-2.0559853E-1,1.7277391E-1,2.4560294E-1,-3.0854082E-1,1.6711168E-1,-7.5641155E-2,8.9214516E-1,-3.0362147E-1,1.8686163E-1,2.2899154E-1,3.9566748E-2,-2.5501588E-1,-2.580267E-2,-6.6364133E-1,-5.101565E-1,-4.5295084E-1,-2.6022187E-1,-2.6053682E-1,-1.4384754E-1,-2.501466E-1,-4.9461907E-1,1.6111486E-1,6.6154265E-1,2.2095276E-1,4.026905E-3,5.0973147E-3,-1.3907467E-1,-2.3848979E-1,5.1737064E-1,6.4799435E-2,1.9533952E-1,2.3886524E-1,4.0680495E-1,-3.3982915E-1,7.514982E-1,9.569043E-2,5.5375046E-1,-1.0136853E-3,-1.0065871E-2,6.088561E-2,-0E0,-2.054347E-2,-1.2742402E-2,4.5544993E-2,-1.8336924E-3,2.1155735E-2,5.53373E-3,9.9059E-3,-1.262747E-4,3.9948862E-2,-1.3119236E-2,-1.0358411E-2,-5.157268E-4,-3.381757E-2,4.50337E-3,-3.1803355E-3,-2.651428E-2,-2.2834057E-2,4.462649E-2,-1.573721E-2,-5.6552915E-3,-3.8143022E-3,-1.3926341E-2,-1.4139475E-2,-2.3158423E-3,-8.766249E-3,-2.965723E-2,-2.7322471E-2,-9.73741E-3,6.7212135E-3,1.2534435E-2,-2.2500463E-2,3.8528223E-2,1.6862832E-2,-2.7076337E-3,-2.5037487E-4,2.374085E-2,-1.3454215E-3,3.7281818E-3,-4.0953844E-3,-1.22460555E-2,-2.0022318E-2,-7.204936E-3,3.9981708E-2,-9.4218785E-3,4.9551646E-3,-1.151087E-2,1.229539E-2,7.166029E-3,1.2522349E-2,2.8090132E-3,4.3576374E-3,2.597784E-2,-4.8360443E-3,-2.297499E-2,6.490684E-2,-2.9514609E-2,-1.8290907E-2,9.786558E-3,-1.3019271E-2,3.846055E-2],"categories":[],"categories_nodes":[],"categories_segments":[],"categories_sizes":[],"default_left":[0,0,0,0,0,0,0,0,0,0,0,0,0,0,0,0,0,0,0,0,0,0,0,0,0,0,0,0,0,0,0,0,0,0,0,0,0,0,0,0,0,0,0,0,0,0,0,0,0,0,0,0,0,0,0,0,0,0,0,0,0,0,0,0,0,0,0,0,0,0,0,0,0,0,0,0,0,0,0,0,0,0,0,0,0,0,0,0,0,0,0,0,0,0,0,0,0,0,0,0,0,0,0,0,0,0,0,0,0,0,0,0,0,0,0,0,0,0,0,0,0,0,0,0,0,0,0],"id":3,"left_children":[1,3,5,7,9,11,13,15,17,19,21,23,25,27,29,31,33,35,37,39,41,43,45,47,49,51,53,55,57,59,61,63,65,67,69,71,73,75,77,79,81,83,85,87,89,91,93,95,97,99,101,103,105,107,109,111,113,115,117,119,121,123,125,-1,-1,-1,-1,-1,-1,-1,-1,-1,-1,-1,-1,-1,-1,-1,-1,-1,-1,-1,-1,-1,-1,-1,-1,-1,-1,-1,-1,-1,-1,-1,-1,-1,-1,-1,-1,-1,-1,-1,-1,-1,-1,-1,-1,-1,-1,-1,-1,-1,-1,-1,-1,-1,-1,-1,-1,-1,-1,-1,-1,-1,-1,-1,-1],"loss_changes":[5.0897793E3,1.2789375E3,1.2681068E3,2.4343329E2,5.0428564E2,2.7608597E2,1.306167E2,8.56788E1,1.6411226E2,5.818701E1,1.6337366E2,2.1561932E2,1.0469796E2,8.27063E1,1.2149294E2,3.778919E1,6.957184E1,6.724738E1,1.157782E2,2.332898E1,5.157361E1,8.1934204E1,5.9362732E1,6.1072784E1,9.875437E1,1.1057759E2,7.933507E1,6.2987793E1,4.2454834E1,3.0511665E1,3.530551E1,1.9076996E1,1.1761139E1,2.6846375E1,4.9872185E1,6.917586E1,3.3125023E1,2.0571701E1,3.6347954E1,1.3950073E1,3.303723E1,4.364624E1,1.3198639E1,4.5308838E1,1.4578859E2,3.7646553E1,4.74989E1,3.9004364E1,3.0604553E1,7.378543E1,1.0195358E2,6.660612E1,3.8952255E1,4.8483902E1,2.9316326E1,4.533886E1,5.613385E1,8.001465E1,5.6572357E1,2.5665161E1,2.0326382E1,5.0451042E1,3.556938E1,0E0,0E0,0E0,0E0,0E0,0E0,0E0,0E0,0E0,0E0,0E0,0E0,0E0,0E0,0E0,0E0,0E0,0E0,0E0,0E0,0E0,0E0,0E0,0E0,0E0,0E0,0E0,0E0,0E0,0E0,0E0,0E0,0E0,0E0,0E0,0E0,0E0,0E0,0E0,0E0,0E0,0E0,0E0,0E0,0E0,0E0,0E0,0E0,0E0,0E0,0E0,0E0,0E0,0E0,0E0,0E0,0E0,0E0,0E0,0E0,0E0,0E0,0E0,0E0],"parents":[2147483647,0,0,1,1,2,2,3,3,4,4,5,5,6,6,7,7,8,8,9,9,10,10,11,11,12,12,13,13,14,14,15,15,16,16,17,17,18,18,19,19,20,20,21,21,22,22,23,23,24,24,25,25,26,26,27,27,28,28,29,29,30,30,31,31,32,32,33,33,34,34,35,35,36,36,37,37,38,38,39,39,40,40,41,41,42,42,43,43,44,44,45,45,46,46,47,47,48,48,49,49,50,50,51,51,52,52,53,53,54,54,55,55,56,56,57,57,58,58,59,59,60,60,61,61,62,62],"right_children":[2,4,6,8,10,12,14,16,18,20,22,24,26,28,30,32,34,36,38,40,42,44,46,48,50,52,54,56,58,60,62,64,66,68,70,72,74,76,78,80,82,84,86,88,90,92,94,96,98,100,102,104,106,108,110,112,114,116,118,120,122,124,126,-1,-1,-1,-1,-1,-1,-1,-1,-1,-1,-1,-1,-1,-1,-1,-1,-1,-1,-1,-1,-1,-1,-1,-1,-1,-1,-1,-1,-1,-1,-1,-1,-1,-1,-1,-1,-1,-1,-1,-1,-1,-1,-1,-1,-1,-1,-1,-1,-1,-1,-1,-1,-1,-1,-1,-1,-1,-1,-1,-1,-1,-1,-1,-1],"split_conditions":[5.2365736E-4,-2.5881904E-1,8.7846455E-4,-8.660254E-1,3.3873503E-4,-2.5881904E-1,9.659258E-1,-2.3880732E-4,-1.9275687E-3,2.511357E-4,9.659258E-1,-2.5881904E-1,9.659258E-1,7.0897164E-4,-5.6691555E-4,6.003943E-3,5.0192103E-3,-2.5881904E-1,3.0602454E-4,5E-1,1E0,7.0710677E-1,0E0,8.371975E-3,2.7891397E-1,9.659258E-1,3.3763517E-3,-9.424702E-4,2.738968E-2,1.5604536E-2,4.1198285E-4,5.448703E-1,4.3388373E-1,-9.659258E-1,5.332944E-3,-2.1097087E-3,-8.865218E-3,-3.871248E-3,3.3492824E-1,1.3334563E-2,-4.2697307E-4,9.2489034E-1,2.0886419E-4,-8.865218E-3,-2.5881904E-1,1.2246469E-16,3.8228736E-3,1.132731E-3,4.9535602E-1,-3.5435506E-3,9.672985E-3,3.7806094E-4,5.7921207E-1,-4.820164E-5,1.172568E-3,-3.648149E-5,5.4909664E-1,8.660254E-1,-1.6652958E-3,6.003943E-3,1.0502803E-3,-9.392262E-3,6.4925706E-1,-1.0136853E-3,-1.0065871E-2,6.088561E-2,-0E0,-2.054347E-2,-1.2742402E-2,4.5544993E-2,-1.8336924E-3,2.1155735E-2,5.53373E-3,9.9059E-3,-1.262747E-4,3.9948862E-2,-1.3119236E-2,-1.0358411E-2,-5.157268E-4,-3.381757E-2,4.50337E-3,-3.1803355E-3,-2.651428E-2,-2.2834057E-2,4.462649E-2,-1.573721E-2,-5.6552915E-3,-3.8143022E-3,-1.3926341E-2,-1.4139475E-2,-2.3158423E-3,-8.766249E-3,-2.965723E-2,-2.7322471E-2,-9.73741E-3,6.7212135E-3,1.2534435E-2,-2.2500463E-2,3.8528223E-2,1.6862832E-2,-2.7076337E-3,-2.5037487E-4,2.374085E-2,-1.3454215E-3,3.7281818E-3,-4.0953844E-3,-1.22460555E-2,-2.0022318E-2,-7.204936E-3,3.9981708E-2,-9.4218785E-3,4.9551646E-3,-1.151087E-2,1.229539E-2,7.166029E-3,1.2522349E-2,2.8090132E-3,4.3576374E-3,2.597784E-2,-4.8360443E-3,-2.297499E-2,6.490684E-2,-2.9514609E-2,-1.8290907E-2,9.786558E-3,-1.3019271E-2,3.846055E-2],"split_indices":[41,24,41,24,41,24,24,19,53,41,24,23,24,28,19,61,50,23,41,23,62,24,25,50,51,23,48,18,53,50,27,51,25,24,50,50,53,50,51,53,18,51,0,53,23,23,60,63,49,50,50,46,51,7,61,21,51,23,19,61,46,53,4,0,0,0,0,0,0,0,0,0,0,0,0,0,0,0,0,0,0,0,0,0,0,0,0,0,0,0,0,0,0,0,0,0,0,0,0,0,0,0,0,0,0,0,0,0,0,0,0,0,0,0,0,0,0,0,0,0,0,0,0,0,0,0,0],"split_type":[0,0,0,0,0,0,0,0,0,0,0,0,0,0,0,0,0,0,0,0,0,0,0,0,0,0,0,0,0,0,0,0,0,0,0,0,0,0,0,0,0,0,0,0,0,0,0,0,0,0,0,0,0,0,0,0,0,0,0,0,0,0,0,0,0,0,0,0,0,0,0,0,0,0,0,0,0,0,0,0,0,0,0,0,0,0,0,0,0,0,0,0,0,0,0,0,0,0,0,0,0,0,0,0,0,0,0,0,0,0,0,0,0,0,0,0,0,0,0,0,0,0,0,0,0,0,0],"sum_hessian":[2.2666272E5,7.645365E4,1.5020908E5,3.1921875E4,4.4531777E4,8.261726E4,6.759181E4,8.316182E3,2.3605691E4,1.5462419E4,2.9069357E4,4.2869242E4,3.9748016E4,6.5383156E4,2.2086553E3,2.796979E3,5.519203E3,7.972219E3,1.5633473E4,5.1294937E3,1.0332925E4,2.4498639E4,4.5707183E3,1.6655506E4,2.6213738E4,3.6412043E4,3.3359722E3,2.59092E4,3.947396E4,9.1745087E2,1.2912043E3,2.7570967E3,3.9882336E1,5.2149688E3,3.0423456E2,3.0244883E3,4.947731E3,2.6552466E3,1.2978227E4,1.4182565E3,3.711237E3,8.657327E3,1.6755983E3,1.3728102E4,1.0770538E4,1.4849441E3,3.0857742E3,1.6408143E4,2.4736345E2,2.300101E3,2.3913637E4,2.9945312E4,6.466732E3,3.1921099E3,1.4386237E2,4.4832534E3,2.1425945E4,3.7895637E4,1.5783246E3,8.922657E2,2.51852E1,1.0920228E3,1.9918153E2,1.9174792E3,8.3961743E2,2.8875668E1,1.1006667E1,1.6247124E3,3.590256E3,7.157212E1,2.3266243E2,1.1427578E3,1.8817305E3,1.0396802E3,3.9080508E3,1.7218E1,2.6380286E3,1.0175926E3,1.1960634E4,1.3954899E3,2.276659E1,1.6132626E2,3.549911E3,8.634421E3,2.2906366E1,1.2192112E3,4.563871E2,1.2240989E3,1.2504002E4,4.439299E3,6.331239E3,1.2214629E3,2.634812E2,2.6288994E3,4.568746E2,1.2647586E4,3.7605566E3,2.1405523E1,2.2595793E2,1.6177648E3,6.823364E2,2.3463307E4,4.5033057E2,2.0495623E4,9.449688E3,4.2031406E3,2.2635916E3,1.1722388E3,2.019871E3,1.0317613E2,4.0686237E1,4.0183662E3,4.6488715E2,1.08577E4,1.0568245E4,3.5633465E4,2.2621719E3,4.1317596E2,1.1651487E3,2.9630832E2,5.959574E2,1.818279E1,7.0024076E0,1.9318156E2,8.988412E2,4.115286E1,1.5802867E2],"tree_param":{"num_deleted":"0","num_feature":"68","num_nodes":"127","size_leaf_vector":"1"}},{"base_weights":[1.7613635E-3,3.6499798E-1,-2.4318646E-1,1.278422E-1,5.375001E-1,-9.166975E-2,-3.960893E-1,-1.3838108E-1,2.3470011E-1,8.172316E-1,3.9162904E-1,-1.8874806E-1,3.7941E-2,-3.261698E-1,-4.9984786E-1,1.4526322E-1,-1.8779165E-1,3.960837E-1,1.2941286E-1,9.708207E-1,7.24589E-1,4.3099514E-1,1.15397766E-1,-3.2094184E-1,-9.176631E-2,3.5169977E-3,2.5908217E-1,-3.9178592E-1,-2.3134007E-1,-4.4369638E-1,-5.4869384E-1,5.0682235E-1,7.109779E-2,-2.5352666E-1,-1.2721716E-1,5.9143984E-1,2.8845033E-1,4.018435E-1,4.441264E-2,1.1393149E0,8.984055E-1,6.8354654E-1,1.1110853E0,4.9942067E-1,2.9926926E-1,2.4946044E-1,1.96502E-2,-1.6117537E-1,-3.5232565E-1,-1.663667E-2,-1.6895653E-1,5.1774353E-2,-1.3245523E-1,3.776371E-1,1.5500404E-1,-4.3274003E-1,-3.0098596E-1,-1.840265E-1,-3.1504548E-1,-5.066067E-1,-4.1380918E-1,-5.2440214E-1,-6.045983E-1,4.8143428E-2,1.4930795E-2,1.2104941E-2,-2.9258633E-3,-1.7828848E-2,-1.1320928E-2,-9.007277E-3,-1.0831885E-3,4.0813364E-2,2.78238E-2,-6.977999E-3,1.5143767E-2,2.1098351E-2,-1.211903E-2,6.484886E-3,-2.4186221E-3,5.7986088E-2,2.0780917E-2,3.7522368E-2,5.3887364E-2,4.462132E-2,2.7308414E-2,5.6054026E-2,-8.760379E-3,2.9489536E-2,2.0896763E-2,1.3818042E-2,2.9200664E-2,2.5263308E-2,8.525199E-3,1.1920163E-2,-8.478751E-4,-1.6072125E-3,-1.1414562E-2,-1.4868761E-2,-1.9124622E-2,3.295707E-3,-4.668673E-3,-5.4028775E-3,-1.1096078E-2,5.8440873E-3,-2.8959038E-3,-1.2056655E-2,-1.0956556E-3,7.480783E-3,2.1600887E-2,9.142585E-3,-1.28047215E-2,-1.7302057E-2,-2.3706572E-2,-2.2642002E-2,-1.418412E-2,-1.0060261E-2,1.3349332E-3,-1.4455864E-2,-2.0983277E-2,-2.177241E-2,-2.675508E-2,-1.9546812E-2,-2.4998117E-2,-2.4509551E-2,-2.7308732E-2,-2.8844416E-2,-3.1699188E-2],"categories":[],"categories_nodes":[],"categories_segments":[],"categories_sizes":[],"default_left":[0,0,0,0,0,0,0,0,0,0,0,0,0,0,0,0,0,0,0,0,0,0,0,0,0,0,0,0,0,0,0,0,0,0,0,0,0,0,0,0,0,0,0,0,0,0,0,0,0,0,0,0,0,0,0,0,0,0,0,0,0,0,0,0,0,0,0,0,0,0,0,0,0,0,0,0,0,0,0,0,0,0,0,0,0,0,0,0,0,0,0,0,0,0,0,0,0,0,0,0,0,0,0,0,0,0,0,0,0,0,0,0,0,0,0,0,0,0,0,0,0,0,0,0,0,0,0],"id":4,"left_children":[1,3,5,7,9,11,13,15,17,19,21,23,25,27,29,31,33,35,37,39,41,43,45,47,49,51,53,55,57,59,61,63,65,67,69,71,73,75,77,79,81,83,85,87,89,91,93,95,97,99,101,103,105,107,109,111,113,115,117,119,121,123,125,-1,-1,-1,-1,-1,-1,-1,-1,-1,-1,-1,-1,-1,-1,-1,-1,-1,-1,-1,-1,-1,-1,-1,-1,-1,-1,-1,-1,-1,-1,-1,-1,-1,-1,-1,-1,-1,-1,-1,-1,-1,-1,-1,-1,-1,-1,-1,-1,-1,-1,-1,-1,-1,-1,-1,-1,-1,-1,-1,-1,-1,-1,-1,-1],"loss_changes":[2.015627E4,3.7322373E3,3.1342573E3,1.0931365E3,2.1543271E3,8.551936E2,4.87958E2,1.5427496E2,4.6558777E2,2.5600586E2,3.772129E2,4.979568E2,2.2141246E2,2.4995996E2,7.3603516E1,4.342725E1,3.7102356E1,2.2697217E2,3.840916E2,8.099414E1,1.7753857E2,2.7333398E2,5.5487324E1,8.212695E1,1.2991597E2,1.6522481E2,4.802008E1,8.7918945E1,6.488263E1,2.3057861E1,1.8790527E1,2.5327385E1,3.016544E1,1.2171722E1,2.7182777E1,2.9062988E1,4.3231934E1,5.1340515E1,1.00169716E2,2.8855225E1,1.24757324E2,2.919458E2,1.4576294E1,1.4648242E2,6.720276E1,3.599768E1,2.0385677E1,2.3278679E1,2.2320923E1,7.201565E1,3.5466736E1,1.3281468E2,7.908821E1,2.2320435E1,2.3940937E1,5.820581E1,1.894165E1,3.818396E1,1.5634399E1,7.5029297E0,1.6239258E1,6.746582E0,2.5914307E0,0E0,0E0,0E0,0E0,0E0,0E0,0E0,0E0,0E0,0E0,0E0,0E0,0E0,0E0,0E0,0E0,0E0,0E0,0E0,0E0,0E0,0E0,0E0,0E0,0E0,0E0,0E0,0E0,0E0,0E0,0E0,0E0,0E0,0E0,0E0,0E0,0E0,0E0,0E0,0E0,0E0,0E0,0E0,0E0,0E0,0E0,0E0,0E0,0E0,0E0,0E0,0E0,0E0,0E0,0E0,0E0,0E0,0E0,0E0,0E0,0E0,0E0,0E0,0E0],"parents":[2147483647,0,0,1,1,2,2,3,3,4,4,5,5,6,6,7,7,8,8,9,9,10,10,11,11,12,12,13,13,14,14,15,15,16,16,17,17,18,18,19,19,20,20,21,21,22,22,23,23,24,24,25,25,26,26,27,27,28,28,29,29,30,30,31,31,32,32,33,33,34,34,35,35,36,36,37,37,38,38,39,39,40,40,41,41,42,42,43,43,44,44,45,45,46,46,47,47,48,48,49,49,50,50,51,51,52,52,53,53,54,54,55,55,56,56,57,57,58,58,59,59,60,60,61,61,62,62],"right_children":[2,4,6,8,10,12,14,16,18,20,22,24,26,28,30,32,34,36,38,40,42,44,46,48,50,52,54,56,58,60,62,64,66,68,70,72,74,76,78,80,82,84,86,88,90,92,94,96,98,100,102,104,106,108,110,112,114,116,118,120,122,124,126,-1,-1,-1,-1,-1,-1,-1,-1,-1,-1,-1,-1,-1,-1,-1,-1,-1,-1,-1,-1,-1,-1,-1,-1,-1,-1,-1,-1,-1,-1,-1,-1,-1,-1,-1,-1,-1,-1,-1,-1,-1,-1,-1,-1,-1,-1,-1,-1,-1,-1,-1,-1,-1,-1,-1,-1,-1,-1,-1,-1,-1,-1,-1,-1],"split_conditions":[5.7007157E-4,-2.5881904E-1,8.767496E-4,-2.5881904E-1,3.513715E-4,-1.8369701E-16,1.3081441E-3,2.129708E-3,5E-1,1.5923681E-3,1E0,-2.5881904E-1,9.659258E-1,-1.8369701E-16,1.4713423E-3,2.7722903E-4,-5E-1,2.5080414E-3,1.9722162E-3,5E-1,1E0,2.9471663E-3,2.6141298E-3,-8.660254E-1,5E-1,5E-1,6.920143E-4,-2.5881904E-1,1.0184427E-3,-2.5881904E-1,2.1654381E-3,-2.8493152E-5,0E0,-1.6452456E-3,2.172822E-3,1.5397536E-4,-5.349921E-3,1.2570762E-2,2.7735417E-3,1.2570762E-2,9.659258E-1,5E-1,5.660587E-3,5E-1,1E0,7.0710677E-1,5E-1,4.2575304E-3,6.4437714E-4,4.119464E-3,4.011192E-3,4.4492255E-3,8.660254E-1,3.2652155E-1,2.3190755E-2,-8.660254E-1,-1.6642276E-2,9.659258E-1,1E0,-7.0710677E-1,1.8292937E-3,-8.660254E-1,2.6437517E-3,4.8143428E-2,1.4930795E-2,1.2104941E-2,-2.9258633E-3,-1.7828848E-2,-1.1320928E-2,-9.007277E-3,-1.0831885E-3,4.0813364E-2,2.78238E-2,-6.977999E-3,1.5143767E-2,2.1098351E-2,-1.211903E-2,6.484886E-3,-2.4186221E-3,5.7986088E-2,2.0780917E-2,3.7522368E-2,5.3887364E-2,4.462132E-2,2.7308414E-2,5.6054026E-2,-8.760379E-3,2.9489536E-2,2.0896763E-2,1.3818042E-2,2.9200664E-2,2.5263308E-2,8.525199E-3,1.1920163E-2,-8.478751E-4,-1.6072125E-3,-1.1414562E-2,-1.4868761E-2,-1.9124622E-2,3.295707E-3,-4.668673E-3,-5.4028775E-3,-1.1096078E-2,5.8440873E-3,-2.8959038E-3,-1.2056655E-2,-1.0956556E-3,7.480783E-3,2.1600887E-2,9.142585E-3,-1.28047215E-2,-1.7302057E-2,-2.3706572E-2,-2.2642002E-2,-1.418412E-2,-1.0060261E-2,1.3349332E-3,-1.4455864E-2,-2.0983277E-2,-2.177241E-2,-2.675508E-2,-1.9546812E-2,-2.4998117E-2,-2.4509551E-2,-2.7308732E-2,-2.8844416E-2,-3.1699188E-2],"split_indices":[8,24,8,23,8,24,8,9,23,9,62,23,23,24,1,8,23,9,9,23,23,9,9,23,23,23,42,23,1,24,8,6,17,50,60,28,50,53,9,53,23,23,60,23,23,23,23,9,1,9,9,9,23,51,53,23,53,23,62,24,8,23,1,0,0,0,0,0,0,0,0,0,0,0,0,0,0,0,0,0,0,0,0,0,0,0,0,0,0,0,0,0,0,0,0,0,0,0,0,0,0,0,0,0,0,0,0,0,0,0,0,0,0,0,0,0,0,0,0,0,0,0,0,0,0,0,0],"split_type":[0,0,0,0,0,0,0,0,0,0,0,0,0,0,0,0,0,0,0,0,0,0,0,0,0,0,0,0,0,0,0,0,0,0,0,0,0,0,0,0,0,0,0,0,0,0,0,0,0,0,0,0,0,0,0,0,0,0,0,0,0,0,0,0,0,0,0,0,0,0,0,0,0,0,0,0,0,0,0,0,0,0,0,0,0,0,0,0,0,0,0,0,0,0,0,0,0,0,0,0,0,0,0,0,0,0,0,0,0,0,0,0,0,0,0,0,0,0,0,0,0,0,0,0,0,0,0],"sum_hessian":[2.265384E5,9.123954E4,1.3529888E5,3.8421848E4,5.2817695E4,6.7959914E4,6.733895E4,1.1003361E4,2.7418486E4,1.8099986E4,3.4717707E4,3.885841E4,2.9101504E4,4.023492E4,2.7104031E4,1.6306216E3,9.372739E3,1.0822429E4,1.6596059E4,6.8043667E3,1.129562E4,3.0385113E4,4.3325947E3,1.6440816E4,2.2417594E4,2.5184438E4,3.9170662E3,2.3775438E4,1.6459484E4,1.2618547E4,1.4485484E4,2.7541046E2,1.3552112E3,4.489416E3,4.883323E3,3.8412913E3,6.981137E3,3.9444045E3,1.2651653E4,2.0388297E3,4.765537E3,1.0214945E4,1.0806741E3,1.9993053E4,1.0392061E4,1.8022767E3,2.5303179E3,2.702941E3,1.3737876E4,1.1364329E4,1.1053266E4,1.8590762E4,6.593676E3,1.8277042E3,2.0893618E3,1.6378748E4,7.3966885E3,1.0521497E4,5.937988E3,4.0535193E3,8.565027E3,1.0111251E4,4.374234E3,8.443711E1,1.9097336E2,5.8560834E2,7.696028E2,9.2863837E2,3.5607778E3,3.2488074E3,1.6345157E3,5.1204553E2,3.3292456E3,2.2619763E2,6.7549395E3,3.826013E3,1.1839161E2,6.59486E3,6.0567935E3,1.9816573E3,5.717237E1,2.6156125E3,2.1499246E3,4.0491663E3,6.1657793E3,1.0728545E3,7.819548E0,9.473857E3,1.0519196E4,9.621695E3,7.703645E2,4.2231497E2,1.3799618E3,3.6390607E2,2.1664119E3,9.2792395E2,1.775017E3,4.8786274E3,8.859249E3,5.4716934E3,5.8926353E3,5.1473457E3,5.90592E3,1.1669111E4,6.9216504E3,3.3219978E3,3.2716782E3,3.5444418E2,1.47326E3,1.9584675E3,1.3089441E2,5.299598E3,1.107915E4,7.5109515E2,6.6455933E3,9.730653E3,7.90844E2,4.7654893E3,1.1724985E3,1.1687373E3,2.884782E3,6.777106E3,1.7879211E3,3.950429E3,6.160822E3,2.270675E3,2.1035588E3],"tree_param":{"num_deleted":"0","num_feature":"68","num_nodes":"127","size_leaf_vector":"1"}},{"base_weights":[-1.5065611E-3,-1.8447022E-1,1.1672785E-1,-3.2493535E-1,-1.1349284E-1,8.077692E-2,2.4909776E-1,-2.827082E-1,-4.9312022E-1,-4.3701574E-2,-1.7576703E-1,2.7137171E-2,1.2913847E-1,2.3927636E-1,5.187343E-1,-3.7116694E-1,-1.3338707E-1,-4.024213E-1,-6.001511E-1,-2.0314856E-1,2.38191E-2,-1.9827239E-1,2.3807231E-2,7.730622E-2,-2.6912956E-2,6.392339E-1,1.2629777E-1,1.7429346E-1,2.5855365E-1,4.266995E-2,6.239936E-1,-2.4899773E-1,-4.2641965E-1,-1.9451657E-1,-1.435934E-2,-4.8777026E-1,-1.8501078E-1,-6.0548264E-1,8.8739103E-1,-2.6361424E-1,-1.0856353E-1,-6.140259E-3,1.3941278E-1,-1.5906511E-1,-3.2317913E-1,4.7844067E-1,5.843887E-4,6.7041847E-3,1.1068515E-1,3.0134925E-1,-3.5919216E-2,8.865724E-1,2.4559345E-2,7.582848E-2,1.5357363E-1,1.265151E-1,3.8557777E-1,2.1009538E-1,3.053771E-1,-4.6930245E-1,2.839231E-1,4.8049483E-1,8.6268425E-1,-5.018586E-3,-1.8341664E-2,-2.3948405E-2,-1.611196E-2,-1.3330105E-2,-1.0659039E-3,-6.32592E-3,5.382098E-3,1.030821E-2,-2.5240708E-2,-9.56875E-4,-2.288074E-2,-3.0409325E-2,4.67235E-2,6.43143E-2,-1.5983874E-2,-1.4767385E-2,4.255075E-3,1.7705543E-2,-6.175893E-3,5.647784E-3,-2.0879097E-3,5.761385E-3,2.7185265E-2,-1.160018E-2,3.1077745E-4,-9.121719E-3,-1.9451546E-2,3.1698402E-2,-2.2608412E-2,3.4631964E-2,-7.5981586E-4,-5.012075E-4,9.335014E-3,4.6938746E-3,1.1064811E-2,3.0725757E-3,2.5697038E-2,-3.6181274E-3,1.4928686E-3,2.4252584E-2,5.820789E-2,-3.2341745E-2,2.3334192E-2,4.293291E-3,-5.1390203E-3,8.707742E-3,4.407603E-3,8.146866E-3,-2.3316776E-3,1.2629946E-2,4.3232013E-2,1.7023185E-2,8.465291E-3,1.6860837E-2,6.2291655E-3,3.8737103E-2,-3.163531E-2,4.618187E-2,1.472119E-3,4.6063617E-2,1.6392354E-2,4.564342E-2,-3.1583432E-2],"categories":[],"categories_nodes":[],"categories_segments":[],"categories_sizes":[],"default_left":[0,0,0,0,0,0,0,0,0,0,0,0,0,0,0,0,0,0,0,0,0,0,0,0,0,0,0,0,0,0,0,0,0,0,0,0,0,0,0,0,0,0,0,0,0,0,0,0,0,0,0,0,0,0,0,0,0,0,0,0,0,0,0,0,0,0,0,0,0,0,0,0,0,0,0,0,0,0,0,0,0,0,0,0,0,0,0,0,0,0,0,0,0,0,0,0,0,0,0,0,0,0,0,0,0,0,0,0,0,0,0,0,0,0,0,0,0,0,0,0,0,0,0,0,0,0,0],"id":5,"left_children":[1,3,5,7,9,11,13,15,17,19,21,23,25,27,29,31,33,35,37,39,41,43,45,47,49,51,53,55,57,59,61,63,65,67,69,71,73,75,77,79,81,83,85,87,89,91,93,95,97,99,101,103,105,107,109,111,113,115,117,119,121,123,125,-1,-1,-1,-1,-1,-1,-1,-1,-1,-1,-1,-1,-1,-1,-1,-1,-1,-1,-1,-1,-1,-1,-1,-1,-1,-1,-1,-1,-1,-1,-1,-1,-1,-1,-1,-1,-1,-1,-1,-1,-1,-1,-1,-1,-1,-1,-1,-1,-1,-1,-1,-1,-1,-1,-1,-1,-1,-1,-1,-1,-1,-1,-1,-1],"loss_changes":[4.9065913E3,8.874241E2,6.5546924E2,2.1171533E2,2.569707E2,2.809995E2,7.741699E1,3.1528418E2,5.744287E1,3.004423E2,1.4047601E2,1.3935065E2,8.209515E1,3.530652E1,5.132544E1,1.0081641E2,6.4592026E1,5.9880066E1,2.2165344E1,4.7263702E1,6.7934906E1,1.372738E2,3.318703E1,6.27482E1,7.2987595E1,4.7308655E1,7.7874146E1,6.5360794E1,4.9344727E1,2.3347046E1,2.7813568E1,8.1637726E1,5.597119E1,7.3162796E1,4.1361366E1,2.7829773E1,4.1328556E1,1.1797119E1,5.648445E0,5.612741E1,2.236224E1,6.5978264E1,3.9082993E1,2.5791284E2,6.1804626E1,2.249543E1,3.326808E1,2.5868568E1,3.3455353E1,3.328875E1,5.7724754E1,2.3523315E1,2.7460213E1,3.5653877E1,4.9369873E1,3.3544365E1,7.549487E1,5.693399E1,6.3767212E1,1.2646645E1,2.0585241E1,3.4768173E1,2.428218E1,0E0,0E0,0E0,0E0,0E0,0E0,0E0,0E0,0E0,0E0,0E0,0E0,0E0,0E0,0E0,0E0,0E0,0E0,0E0,0E0,0E0,0E0,0E0,0E0,0E0,0E0,0E0,0E0,0E0,0E0,0E0,0E0,0E0,0E0,0E0,0E0,0E0,0E0,0E0,0E0,0E0,0E0,0E0,0E0,0E0,0E0,0E0,0E0,0E0,0E0,0E0,0E0,0E0,0E0,0E0,0E0,0E0,0E0,0E0,0E0,0E0,0E0,0E0,0E0],"parents":[2147483647,0,0,1,1,2,2,3,3,4,4,5,5,6,6,7,7,8,8,9,9,10,10,11,11,12,12,13,13,14,14,15,15,16,16,17,17,18,18,19,19,20,20,21,21,22,22,23,23,24,24,25,25,26,26,27,27,28,28,29,29,30,30,31,31,32,32,33,33,34,34,35,35,36,36,37,37,38,38,39,39,40,40,41,41,42,42,43,43,44,44,45,45,46,46,47,47,48,48,49,49,50,50,51,51,52,52,53,53,54,54,55,55,56,56,57,57,58,58,59,59,60,60,61,61,62,62],"right_children":[2,4,6,8,10,12,14,16,18,20,22,24,26,28,30,32,34,36,38,40,42,44,46,48,50,52,54,56,58,60,62,64,66,68,70,72,74,76,78,80,82,84,86,88,90,92,94,96,98,100,102,104,106,108,110,112,114,116,118,120,122,124,126,-1,-1,-1,-1,-1,-1,-1,-1,-1,-1,-1,-1,-1,-1,-1,-1,-1,-1,-1,-1,-1,-1,-1,-1,-1,-1,-1,-1,-1,-1,-1,-1,-1,-1,-1,-1,-1,-1,-1,-1,-1,-1,-1,-1,-1,-1,-1,-1,-1,-1,-1,-1,-1,-1,-1,-1,-1,-1,-1,-1,-1,-1,-1,-1],"split_conditions":[3.402702E-3,2.2093372E-3,6.551255E-4,9.659258E-1,-2.5881904E-1,7.2683825E-4,9.659258E-1,7.0710677E-1,-1.8369701E-16,-8.660254E-1,1.1763441E-2,-1.8369701E-16,-2.902156E-2,-6.890148E-3,3.7703647E-3,-2.5881904E-1,7.0710677E-1,2.255579E-4,6.02308E-3,2.9813147E-3,2.6188507E-3,9.659258E-1,-1.2686849E-3,-8.660254E-1,-1.9993642E-2,5.2930455E-4,-1.7355462E-3,5E-1,9.11129E-3,6.335577E-3,1.1386372E-3,-2.5881904E-1,5E-1,1.9982077E-4,1.5067503E-4,-1.2867172E-4,5.5696857E-1,4.65981E-1,3.1199868E-4,3.7826125E-3,-1.3307808E-2,-5E-1,7.906607E-3,7.0710677E-1,-1.8369701E-16,1E0,3.7194246E-1,5.6036767E-3,4.181772E-3,0E0,8.266824E-4,-5.989111E-2,-3.454931E-2,9.659258E-1,6.123234E-17,3.5369238E-1,1.2503448E-2,-3.3906717E-3,2.5881904E-1,2.2333474E-3,6.86091E-4,-9.774306E-3,7.097894E-1,-5.018586E-3,-1.8341664E-2,-2.3948405E-2,-1.611196E-2,-1.3330105E-2,-1.0659039E-3,-6.32592E-3,5.382098E-3,1.030821E-2,-2.5240708E-2,-9.56875E-4,-2.288074E-2,-3.0409325E-2,4.67235E-2,6.43143E-2,-1.5983874E-2,-1.4767385E-2,4.255075E-3,1.7705543E-2,-6.175893E-3,5.647784E-3,-2.0879097E-3,5.761385E-3,2.7185265E-2,-1.160018E-2,3.1077745E-4,-9.121719E-3,-1.9451546E-2,3.1698402E-2,-2.2608412E-2,3.4631964E-2,-7.5981586E-4,-5.012075E-4,9.335014E-3,4.6938746E-3,1.1064811E-2,3.0725757E-3,2.5697038E-2,-3.6181274E-3,1.4928686E-3,2.4252584E-2,5.820789E-2,-3.2341745E-2,2.3334192E-2,4.293291E-3,-5.1390203E-3,8.707742E-3,4.407603E-3,8.146866E-3,-2.3316776E-3,1.2629946E-2,4.3232013E-2,1.7023185E-2,8.465291E-3,1.6860837E-2,6.2291655E-3,3.8737103E-2,-3.163531E-2,4.618187E-2,1.472119E-3,4.6063617E-2,1.6392354E-2,4.564342E-2,-3.1583432E-2],"split_indices":[9,9,46,23,24,1,24,23,24,24,53,24,53,50,61,24,24,30,60,9,50,23,48,24,53,6,17,23,9,60,46,23,23,18,46,7,51,17,43,60,53,23,50,23,24,26,51,9,61,23,43,17,53,23,24,51,61,50,23,60,5,53,10,0,0,0,0,0,0,0,0,0,0,0,0,0,0,0,0,0,0,0,0,0,0,0,0,0,0,0,0,0,0,0,0,0,0,0,0,0,0,0,0,0,0,0,0,0,0,0,0,0,0,0,0,0,0,0,0,0,0,0,0,0,0,0,0],"split_type":[0,0,0,0,0,0,0,0,0,0,0,0,0,0,0,0,0,0,0,0,0,0,0,0,0,0,0,0,0,0,0,0,0,0,0,0,0,0,0,0,0,0,0,0,0,0,0,0,0,0,0,0,0,0,0,0,0,0,0,0,0,0,0,0,0,0,0,0,0,0,0,0,0,0,0,0,0,0,0,0,0,0,0,0,0,0,0,0,0,0,0,0,0,0,0,0,0,0,0,0,0,0,0,0,0,0,0,0,0,0,0,0,0,0,0,0,0,0,0,0,0,0,0,0,0,0,0],"sum_hessian":[2.2681111E5,8.903548E4,1.3777564E5,2.9884012E4,5.915146E4,1.0835297E5,2.9422672E4,2.3891168E4,5.9928433E3,2.789689E4,3.125457E4,5.137868E4,5.697429E4,2.8392238E4,1.0304347E3,1.5000151E4,8.891017E3,3.2490232E3,2.7438203E3,8.300659E3,1.959623E4,2.8089518E4,3.1650537E3,2.6650574E4,2.4728104E4,3.133139E2,5.6660973E4,6.503886E3,2.1888352E4,1.8769366E2,8.42741E2,4.6758784E3,1.0324273E4,5.870994E3,3.0200222E3,2.3305676E3,9.184555E2,2.7349468E3,8.87333E0,5.059307E3,3.2413525E3,1.5560031E4,4.0361995E3,2.1383633E4,6.7058843E3,1.5181621E2,3.0132375E3,8.560296E3,1.809028E4,6.579784E2,2.4070125E4,2.2251889E2,9.079502E1,1.9886516E4,3.6774457E4,5.307623E3,1.1962633E3,1.0764345E4,1.1124007E4,5.915046E1,1.285432E2,5.2951135E2,3.1322968E2,2.0704783E3,2.6054001E3,6.8571445E3,3.4671282E3,4.1431724E3,1.7278218E3,1.575596E3,1.4444263E3,5.4900246E1,2.2756672E3,5.7281506E2,3.456404E2,2.7310813E3,3.865465E0,6.9313536E0,1.941977E0,4.638762E3,4.2054507E2,9.97283E1,3.141624E3,3.5784692E3,1.19815625E4,3.810759E3,2.2544063E2,1.4838163E4,6.5454707E3,2.1410938E3,4.5647905E3,1.3081062E2,2.1005585E1,6.69282E1,2.9463093E3,7.8306987E3,7.295968E2,1.570954E4,2.3807395E3,3.1084637E2,3.4713202E2,1.5493497E4,8.576628E3,9.2814095E1,1.2970479E2,3.5417446E1,5.5377575E1,1.883155E4,1.0549635E3,2.796694E4,8.80752E3,4.387623E3,9.200001E2,9.383623E2,2.5790103E2,2.560637E3,8.203708E3,9.455216E3,1.668791E3,6.077715E0,5.3072742E1,3.5274868E1,9.326833E1,1.340693E2,3.9544205E2,3.0375262E2,9.477058E0],"tree_param":{"num_deleted":"0","num_feature":"68","num_nodes":"127","size_leaf_vector":"1"}},{"base_weights":[1.1099824E-3,-2.0319493E-1,1.0982281E-1,-6.2291447E-2,-3.028794E-1,2.8116463E-2,2.0826511E-1,7.703426E-2,-1.16818465E-1,-4.590099E-1,-2.2656226E-1,7.955648E-2,-2.7793288E-2,2.1626705E-1,-3.5767127E-2,2.6890787E-1,1.3988141E-2,-1.9588305E-1,-6.83485E-2,-5.4666287E-1,-4.1276672E-1,-1.9584513E-1,-3.9539713E-1,1.5201615E-1,3.3960156E-2,-1.070182E-1,2.7424179E-3,2.3733878E-1,1.8310763E-1,-2.807652E-1,1.5174483E-1,3.2654464E-1,1.570421E-2,-1.3978535E-1,4.3947972E-2,-9.2251234E-2,-2.5945437E-1,1.843888E-1,-8.8331245E-2,5.011338E-1,-5.516415E-1,-4.2013448E-1,3.6581284E-1,-1.4252068E-1,-2.726632E-1,-2.2831129E-1,-4.7562316E-1,1.2325196E-1,3.2779467E-1,2.2298168E-1,1.5326313E-2,-1.1264083E-1,5.918581E-1,2.000676E-2,-1.0647078E-1,6.484537E-1,2.321843E-1,1.4954786E-1,2.6241687E-1,-3.004501E-1,5.123605E-1,3.855779E-1,3.049935E-2,1.9665718E-2,6.584427E-3,-1.8823504E-2,6.8380833E-3,4.1703235E-2,-8.027901E-3,3.0542219E-3,-1.5686661E-2,1.4553047E-2,-6.183765E-3,-1.4309003E-2,7.714629E-3,1.7943567E-2,-7.947519E-3,-1.083838E-2,-2.717592E-3,-1.9009901E-2,5.9350204E-2,-3.203399E-2,-2.5720483E-2,-2.2411296E-2,-1.4414789E-2,-7.0931264E-3,4.5825E-2,-1.1242001E-2,-1.7743808E-3,-8.404097E-3,-1.5528455E-2,-2.107266E-2,-4.8262575E-3,-1.712419E-2,-2.7734628E-2,8.273958E-3,3.0924673E-3,2.4171434E-2,1.1276419E-2,1.5464847E-2,1.4916797E-4,3.605842E-4,2.6019653E-2,-2.6951241E-3,-8.64346E-3,1.4772214E-3,5.2437462E-2,1.6262326E-3,-5.8643E-3,-7.046308E-3,2.0314073E-3,4.0071275E-2,1.2805092E-2,1.3403939E-2,1.065184E-2,-3.0468244E-3,8.002863E-3,1.1163027E-2,2.0089462E-2,-1.28081385E-2,-2.9315779E-2,5.5067856E-2,-2.9228805E-2,2.5025606E-2,-2.0462062E-2,3.7834458E-2,-1.3383235E-3],"categories":[],"categories_nodes":[],"categories_segments":[],"categories_sizes":[],"default_left":[0,0,0,0,0,0,0,0,0,0,0,0,0,0,0,0,0,0,0,0,0,0,0,0,0,0,0,0,0,0,0,0,0,0,0,0,0,0,0,0,0,0,0,0,0,0,0,0,0,0,0,0,0,0,0,0,0,0,0,0,0,0,0,0,0,0,0,0,0,0,0,0,0,0,0,0,0,0,0,0,0,0,0,0,0,0,0,0,0,0,0,0,0,0,0,0,0,0,0,0,0,0,0,0,0,0,0,0,0,0,0,0,0,0,0,0,0,0,0,0,0,0,0,0,0,0,0],"id":6,"left_children":[1,3,5,7,9,11,13,15,17,19,21,23,25,27,29,31,33,35,37,39,41,43,45,47,49,51,53,55,57,59,61,63,65,67,69,71,73,75,77,79,81,83,85,87,89,91,93,95,97,99,101,103,105,107,109,111,113,115,117,119,121,123,125,-1,-1,-1,-1,-1,-1,-1,-1,-1,-1,-1,-1,-1,-1,-1,-1,-1,-1,-1,-1,-1,-1,-1,-1,-1,-1,-1,-1,-1,-1,-1,-1,-1,-1,-1,-1,-1,-1,-1,-1,-1,-1,-1,-1,-1,-1,-1,-1,-1,-1,-1,-1,-1,-1,-1,-1,-1,-1,-1,-1,-1,-1,-1,-1],"loss_changes":[5.0418853E3,1.1071606E3,1.1916378E3,2.4821729E2,5.496968E2,2.3289746E2,1.3131787E2,1.10991745E2,8.984729E1,6.0725586E1,1.6047998E2,1.3924542E2,9.390573E1,4.521045E1,9.806866E1,3.2953934E1,3.1830051E1,5.8567413E1,7.352021E1,2.7571167E1,5.713867E1,1.07265564E2,6.3490723E1,8.207202E1,9.107337E1,4.2256256E1,5.275049E1,8.36897E1,6.708148E1,1.4505028E1,3.401121E1,2.3723251E1,2.0042088E1,2.2567265E1,3.5403435E1,4.0858932E1,6.120636E1,6.399339E1,5.8765038E1,1.5827595E1,1.6343262E1,3.593518E1,2.6511324E1,1.3641367E2,4.23208E1,3.9192947E1,3.3261963E1,3.6172928E1,3.593715E1,4.3915054E1,9.634008E1,3.7776596E1,2.1428492E1,4.1520554E1,1.9407219E1,2.8718567E1,2.6700684E1,3.9392273E1,4.0612E1,1.0883598E1,1.5232727E1,3.777631E1,3.3554447E1,0E0,0E0,0E0,0E0,0E0,0E0,0E0,0E0,0E0,0E0,0E0,0E0,0E0,0E0,0E0,0E0,0E0,0E0,0E0,0E0,0E0,0E0,0E0,0E0,0E0,0E0,0E0,0E0,0E0,0E0,0E0,0E0,0E0,0E0,0E0,0E0,0E0,0E0,0E0,0E0,0E0,0E0,0E0,0E0,0E0,0E0,0E0,0E0,0E0,0E0,0E0,0E0,0E0,0E0,0E0,0E0,0E0,0E0,0E0,0E0,0E0,0E0,0E0,0E0],"parents":[2147483647,0,0,1,1,2,2,3,3,4,4,5,5,6,6,7,7,8,8,9,9,10,10,11,11,12,12,13,13,14,14,15,15,16,16,17,17,18,18,19,19,20,20,21,21,22,22,23,23,24,24,25,25,26,26,27,27,28,28,29,29,30,30,31,31,32,32,33,33,34,34,35,35,36,36,37,37,38,38,39,39,40,40,41,41,42,42,43,43,44,44,45,45,46,46,47,47,48,48,49,49,50,50,51,51,52,52,53,53,54,54,55,55,56,56,57,57,58,58,59,59,60,60,61,61,62,62],"right_children":[2,4,6,8,10,12,14,16,18,20,22,24,26,28,30,32,34,36,38,40,42,44,46,48,50,52,54,56,58,60,62,64,66,68,70,72,74,76,78,80,82,84,86,88,90,92,94,96,98,100,102,104,106,108,110,112,114,116,118,120,122,124,126,-1,-1,-1,-1,-1,-1,-1,-1,-1,-1,-1,-1,-1,-1,-1,-1,-1,-1,-1,-1,-1,-1,-1,-1,-1,-1,-1,-1,-1,-1,-1,-1,-1,-1,-1,-1,-1,-1,-1,-1,-1,-1,-1,-1,-1,-1,-1,-1,-1,-1,-1,-1,-1,-1,-1,-1,-1,-1,-1,-1,-1,-1,-1,-1],"split_conditions":[5.34553E-4,-2.5881904E-1,8.887149E-4,-2.5881904E-1,3.3654936E-4,-2.5881904E-1,9.659258E-1,-1.3151695E-3,5E-1,2.5218303E-4,9.659258E-1,-2.5881904E-1,6.1182986E-4,-1.8369701E-16,-4.3055092E-4,1E0,1.5450433E-4,-1.5155706E-4,-3.871248E-3,-9.190464E-4,8.655355E-3,8.660254E-1,0E0,4.3961843E-3,2.7891397E-1,9.009077E-1,9.659258E-1,-5.9835165E-4,9.853081E-4,1.5604536E-2,-2.2252093E-1,-1.5314012E-4,-6.147541E-2,1.111533E-4,8.0353016E-1,-7.738606E-4,5.0192103E-3,7.818315E-1,3.0278397E-4,-2.5111865E-4,5E-1,1.1472868E-1,-2.5591804E-5,-2.5881904E-1,-1.8369701E-16,1.5467863E-3,4.357188E-1,6.234898E-1,4.3322824E-4,-3.5435506E-3,1.0120279E-2,5.007342E-1,-2.3062865E-5,9.659258E-1,9.749279E-1,-3.1781557E-1,4.2560086E-1,-1.542865E-3,1.0773556E-2,1.5669672E-3,1.78214E-3,1E0,3.2365473E-4,1.9665718E-2,6.584427E-3,-1.8823504E-2,6.8380833E-3,4.1703235E-2,-8.027901E-3,3.0542219E-3,-1.5686661E-2,1.4553047E-2,-6.183765E-3,-1.4309003E-2,7.714629E-3,1.7943567E-2,-7.947519E-3,-1.083838E-2,-2.717592E-3,-1.9009901E-2,5.9350204E-2,-3.203399E-2,-2.5720483E-2,-2.2411296E-2,-1.4414789E-2,-7.0931264E-3,4.5825E-2,-1.1242001E-2,-1.7743808E-3,-8.404097E-3,-1.5528455E-2,-2.107266E-2,-4.8262575E-3,-1.712419E-2,-2.7734628E-2,8.273958E-3,3.0924673E-3,2.4171434E-2,1.1276419E-2,1.5464847E-2,1.4916797E-4,3.605842E-4,2.6019653E-2,-2.6951241E-3,-8.64346E-3,1.4772214E-3,5.2437462E-2,1.6262326E-3,-5.8643E-3,-7.046308E-3,2.0314073E-3,4.0071275E-2,1.2805092E-2,1.3403939E-2,1.065184E-2,-3.0468244E-3,8.002863E-3,1.1163027E-2,2.0089462E-2,-1.28081385E-2,-2.9315779E-2,5.5067856E-2,-2.9228805E-2,2.5025606E-2,-2.0462062E-2,3.7834458E-2,-1.3383235E-3],"split_indices":[8,24,8,23,8,24,24,50,23,8,24,23,8,24,19,26,46,19,50,18,50,23,25,60,51,51,23,29,28,50,26,18,17,30,51,18,50,25,8,6,23,17,7,23,24,60,51,26,28,50,50,51,7,24,25,47,51,6,60,28,8,24,46,0,0,0,0,0,0,0,0,0,0,0,0,0,0,0,0,0,0,0,0,0,0,0,0,0,0,0,0,0,0,0,0,0,0,0,0,0,0,0,0,0,0,0,0,0,0,0,0,0,0,0,0,0,0,0,0,0,0,0,0,0,0,0,0],"split_type":[0,0,0,0,0,0,0,0,0,0,0,0,0,0,0,0,0,0,0,0,0,0,0,0,0,0,0,0,0,0,0,0,0,0,0,0,0,0,0,0,0,0,0,0,0,0,0,0,0,0,0,0,0,0,0,0,0,0,0,0,0,0,0,0,0,0,0,0,0,0,0,0,0,0,0,0,0,0,0,0,0,0,0,0,0,0,0,0,0,0,0,0,0,0,0,0,0,0,0,0,0,0,0,0,0,0,0,0,0,0,0,0,0,0,0,0,0,0,0,0,0,0,0,0,0,0,0],"sum_hessian":[2.2700402E5,7.8837875E4,1.4816614E5,3.2668197E4,4.616968E4,8.096892E4,6.719721E4,9.186236E3,2.348196E4,1.515462E4,3.101506E4,4.2174555E4,3.8794367E4,6.5065836E4,2.1313772E3,2.2691484E3,6.917088E3,8.919327E3,1.4562633E4,5.226418E3,9.928202E3,2.6245232E4,4.7698286E3,1.6283783E4,2.5890773E4,1.0796559E4,2.799781E4,3.9771266E4,2.529457E4,9.2498535E2,1.2063918E3,1.846553E3,4.2259537E2,1.1245917E3,5.792496E3,3.3950872E3,5.52424E3,1.064597E3,1.3498036E4,2.37699E1,5.202648E3,9.836224E3,9.1978355E1,1.5497067E4,1.0748165E4,1.550564E3,3.2192644E3,1.3997752E4,2.2860305E3,2.3199028E3,2.3570871E4,1.0711933E4,8.4625694E1,2.4180734E4,3.8170774E3,4.8972266E2,3.9281543E4,1.7780098E4,7.5144727E3,9.0380505E2,2.1180296E1,4.0978317E2,7.9660864E2,1.3726232E3,4.739298E2,9.820691E1,3.2438846E2,2.2166662E1,1.102425E3,5.529792E3,2.6270453E2,2.5541002E2,3.139677E3,5.190482E3,3.3375842E2,7.068116E2,3.5778552E2,2.8197537E3,1.0678282E4,1.0278662E1,1.3491238E1,1.5253082E3,3.6773398E3,8.1034043E3,1.7328191E3,4.777203E1,4.420633E1,8.756586E3,6.740481E3,2.8642927E3,7.8838726E3,6.264562E2,9.2410785E2,1.2038473E3,2.0154171E3,8.288103E3,5.7096494E3,9.0307263E2,1.3829579E3,1.66426E3,6.556429E2,2.320013E4,3.7073947E2,5.4282114E3,5.283721E3,3.8904022E1,4.5721672E1,2.2164273E4,2.0164594E3,3.0954607E3,7.216169E2,3.5068076E2,1.3904189E2,1.3651312E4,2.563023E4,8.4304626E2,1.6937053E4,5.871171E3,1.6433016E3,7.8572314E2,1.18081924E2,1.407471E1,7.1055856E0,3.5888605E2,5.0897106E1,5.797268E1,7.386359E2],"tree_param":{"num_deleted":"0","num_feature":"68","num_nodes":"127","size_leaf_vector":"1"}},{"base_weights":[2.070189E-3,3.5155338E-1,-2.3610194E-1,6.4607096E-1,2.2626127E-1,-8.697413E-2,-3.8686705E-1,3.6660007E-1,7.7168065E-1,6.1775E-2,3.681642E-1,-1.781816E-1,3.336362E-2,-3.194529E-1,-4.879454E-1,6.1713624E-1,3.0111367E-1,9.4338936E-1,6.996746E-1,3.4194738E-1,-6.1249617E-2,4.4596264E-1,2.3808126E-1,-3.0249435E-1,-8.7629355E-2,1.734714E-3,2.3163755E-1,-3.8399595E-1,-2.2646703E-1,-4.4970378E-1,-5.492141E-1,7.679317E-1,5.2155155E-1,4.6386456E-1,2.084855E-1,1.1175133E0,8.70334E-1,8.514779E-1,6.1451757E-1,4.304405E-1,2.1461846E-1,-1.7915103E-1,3.4248907E-2,5.2760774E-1,3.712332E-1,2.958402E-1,7.289511E-2,-1.4518328E-1,-3.3339903E-1,-1.9229654E-2,-1.5849482E-1,4.9900074E-2,-1.3336504E-1,2.5579414E-1,-2.7113268E-1,-4.2458588E-1,-2.9520285E-1,-1.9451535E-1,-3.4086996E-1,-5.0199676E-1,-4.177898E-1,-5.1272786E-1,-5.795719E-1,2.5294367E-2,4.9730107E-2,3.6440243E-3,2.798745E-2,2.4362262E-2,-1.7646387E-2,-2.4105194E-3,1.21003445E-2,1.5052072E-2,5.688972E-2,3.7127577E-2,5.1150985E-2,2.8803168E-2,4.707863E-2,1.9082341E-2,4.104952E-2,2.261191E-2,2.612878E-3,7.4878274E-3,1.6651608E-2,-4.415676E-3,-1.140446E-2,5.3316434E-3,-2.0201253E-3,-1.1629562E-2,2.7253736E-2,3.3318854E-3,2.6416121E-2,2.041784E-2,1.1146183E-2,1.921952E-3,2.0449223E-2,-1.7380882E-3,-1.0252891E-2,-1.448756E-2,-1.851545E-2,2.3951484E-3,-5.692597E-3,-5.2961353E-3,-1.0919868E-2,5.608218E-3,-2.7497555E-3,-1.1970557E-2,-1.2715819E-3,1.7133683E-2,7.4345926E-3,-3.0321006E-2,-8.768652E-3,-1.6635882E-2,-2.3426916E-2,-1.7935375E-2,-1.2601254E-2,-1.0415461E-2,-1.0351797E-3,-1.5499729E-2,-2.1055635E-2,-2.6658798E-2,-2.051313E-2,-1.9284735E-2,-2.3689574E-2,-2.741613E-2,-2.3579692E-2,-2.8205937E-2,-3.1379107E-2],"categories":[],"categories_nodes":[],"categories_segments":[],"categories_sizes":[],"default_left":[0,0,0,0,0,0,0,0,0,0,0,0,0,0,0,0,0,0,0,0,0,0,0,0,0,0,0,0,0,0,0,0,0,0,0,0,0,0,0,0,0,0,0,0,0,0,0,0,0,0,0,0,0,0,0,0,0,0,0,0,0,0,0,0,0,0,0,0,0,0,0,0,0,0,0,0,0,0,0,0,0,0,0,0,0,0,0,0,0,0,0,0,0,0,0,0,0,0,0,0,0,0,0,0,0,0,0,0,0,0,0,0,0,0,0,0,0,0,0,0,0,0,0,0,0,0,0],"id":7,"left_children":[1,3,5,7,9,11,13,15,17,19,21,23,25,27,29,31,33,35,37,39,41,43,45,47,49,51,53,55,57,59,61,63,65,67,69,71,73,75,77,79,81,83,85,87,89,91,93,95,97,99,101,103,105,107,109,111,113,115,117,119,121,123,125,-1,-1,-1,-1,-1,-1,-1,-1,-1,-1,-1,-1,-1,-1,-1,-1,-1,-1,-1,-1,-1,-1,-1,-1,-1,-1,-1,-1,-1,-1,-1,-1,-1,-1,-1,-1,-1,-1,-1,-1,-1,-1,-1,-1,-1,-1,-1,-1,-1,-1,-1,-1,-1,-1,-1,-1,-1,-1,-1,-1,-1,-1,-1,-1],"loss_changes":[1.8818139E4,3.3805732E3,3.0225913E3,9.5906445E2,1.5002366E3,7.419776E2,4.550039E2,1.3852283E2,2.3174805E2,1.0264845E3,3.4879834E2,4.326455E2,1.8263693E2,2.4034644E2,6.1915527E1,2.4253479E1,1.009964E2,6.886621E1,1.7062451E2,1.01972046E2,2.330391E2,1.3108789E2,1.2305963E2,7.848645E1,1.07765884E2,1.6352704E2,4.872766E1,8.483423E1,5.9762268E1,2.682837E1,1.0530273E1,3.8946228E1,1.8141663E1,4.67901E1,3.7036774E1,2.6098145E1,7.501636E1,1.1714673E2,4.089099E2,4.388971E1,2.835817E1,4.0993378E1,6.179845E1,1.372168E2,5.393779E2,7.810797E1,3.8562523E1,1.7492153E1,2.1374756E1,7.199378E1,3.4220093E1,1.2107886E2,7.544681E1,3.5292892E1,5.3858795E0,6.5018555E1,1.998767E1,3.0706482E1,8.384613E0,1.7139404E1,1.7800293E1,6.08313E0,3.1972656E0,0E0,0E0,0E0,0E0,0E0,0E0,0E0,0E0,0E0,0E0,0E0,0E0,0E0,0E0,0E0,0E0,0E0,0E0,0E0,0E0,0E0,0E0,0E0,0E0,0E0,0E0,0E0,0E0,0E0,0E0,0E0,0E0,0E0,0E0,0E0,0E0,0E0,0E0,0E0,0E0,0E0,0E0,0E0,0E0,0E0,0E0,0E0,0E0,0E0,0E0,0E0,0E0,0E0,0E0,0E0,0E0,0E0,0E0,0E0,0E0,0E0,0E0,0E0,0E0],"parents":[2147483647,0,0,1,1,2,2,3,3,4,4,5,5,6,6,7,7,8,8,9,9,10,10,11,11,12,12,13,13,14,14,15,15,16,16,17,17,18,18,19,19,20,20,21,21,22,22,23,23,24,24,25,25,26,26,27,27,28,28,29,29,30,30,31,31,32,32,33,33,34,34,35,35,36,36,37,37,38,38,39,39,40,40,41,41,42,42,43,43,44,44,45,45,46,46,47,47,48,48,49,49,50,50,51,51,52,52,53,53,54,54,55,55,56,56,57,57,58,58,59,59,60,60,61,61,62,62],"right_children":[2,4,6,8,10,12,14,16,18,20,22,24,26,28,30,32,34,36,38,40,42,44,46,48,50,52,54,56,58,60,62,64,66,68,70,72,74,76,78,80,82,84,86,88,90,92,94,96,98,100,102,104,106,108,110,112,114,116,118,120,122,124,126,-1,-1,-1,-1,-1,-1,-1,-1,-1,-1,-1,-1,-1,-1,-1,-1,-1,-1,-1,-1,-1,-1,-1,-1,-1,-1,-1,-1,-1,-1,-1,-1,-1,-1,-1,-1,-1,-1,-1,-1,-1,-1,-1,-1,-1,-1,-1,-1,-1,-1,-1,-1,-1,-1,-1,-1,-1,-1,-1,-1,-1,-1,-1,-1],"split_conditions":[3.4210545E-3,2.129708E-3,8.767496E-4,-2.5881904E-1,-2.5881904E-1,-1.8369701E-16,1.3081441E-3,-8.660254E-1,1.5127469E-3,-8.660254E-1,4.7146878E-4,-2.5881904E-1,9.659258E-1,-1.8369701E-16,1.78214E-3,4.3388373E-1,2.7722903E-4,5E-1,5E-1,4.911987E-4,-2.5881904E-1,5E-1,1E0,-8.660254E-1,5E-1,5E-1,2.3190755E-2,-2.5881904E-1,1.2363659E-3,-2.5881904E-1,1.8474649E-3,1E0,-2.874526E-3,1.2570762E-2,-5E-1,-4.3388373E-1,9.659258E-1,0E0,8.660254E-1,4.9152984E-3,3.1877003E-5,4.4746057E-4,2.8084049E-3,-4.3388373E-1,8.660254E-1,2.8084049E-3,9.659258E-1,4.2575304E-3,7.2157884E-4,7.170473E-4,6.865364E-4,4.4492255E-3,8.660254E-1,6.901501E-4,1.3179929E-3,-8.660254E-1,4.3355855E-1,9.659258E-1,1E0,-2.5881904E-1,1.4713423E-3,-1.8369701E-16,2.94715E-3,2.5294367E-2,4.9730107E-2,3.6440243E-3,2.798745E-2,2.4362262E-2,-1.7646387E-2,-2.4105194E-3,1.21003445E-2,1.5052072E-2,5.688972E-2,3.7127577E-2,5.1150985E-2,2.8803168E-2,4.707863E-2,1.9082341E-2,4.104952E-2,2.261191E-2,2.612878E-3,7.4878274E-3,1.6651608E-2,-4.415676E-3,-1.140446E-2,5.3316434E-3,-2.0201253E-3,-1.1629562E-2,2.7253736E-2,3.3318854E-3,2.6416121E-2,2.041784E-2,1.1146183E-2,1.921952E-3,2.0449223E-2,-1.7380882E-3,-1.0252891E-2,-1.448756E-2,-1.851545E-2,2.3951484E-3,-5.692597E-3,-5.2961353E-3,-1.0919868E-2,5.608218E-3,-2.7497555E-3,-1.1970557E-2,-1.2715819E-3,1.7133683E-2,7.4345926E-3,-3.0321006E-2,-8.768652E-3,-1.6635882E-2,-2.3426916E-2,-1.7935375E-2,-1.2601254E-2,-1.0415461E-2,-1.0351797E-3,-1.5499729E-2,-2.1055635E-2,-2.6658798E-2,-2.051313E-2,-1.9284735E-2,-2.3689574E-2,-2.741613E-2,-2.3579692E-2,-2.8205937E-2,-3.1379107E-2],"split_indices":[9,9,8,24,24,24,8,24,9,24,1,23,23,24,8,25,8,23,23,8,23,23,62,23,23,23,53,23,1,24,1,52,50,53,23,25,23,25,23,50,27,8,9,25,23,9,23,9,1,8,8,9,23,8,61,23,51,23,62,23,1,24,41,0,0,0,0,0,0,0,0,0,0,0,0,0,0,0,0,0,0,0,0,0,0,0,0,0,0,0,0,0,0,0,0,0,0,0,0,0,0,0,0,0,0,0,0,0,0,0,0,0,0,0,0,0,0,0,0,0,0,0,0,0,0,0,0],"split_type":[0,0,0,0,0,0,0,0,0,0,0,0,0,0,0,0,0,0,0,0,0,0,0,0,0,0,0,0,0,0,0,0,0,0,0,0,0,0,0,0,0,0,0,0,0,0,0,0,0,0,0,0,0,0,0,0,0,0,0,0,0,0,0,0,0,0,0,0,0,0,0,0,0,0,0,0,0,0,0,0,0,0,0,0,0,0,0,0,0,0,0,0,0,0,0,0,0,0,0,0,0,0,0,0,0,0,0,0,0,0,0,0,0,0,0,0,0,0,0,0,0,0,0,0,0,0,0],"sum_hessian":[2.2607589E5,9.162745E4,1.3444842E5,2.734376E4,6.4283695E4,6.759369E4,6.685474E4,8.481355E3,1.8862404E4,2.9775033E4,3.4508664E4,3.845284E4,2.9140848E4,4.0111516E4,2.674322E4,1.7541843E3,6.7271714E3,5.56731E3,1.3295094E4,9.08574E3,2.0689293E4,2.1590064E4,1.2918598E4,1.620217E4,2.2250672E4,2.5134838E4,4.0060107E3,2.3671938E4,1.643958E4,1.6476008E4,1.0267213E4,6.757884E2,1.078396E3,2.4365908E3,4.2905806E3,1.6392032E3,3.928107E3,4.7725464E3,8.522547E3,5.35661E3,3.7291304E3,9.260608E3,1.1428684E4,1.031153E4,1.1278534E4,9.568916E3,3.3496816E3,2.6639575E3,1.3538212E4,1.1326553E4,1.0924119E4,1.8532145E4,6.6026934E3,3.8237756E3,1.8223505E2,1.6239139E4,7.432799E3,1.2856071E4,3.583509E3,6.232797E3,1.0243212E4,4.678547E3,5.588666E3,3.1595898E2,3.598294E2,8.58611E1,9.9253485E2,2.369772E3,6.681903E1,4.9380768E2,3.7967727E3,4.0712177E1,1.5984911E3,2.143419E3,1.7846881E3,1.179579E3,3.5929673E3,4.0077114E3,4.5148354E3,5.063256E3,2.933539E2,2.4135688E3,1.3155615E3,3.2468777E3,6.0137314E3,5.805647E3,5.623037E3,2.3068518E2,1.0080845E4,3.8391135E3,7.439421E3,3.758211E3,5.8107056E3,3.0405635E3,3.091182E2,9.40115E2,1.7238425E3,6.2131978E3,7.3250146E3,6.6229272E3,4.703625E3,5.8239644E3,5.1001553E3,1.1632158E4,6.899986E3,3.3275132E3,3.2751804E3,2.1074116E3,1.716364E3,3.8139927E1,1.4409512E2,5.2615425E3,1.0977596E4,3.0006467E3,4.432152E3,1.1907969E4,9.4810266E2,2.595803E3,9.8770605E2,4.644075E3,1.5887216E3,6.5221304E3,3.721081E3,2.495027E3,2.1835198E3,4.2453677E3,1.3432981E3],"tree_param":{"num_deleted":"0","num_feature":"68","num_nodes":"127","size_leaf_vector":"1"}},{"base_weights":[-1.9050132E-4,-1.8137434E-1,1.10460415E-1,-3.2669172E-1,-1.1468685E-1,6.203699E-2,2.0295002E-1,-2.8309014E-1,-4.9690038E-1,-4.1302245E-2,-1.7900078E-1,1.0351364E-1,5.679997E-3,1.6296592E-1,2.6079148E-1,-3.6781204E-1,-1.4261004E-1,-4.0706694E-1,-6.0696113E-1,-2.0218463E-1,2.627991E-2,5.9038883E-1,-1.8670334E-1,1.1303399E-2,1.3752456E-1,3.5337138E-1,-6.499986E-3,3.073859E-1,1.5025486E-1,2.5200057E-1,4.824189E-1,-4.2922944E-1,-2.6739562E-1,-2.0875955E-1,-3.672669E-2,-4.7225243E-1,-1.6132058E-1,-6.138367E-1,8.208176E-1,-2.264294E-1,4.711824E-2,-6.384916E-3,1.5290093E-1,1.0858173E0,3.595278E-1,-1.6651118E-1,-4.2174894E-1,-4.1690707E-2,6.400375E-2,6.7154974E-2,1.5841982E-1,6.995143E-1,2.8678936E-1,7.0829785E-1,-9.413407E-3,1.0044359E0,2.7931175E-1,1.2720558E-1,2.3007888E-1,1.9905E-1,2.9790938E-1,-7.121367E-2,6.459098E-1,1.3946235E-2,-2.1921566E-2,-6.0887258E-3,-1.6787654E-2,-1.3599627E-2,-4.1181496E-3,-4.759573E-3,5.9393006E-3,-2.6776055E-2,-1.18353125E-2,-0E0,-1.6986592E-2,1.7738722E-2,-3.088629E-2,5.7891615E-2,-1.7031461E-2,-1.4468694E-2,-5.9356983E-3,8.913068E-3,-2.0495152E-2,2.60218E-3,-2.8173912E-3,6.685655E-3,3.9105307E-2,5.7183605E-2,-2.1677375E-2,-3.211333E-3,3.2245323E-2,-1.225642E-2,-4.6009393E-3,-2.3540543E-2,-1.2676591E-2,-2.3108616E-3,4.487532E-2,6.563976E-3,-9.7535533E-4,8.18699E-3,1.2811448E-3,1.018848E-2,5.9984676E-3,-9.425203E-3,4.49978E-2,1.11350715E-2,3.785446E-2,4.162112E-2,-3.2441407E-2,-2.5090184E-3,2.1010481E-3,-1.099866E-3,6.111106E-2,-3.7125018E-3,1.6431043E-2,1.1012888E-2,5.2978783E-3,1.3037885E-2,7.063814E-4,1.02894E-2,-3.153493E-2,1.670264E-2,5.6809974E-3,-2.4878798E-2,9.583466E-3,2.2249384E-2,4.615963E-2],"categories":[],"categories_nodes":[],"categories_segments":[],"categories_sizes":[],"default_left":[0,0,0,0,0,0,0,0,0,0,0,0,0,0,0,0,0,0,0,0,0,0,0,0,0,0,0,0,0,0,0,0,0,0,0,0,0,0,0,0,0,0,0,0,0,0,0,0,0,0,0,0,0,0,0,0,0,0,0,0,0,0,0,0,0,0,0,0,0,0,0,0,0,0,0,0,0,0,0,0,0,0,0,0,0,0,0,0,0,0,0,0,0,0,0,0,0,0,0,0,0,0,0,0,0,0,0,0,0,0,0,0,0,0,0,0,0,0,0,0,0,0,0,0,0,0,0],"id":8,"left_children":[1,3,5,7,9,11,13,15,17,19,21,23,25,27,29,31,33,35,37,39,41,43,45,47,49,51,53,55,57,59,61,63,65,67,69,71,73,75,77,79,81,83,85,87,89,91,93,95,97,99,101,103,105,107,109,111,113,115,117,119,121,123,125,-1,-1,-1,-1,-1,-1,-1,-1,-1,-1,-1,-1,-1,-1,-1,-1,-1,-1,-1,-1,-1,-1,-1,-1,-1,-1,-1,-1,-1,-1,-1,-1,-1,-1,-1,-1,-1,-1,-1,-1,-1,-1,-1,-1,-1,-1,-1,-1,-1,-1,-1,-1,-1,-1,-1,-1,-1,-1,-1,-1,-1,-1,-1,-1],"loss_changes":[4.545242E3,8.327854E2,6.3023816E2,2.0012036E2,2.7799225E2,2.1590466E2,1.1159949E2,2.5591382E2,5.37229E1,2.993889E2,1.8599231E2,1.6681628E2,1.6607559E2,5.223474E1,3.801172E1,8.234094E1,5.662265E1,4.8293243E1,2.4664062E1,4.9331604E1,8.024324E1,3.443849E1,1.4719128E2,4.007458E1,5.703418E1,2.9896133E1,7.847676E1,4.427806E1,4.8172607E1,4.5907104E1,6.827855E1,5.4457886E1,5.0508453E1,3.9634842E1,2.8364605E1,3.525293E1,1.836677E1,9.620056E0,5.4706097E0,5.010504E1,4.316492E1,4.497893E1,4.7464897E1,9.431839E0,2.6236742E1,1.6750092E2,1.9795837E1,3.0004433E1,4.0494102E1,3.563082E1,5.2066467E1,3.8298935E1,3.2980553E1,2.6397614E1,7.9048935E1,2.0377357E1,3.889717E1,4.0169434E1,3.8851196E1,4.9322052E1,6.751721E1,1.9452715E1,3.1236053E1,0E0,0E0,0E0,0E0,0E0,0E0,0E0,0E0,0E0,0E0,0E0,0E0,0E0,0E0,0E0,0E0,0E0,0E0,0E0,0E0,0E0,0E0,0E0,0E0,0E0,0E0,0E0,0E0,0E0,0E0,0E0,0E0,0E0,0E0,0E0,0E0,0E0,0E0,0E0,0E0,0E0,0E0,0E0,0E0,0E0,0E0,0E0,0E0,0E0,0E0,0E0,0E0,0E0,0E0,0E0,0E0,0E0,0E0,0E0,0E0,0E0,0E0,0E0,0E0],"parents":[2147483647,0,0,1,1,2,2,3,3,4,4,5,5,6,6,7,7,8,8,9,9,10,10,11,11,12,12,13,13,14,14,15,15,16,16,17,17,18,18,19,19,20,20,21,21,22,22,23,23,24,24,25,25,26,26,27,27,28,28,29,29,30,30,31,31,32,32,33,33,34,34,35,35,36,36,37,37,38,38,39,39,40,40,41,41,42,42,43,43,44,44,45,45,46,46,47,47,48,48,49,49,50,50,51,51,52,52,53,53,54,54,55,55,56,56,57,57,58,58,59,59,60,60,61,61,62,62],"right_children":[2,4,6,8,10,12,14,16,18,20,22,24,26,28,30,32,34,36,38,40,42,44,46,48,50,52,54,56,58,60,62,64,66,68,70,72,74,76,78,80,82,84,86,88,90,92,94,96,98,100,102,104,106,108,110,112,114,116,118,120,122,124,126,-1,-1,-1,-1,-1,-1,-1,-1,-1,-1,-1,-1,-1,-1,-1,-1,-1,-1,-1,-1,-1,-1,-1,-1,-1,-1,-1,-1,-1,-1,-1,-1,-1,-1,-1,-1,-1,-1,-1,-1,-1,-1,-1,-1,-1,-1,-1,-1,-1,-1,-1,-1,-1,-1,-1,-1,-1,-1,-1,-1,-1,-1,-1,-1],"split_conditions":[5.5803574E-4,3.5824155E-4,1.0434679E-3,9.659258E-1,-2.5881904E-1,-1.8369701E-16,1.4718588E-3,7.0710677E-1,-1.8369701E-16,-8.660254E-1,-4.3388373E-1,-8.660254E-1,-3.7421212E-3,-1.4766351E-2,9.659258E-1,1.1218728E-4,9.854703E-4,2.4656532E-3,5.660587E-3,3.8656972E-3,2.6188507E-3,1.1276834E-3,1E0,7.170473E-4,3.8522694E-4,-4.0323776E-4,-4.3388373E-1,1.1244204E-1,1.5289412E-4,4.5916668E-1,3.3804884E-3,-4.3388373E-1,5E-1,7.0710677E-1,3.2866842E-4,2.2787359E-4,1.5940936E-3,1.0737034E-1,2.496244E-4,4.911987E-4,7.058824E-1,-2.5881904E-1,8.920239E-3,-2.4927824E-6,1.5940936E-3,5E-1,7.2228475E-3,9.2489034E-1,5.532205E-4,1.0577331E-3,-1.0640687E-4,0E0,9.659258E-1,9.17044E-1,6.746159E-4,-1.2744735E-3,-1.1213822E-3,-2.0476647E-4,1.1517338E-3,2.1076847E-3,2.5881904E-1,5.7902196E-3,1.5669672E-3,1.3946235E-2,-2.1921566E-2,-6.0887258E-3,-1.6787654E-2,-1.3599627E-2,-4.1181496E-3,-4.759573E-3,5.9393006E-3,-2.6776055E-2,-1.18353125E-2,-0E0,-1.6986592E-2,1.7738722E-2,-3.088629E-2,5.7891615E-2,-1.7031461E-2,-1.4468694E-2,-5.9356983E-3,8.913068E-3,-2.0495152E-2,2.60218E-3,-2.8173912E-3,6.685655E-3,3.9105307E-2,5.7183605E-2,-2.1677375E-2,-3.211333E-3,3.2245323E-2,-1.225642E-2,-4.6009393E-3,-2.3540543E-2,-1.2676591E-2,-2.3108616E-3,4.487532E-2,6.563976E-3,-9.7535533E-4,8.18699E-3,1.2811448E-3,1.018848E-2,5.9984676E-3,-9.425203E-3,4.49978E-2,1.11350715E-2,3.785446E-2,4.162112E-2,-3.2441407E-2,-2.5090184E-3,2.1010481E-3,-1.099866E-3,6.111106E-2,-3.7125018E-3,1.6431043E-2,1.1012888E-2,5.2978783E-3,1.3037885E-2,7.063814E-4,1.02894E-2,-3.153493E-2,1.670264E-2,5.6809974E-3,-2.4878798E-2,9.583466E-3,2.2249384E-2,4.615963E-2],"split_indices":[8,8,8,23,24,24,8,23,24,24,25,24,20,53,24,18,50,60,60,60,50,60,23,8,28,27,25,51,44,51,61,25,24,24,8,30,50,40,30,8,39,23,50,6,50,23,53,51,30,61,20,25,24,10,1,5,6,27,30,18,23,50,28,0,0,0,0,0,0,0,0,0,0,0,0,0,0,0,0,0,0,0,0,0,0,0,0,0,0,0,0,0,0,0,0,0,0,0,0,0,0,0,0,0,0,0,0,0,0,0,0,0,0,0,0,0,0,0,0,0,0,0,0,0,0,0,0],"split_type":[0,0,0,0,0,0,0,0,0,0,0,0,0,0,0,0,0,0,0,0,0,0,0,0,0,0,0,0,0,0,0,0,0,0,0,0,0,0,0,0,0,0,0,0,0,0,0,0,0,0,0,0,0,0,0,0,0,0,0,0,0,0,0,0,0,0,0,0,0,0,0,0,0,0,0,0,0,0,0,0,0,0,0,0,0,0,0,0,0,0,0,0,0,0,0,0,0,0,0,0,0,0,0,0,0,0,0,0,0,0,0,0,0,0,0,0,0,0,0,0,0,0,0,0,0,0,0],"sum_hessian":[2.2671242E5,8.596086E4,1.4075156E5,2.7035957E4,5.8924902E4,9.238827E4,4.8363293E4,2.1527068E4,5.5088887E3,2.752606E4,3.1398844E4,5.32146E4,3.9173676E4,2.8603207E4,1.9760086E4,1.342527E4,8.1017983E3,3.0382554E3,2.4706333E3,8.1440903E3,1.9381969E4,3.0983282E2,3.108901E4,1.4343258E4,3.8871344E4,1.3262893E3,3.7847387E4,2.3087915E3,2.6294414E4,1.9010426E4,7.4966064E2,8.325138E3,5.100132E3,4.983017E3,3.1187812E3,2.398962E3,6.3929333E2,2.4597087E3,1.09246855E1,7.4241836E3,7.199065E2,1.5404916E4,3.9770537E3,9.661901E1,2.1321382E2,2.8633053E4,2.4559568E3,7.147071E3,7.1961875E3,8.906111E3,2.996523E4,2.1121594E2,1.1150734E3,1.5195526E2,3.769543E4,8.735188E1,2.2214397E3,2.0409895E4,5.884521E3,8.8356875E3,1.0174737E4,1.7034021E2,5.7932043E2,1.0571755E2,8.219421E3,1.6325099E3,3.4676218E3,3.317999E3,1.6650181E3,2.2692595E3,8.4952167E2,1.8883479E3,5.1061404E2,3.3678726E2,3.0250607E2,8.961506E0,2.450747E3,8.803733E0,2.1209524E0,4.6819287E3,2.742255E3,5.607129E2,1.5919362E2,7.096247E3,8.308669E3,3.8613088E3,1.15744835E2,9.36301E1,2.9889104E0,8.541109E1,1.2780273E2,1.3926454E4,1.4706599E4,1.8977043E3,5.582525E2,7.114266E3,3.2804546E1,3.988497E3,3.2076902E3,2.6735835E3,6.232528E3,1.3741152E4,1.6224078E4,3.8447353E1,1.7276859E2,9.835776E2,1.3149577E2,1.3991364E2,1.2041631E1,2.1033773E4,1.6661656E4,1.5045379E1,7.23065E1,2.7058856E2,1.9508512E3,3.788015E3,1.6621879E4,5.150324E3,7.341966E2,8.765858E3,6.982902E1,8.503482E3,1.6712551E3,6.5353874E1,1.0498633E2,3.3846967E2,2.4085077E2],"tree_param":{"num_deleted":"0","num_feature":"68","num_nodes":"127","size_leaf_vector":"1"}},{"base_weights":[-1.7592778E-3,-1.6516759E-1,1.2474652E-1,-3.500716E-1,-1.0852155E-1,4.761036E-2,1.9996105E-1,-4.1046333E-1,-2.6255855E-1,-1.9157876E-1,-6.436763E-2,-2.8404463E-3,7.0869066E-2,1.2191261E-1,2.1158232E-1,-4.6030357E-1,-3.3393753E-1,-3.0123958E-1,-1.6071033E-1,-1.2814839E-1,-2.3584412E-1,-1.17653094E-1,-3.3946298E-2,-1.0816922E-2,1.3047047E-1,6.300085E-2,2.3677324E-1,2.6464026E-2,1.4608155E-1,1.470653E-1,2.2272028E-1,-4.67886E-1,-2.0009724E-2,-1.0525023E-1,-3.530103E-1,-2.314532E-1,-3.6329365E-1,-1.1158194E-1,-3.8429683E-1,-2.9487357E-1,-1.1248983E-1,-2.883008E-1,-1.7813681E-1,-4.1784782E-2,-1.4659068E-1,7.9322584E-2,-4.7042225E-2,4.373527E-1,-1.3153849E-2,9.809445E-2,6.109445E-1,-1.8050301E-1,6.731505E-2,1.2516007E-1,3.999684E-1,-6.780005E-2,1.7561631E-1,1.5156116E-1,-2.9663962E-1,1.0529121E-1,2.2179984E-1,3.7683418E-1,2.1761541E-1,-1.7873315E-2,-2.5005508E-2,3.783613E-2,-7.755508E-3,-1.707269E-2,8.172156E-3,-2.0298352E-2,-1.424319E-2,-1.2315588E-2,1.7417481E-2,-1.8623969E-2,5.452154E-3,-1.3765222E-2,-3.3267953E-3,-3.930808E-3,-2.2755926E-2,-1.840345E-2,-4.9069854E-3,-7.411241E-3,-1.955024E-3,-2.5874376E-3,-1.4990032E-2,-5.1112863E-4,-9.47732E-3,-1.53593635E-2,-1.1774134E-3,-1.1228181E-2,-5.9561725E-3,5.1592113E-3,-9.34121E-3,-2.4582117E-3,2.429705E-2,-2.4343777E-2,3.0559419E-2,-1.2583044E-2,-4.47316E-4,6.1994363E-3,-1.7228005E-2,3.5499483E-2,-1.12564545E-2,-1.0807107E-2,2.3559859E-2,7.427183E-3,2.9341278E-3,-3.2149367E-2,7.552822E-3,3.274104E-2,9.725146E-3,-1.3150956E-2,2.44435E-3,2.4073547E-2,4.2728567E-3,1.4091331E-2,6.413953E-3,-3.0347452E-2,4.07777E-3,4.4183703E-3,1.8777775E-2,1.0739441E-2,5.5640128E-2,1.0685354E-2,2.6487235E-2,9.05911E-3,1.18812E-2],"categories":[],"categories_nodes":[],"categories_segments":[],"categories_sizes":[],"default_left":[0,0,0,0,0,0,0,0,0,0,0,0,0,0,0,0,0,0,0,0,0,0,0,0,0,0,0,0,0,0,0,0,0,0,0,0,0,0,0,0,0,0,0,0,0,0,0,0,0,0,0,0,0,0,0,0,0,0,0,0,0,0,0,0,0,0,0,0,0,0,0,0,0,0,0,0,0,0,0,0,0,0,0,0,0,0,0,0,0,0,0,0,0,0,0,0,0,0,0,0,0,0,0,0,0,0,0,0,0,0,0,0,0,0,0,0,0,0,0,0,0,0,0,0,0,0,0],"id":9,"left_children":[1,3,5,7,9,11,13,15,17,19,21,23,25,27,29,31,33,35,37,39,41,43,45,47,49,51,53,55,57,59,61,63,65,67,69,71,73,75,77,79,81,83,85,87,89,91,93,95,97,99,101,103,105,107,109,111,113,115,117,119,121,123,125,-1,-1,-1,-1,-1,-1,-1,-1,-1,-1,-1,-1,-1,-1,-1,-1,-1,-1,-1,-1,-1,-1,-1,-1,-1,-1,-1,-1,-1,-1,-1,-1,-1,-1,-1,-1,-1,-1,-1,-1,-1,-1,-1,-1,-1,-1,-1,-1,-1,-1,-1,-1,-1,-1,-1,-1,-1,-1,-1,-1,-1,-1,-1,-1],"loss_changes":[4.688587E3,1.0363538E3,7.4154285E2,1.2220654E2,2.7770953E2,7.409653E1,5.8510742E1,5.1801514E1,3.707556E1,7.361145E1,8.01158E1,2.1113262E1,5.6236572E1,1.9278069E1,4.025757E1,2.747522E1,2.3379944E1,2.9357605E1,2.8440392E1,2.7994247E1,4.6575317E1,3.935904E1,4.6713753E1,1.947395E1,1.7017254E1,4.3295013E1,3.5263184E1,2.399246E1,1.6214096E1,2.5731354E1,3.7403564E1,2.8441528E1,1.4798931E1,2.6850285E1,1.7588623E1,2.7937332E1,1.5919769E1,1.5649981E1,9.849602E0,1.3051559E1,2.5836815E1,2.1850586E1,1.4033646E1,2.3876003E1,2.7655426E1,2.0686874E1,3.1745045E1,1.584663E1,1.86287E1,1.1990835E1,6.1637993E0,1.6614668E1,2.8314285E1,2.2988716E1,4.0866814E1,2.3843239E1,1.7912733E1,1.9820953E1,9.826878E0,2.4120403E1,1.7659302E1,3.781073E1,3.3638184E1,0E0,0E0,0E0,0E0,0E0,0E0,0E0,0E0,0E0,0E0,0E0,0E0,0E0,0E0,0E0,0E0,0E0,0E0,0E0,0E0,0E0,0E0,0E0,0E0,0E0,0E0,0E0,0E0,0E0,0E0,0E0,0E0,0E0,0E0,0E0,0E0,0E0,0E0,0E0,0E0,0E0,0E0,0E0,0E0,0E0,0E0,0E0,0E0,0E0,0E0,0E0,0E0,0E0,0E0,0E0,0E0,0E0,0E0,0E0,0E0,0E0,0E0,0E0,0E0],"parents":[2147483647,0,0,1,1,2,2,3,3,4,4,5,5,6,6,7,7,8,8,9,9,10,10,11,11,12,12,13,13,14,14,15,15,16,16,17,17,18,18,19,19,20,20,21,21,22,22,23,23,24,24,25,25,26,26,27,27,28,28,29,29,30,30,31,31,32,32,33,33,34,34,35,35,36,36,37,37,38,38,39,39,40,40,41,41,42,42,43,43,44,44,45,45,46,46,47,47,48,48,49,49,50,50,51,51,52,52,53,53,54,54,55,55,56,56,57,57,58,58,59,59,60,60,61,61,62,62],"right_children":[2,4,6,8,10,12,14,16,18,20,22,24,26,28,30,32,34,36,38,40,42,44,46,48,50,52,54,56,58,60,62,64,66,68,70,72,74,76,78,80,82,84,86,88,90,92,94,96,98,100,102,104,106,108,110,112,114,116,118,120,122,124,126,-1,-1,-1,-1,-1,-1,-1,-1,-1,-1,-1,-1,-1,-1,-1,-1,-1,-1,-1,-1,-1,-1,-1,-1,-1,-1,-1,-1,-1,-1,-1,-1,-1,-1,-1,-1,-1,-1,-1,-1,-1,-1,-1,-1,-1,-1,-1,-1,-1,-1,-1,-1,-1,-1,-1,-1,-1,-1,-1,-1,-1,-1,-1,-1],"split_conditions":[3.6197908E-3,2.0641165E-3,9.075514E-4,1.788126E-3,3.755343E-4,5.5452867E-4,6.8792247E-4,2.6241443E-4,8.530466E-2,-4.6462892E-4,4.6511163E-4,1.6972675E-3,8.371975E-3,-9.6755044E-4,4.4565613E-4,1.4029904E-2,-4.013735E-4,5.007342E-1,1.8972422E-4,5.834054E-1,4.4158832E-4,-3.2911892E-3,-4.2828047E-3,9.128021E-2,1.7918533E-2,-1.0283592E-2,3.3577535E-2,7.818315E-1,9.401979E-3,-1.7629087E-3,1.7702703E-1,-1.5586081E-3,5.1045716E-1,-4.843203E-4,5.0424628E-2,3.8818456E-4,8.371975E-3,0E0,1.2289406E-3,5.5021834E-1,4.7952632E-4,-5.2169636E-3,4.3865293E-4,1.9856337E-1,9.459459E-1,7.055347E-5,9.829656E-4,-1.39822075E-2,-1.0283592E-2,3.626077E-4,2.4496316E-4,2.0012622E-4,2.7505937E-1,1.1993401E-5,3.0591575E-4,7.0532593E-3,-1.8576545E-1,3.4615386E-1,5.0352205E-4,1.6515082E-2,3.41414E-2,1.7699013E-4,4.5709023E-1,-1.7873315E-2,-2.5005508E-2,3.783613E-2,-7.755508E-3,-1.707269E-2,8.172156E-3,-2.0298352E-2,-1.424319E-2,-1.2315588E-2,1.7417481E-2,-1.8623969E-2,5.452154E-3,-1.3765222E-2,-3.3267953E-3,-3.930808E-3,-2.2755926E-2,-1.840345E-2,-4.9069854E-3,-7.411241E-3,-1.955024E-3,-2.5874376E-3,-1.4990032E-2,-5.1112863E-4,-9.47732E-3,-1.53593635E-2,-1.1774134E-3,-1.1228181E-2,-5.9561725E-3,5.1592113E-3,-9.34121E-3,-2.4582117E-3,2.429705E-2,-2.4343777E-2,3.0559419E-2,-1.2583044E-2,-4.47316E-4,6.1994363E-3,-1.7228005E-2,3.5499483E-2,-1.12564545E-2,-1.0807107E-2,2.3559859E-2,7.427183E-3,2.9341278E-3,-3.2149367E-2,7.552822E-3,3.274104E-2,9.725146E-3,-1.3150956E-2,2.44435E-3,2.4073547E-2,4.2728567E-3,1.4091331E-2,6.413953E-3,-3.0347452E-2,4.07777E-3,4.4183703E-3,1.8777775E-2,1.0739441E-2,5.5640128E-2,1.0685354E-2,2.6487235E-2,9.05911E-3,1.18812E-2],"split_indices":[9,9,8,9,1,1,1,1,17,50,8,19,50,18,45,53,18,51,46,3,8,53,50,51,53,50,17,25,61,20,49,50,51,18,17,6,50,25,61,49,8,53,43,51,3,18,5,53,50,27,7,44,51,18,5,61,17,40,45,53,53,44,49,0,0,0,0,0,0,0,0,0,0,0,0,0,0,0,0,0,0,0,0,0,0,0,0,0,0,0,0,0,0,0,0,0,0,0,0,0,0,0,0,0,0,0,0,0,0,0,0,0,0,0,0,0,0,0,0,0,0,0,0,0,0,0,0],"split_type":[0,0,0,0,0,0,0,0,0,0,0,0,0,0,0,0,0,0,0,0,0,0,0,0,0,0,0,0,0,0,0,0,0,0,0,0,0,0,0,0,0,0,0,0,0,0,0,0,0,0,0,0,0,0,0,0,0,0,0,0,0,0,0,0,0,0,0,0,0,0,0,0,0,0,0,0,0,0,0,0,0,0,0,0,0,0,0,0,0,0,0,0,0,0,0,0,0,0,0,0,0,0,0,0,0,0,0,0,0,0,0,0,0,0,0,0,0,0,0,0,0,0,0,0,0,0,0],"sum_hessian":[2.2680455E5,9.896915E4,1.2783541E5,2.3206023E4,7.5763125E4,6.3115586E4,6.4719816E4,1.3725096E4,9.480928E3,2.629166E4,4.9471465E4,1.9909332E4,4.3206254E4,8.394804E3,5.632501E4,8.304763E3,5.4203325E3,6.8663003E3,2.6146272E3,1.0812705E4,1.5478954E4,1.7972264E4,3.1499201E4,1.8789742E4,1.119589E3,4.125412E4,1.9521339E3,1.7007888E3,6.6940146E3,8.300899E3,4.8024113E4,8.162988E3,1.4177498E2,4.197817E2,5.000551E3,3.2378176E3,3.6284827E3,2.146676E3,4.679513E2,9.2405316E2,9.888652E3,8.101722E3,7.3772324E3,4.967703E3,1.300456E4,3.259966E3,2.8239234E4,9.539318E1,1.869435E4,1.0510128E3,6.857612E1,7.154526E2,4.0538668E4,1.162145E3,7.8998883E2,1.0404309E3,6.6035803E2,6.61394E3,8.007435E1,5.330454E3,2.970445E3,1.5342749E3,4.648984E4,1.8503079E3,6.3126797E3,1.977582E1,1.2199916E2,2.2424338E2,1.9553833E2,2.8069622E3,2.1935889E3,3.1583171E3,7.950042E1,3.56051E3,6.7972694E1,4.5969083E2,1.6869852E3,8.974852E1,3.7820276E2,6.7099506E2,2.5305809E2,6.6451445E3,3.243508E3,3.778708E2,7.723851E3,4.722897E2,6.9049424E3,3.16616E2,4.651087E3,3.3810845E3,9.623476E3,2.994025E3,2.6594122E2,2.8129088E4,1.1014667E2,1.4361368E1,8.1031815E1,3.2099258E2,1.8373357E4,9.94676E2,5.6336807E1,6.1982254E1,6.5938644E0,6.797169E2,3.57357E1,3.8872188E3,3.665145E4,3.6494534E1,1.1256505E3,3.5055356E2,4.394353E2,3.90369E2,6.500619E2,1.4809087E2,5.1226715E2,9.979182E2,5.616022E3,4.437875E1,3.56956E1,5.0193237E3,3.1113055E2,2.9490422E3,2.140283E1,7.450802E2,7.891947E2,1.6493037E4,2.9996803E4],"tree_param":{"num_deleted":"0","num_feature":"68","num_nodes":"127","size_leaf_vector":"1"}},{"base_weights":[8.1295E-4,3.3759665E-1,-2.2835031E-1,1.20680936E-1,4.9237025E-1,-9.04403E-2,-3.828389E-1,-1.3228923E-1,2.2094442E-1,7.3832273E-1,3.6078012E-1,-1.7882912E-1,2.4861468E-2,-3.2347733E-1,-4.877785E-1,1.3210265E-1,-1.7978248E-1,3.700687E-1,1.2348608E-1,8.36937E-1,6.2112564E-1,4.4314802E-1,2.451515E-1,-3.0187482E-1,-8.835009E-2,-6.8607237E-3,2.28043E-1,-3.8620692E-1,-2.3144265E-1,-4.324103E-1,-5.2994275E-1,3.6305454E-2,5.32676E-1,-2.1576332E-1,-3.3227306E-2,5.3246284E-1,2.7274966E-1,3.307435E-1,2.5533343E-2,8.908489E-1,7.088648E-1,8.0884224E-1,5.43086E-1,5.2576375E-1,3.6809462E-1,2.2119981E-1,6.1770046E-1,-1.4781787E-1,-3.3253297E-1,-1.8461501E-2,-1.5914659E-1,2.7757792E-2,-1.6868973E-1,2.5544935E-1,-1.6220702E-1,-4.2080867E-1,-3.0404475E-1,-1.7172627E-1,-2.9818335E-1,-4.917555E-1,-4.0534317E-1,-5.0779307E-1,-5.864251E-1,-7.634646E-3,7.2725476E-3,1.1610488E-2,3.8972672E-2,-1.4916829E-2,-7.1030557E-3,-1.4535419E-2,7.3845766E-4,3.8373616E-2,2.5078792E-2,1.4606426E-2,-3.518292E-3,2.4445038E-2,1.2108612E-2,4.0162085E-3,-3.6138003E-3,2.3474176E-3,4.4995297E-2,4.0716574E-2,3.1295978E-2,2.9319687E-2,4.400102E-2,2.0320099E-2,3.8687043E-2,-1.2400247E-2,2.7239546E-2,3.8405296E-3,2.5774864E-2,1.6738785E-2,6.34801E-3,3.4075033E-2,9.830727E-3,-3.126984E-4,-1.0382283E-2,-1.4043751E-2,-1.8020248E-2,2.5213072E-3,-5.5676787E-3,-5.3620636E-3,-1.0871169E-2,3.2425043E-3,-4.59807E-3,-6.023658E-3,-1.2862503E-2,1.7607652E-2,6.9826106E-3,-2.9040877E-2,-3.726755E-3,-1.6913911E-2,-2.3123194E-2,-2.170897E-2,-1.4427252E-2,-9.416237E-3,1.7054903E-3,-1.3304934E-2,-1.9066697E-2,-2.0814732E-2,-2.6038831E-2,-1.912119E-2,-2.3650369E-2,-2.3505418E-2,-2.660408E-2,-3.0752739E-2,-2.8114188E-2],"categories":[],"categories_nodes":[],"categories_segments":[],"categories_sizes":[],"default_left":[0,0,0,0,0,0,0,0,0,0,0,0,0,0,0,0,0,0,0,0,0,0,0,0,0,0,0,0,0,0,0,0,0,0,0,0,0,0,0,0,0,0,0,0,0,0,0,0,0,0,0,0,0,0,0,0,0,0,0,0,0,0,0,0,0,0,0,0,0,0,0,0,0,0,0,0,0,0,0,0,0,0,0,0,0,0,0,0,0,0,0,0,0,0,0,0,0,0,0,0,0,0,0,0,0,0,0,0,0,0,0,0,0,0,0,0,0,0,0,0,0,0,0,0,0,0,0],"id":10,"left_children":[1,3,5,7,9,11,13,15,17,19,21,23,25,27,29,31,33,35,37,39,41,43,45,47,49,51,53,55,57,59,61,63,65,67,69,71,73,75,77,79,81,83,85,87,89,91,93,95,97,99,101,103,105,107,109,111,113,115,117,119,121,123,125,-1,-1,-1,-1,-1,-1,-1,-1,-1,-1,-1,-1,-1,-1,-1,-1,-1,-1,-1,-1,-1,-1,-1,-1,-1,-1,-1,-1,-1,-1,-1,-1,-1,-1,-1,-1,-1,-1,-1,-1,-1,-1,-1,-1,-1,-1,-1,-1,-1,-1,-1,-1,-1,-1,-1,-1,-1,-1,-1,-1,-1,-1,-1,-1],"loss_changes":[1.745026E4,3.0733643E3,2.8663428E3,9.670974E2,1.7284023E3,7.246005E2,3.947373E2,1.3592712E2,3.9655933E2,2.1394824E2,3.310786E2,4.4782544E2,1.9893585E2,2.3363135E2,5.2802734E1,6.2890106E1,4.825168E1,1.6997546E2,3.3513858E2,6.834961E1,1.2361719E2,1.2538599E2,1.2870392E2,8.024219E1,1.1467502E2,1.4954755E2,4.4665283E1,6.802881E1,6.52204E1,1.5286621E1,1.5422852E1,2.7476015E1,2.2799217E1,4.455243E1,2.2541916E1,2.8307129E1,4.5017975E1,7.374933E1,6.0133324E1,5.379541E1,2.502832E1,3.82771E1,1.8886047E2,1.4264478E2,4.5720752E2,1.4543817E2,2.2886871E1,2.3898258E1,2.0047974E1,7.475937E1,3.465808E1,9.758574E1,1.9868378E1,4.3332413E1,9.644947E0,5.7722656E1,1.3935425E1,2.9742264E1,2.0267395E1,6.0964966E0,9.974365E0,7.810791E0,1.5882568E0,0E0,0E0,0E0,0E0,0E0,0E0,0E0,0E0,0E0,0E0,0E0,0E0,0E0,0E0,0E0,0E0,0E0,0E0,0E0,0E0,0E0,0E0,0E0,0E0,0E0,0E0,0E0,0E0,0E0,0E0,0E0,0E0,0E0,0E0,0E0,0E0,0E0,0E0,0E0,0E0,0E0,0E0,0E0,0E0,0E0,0E0,0E0,0E0,0E0,0E0,0E0,0E0,0E0,0E0,0E0,0E0,0E0,0E0,0E0,0E0,0E0,0E0,0E0,0E0],"parents":[2147483647,0,0,1,1,2,2,3,3,4,4,5,5,6,6,7,7,8,8,9,9,10,10,11,11,12,12,13,13,14,14,15,15,16,16,17,17,18,18,19,19,20,20,21,21,22,22,23,23,24,24,25,25,26,26,27,27,28,28,29,29,30,30,31,31,32,32,33,33,34,34,35,35,36,36,37,37,38,38,39,39,40,40,41,41,42,42,43,43,44,44,45,45,46,46,47,47,48,48,49,49,50,50,51,51,52,52,53,53,54,54,55,55,56,56,57,57,58,58,59,59,60,60,61,61,62,62],"right_children":[2,4,6,8,10,12,14,16,18,20,22,24,26,28,30,32,34,36,38,40,42,44,46,48,50,52,54,56,58,60,62,64,66,68,70,72,74,76,78,80,82,84,86,88,90,92,94,96,98,100,102,104,106,108,110,112,114,116,118,120,122,124,126,-1,-1,-1,-1,-1,-1,-1,-1,-1,-1,-1,-1,-1,-1,-1,-1,-1,-1,-1,-1,-1,-1,-1,-1,-1,-1,-1,-1,-1,-1,-1,-1,-1,-1,-1,-1,-1,-1,-1,-1,-1,-1,-1,-1,-1,-1,-1,-1,-1,-1,-1,-1,-1,-1,-1,-1,-1,-1,-1,-1,-1,-1,-1,-1],"split_conditions":[5.670516E-4,-2.5881904E-1,8.950324E-4,-2.5881904E-1,3.513715E-4,-1.8369701E-16,1.3736911E-3,3.548744E-4,5E-1,2.6241443E-4,4.4532557E-4,-2.5881904E-1,9.659258E-1,-1.8369701E-16,1.4713423E-3,1E0,1E0,4.2107338E-4,3.5824155E-4,3.1047378E-4,5E-1,5E-1,1E0,-8.660254E-1,5E-1,9.3452155E-4,1.848694E-2,-2.5881904E-1,9.268417E-4,-2.5881904E-1,2.2694953E-3,-5E-1,2.2554354E-4,-5E-1,-6.2071467E-3,1.4999502E-4,1.2807005E-2,1.2558163E-4,8.660254E-1,-4.3388373E-1,5E-1,0E0,9.659258E-1,-4.3388373E-1,8.660254E-1,5E-1,3.8132775E-3,7.013803E-4,6.4437714E-4,7.170473E-4,6.865364E-4,5E-1,1E0,6.901501E-4,1.0011862E-3,-8.660254E-1,-1.6642276E-2,9.659258E-1,1.5188971E-3,-7.0710677E-1,1.8292937E-3,-8.660254E-1,-6.320092E-3,-7.634646E-3,7.2725476E-3,1.1610488E-2,3.8972672E-2,-1.4916829E-2,-7.1030557E-3,-1.4535419E-2,7.3845766E-4,3.8373616E-2,2.5078792E-2,1.4606426E-2,-3.518292E-3,2.4445038E-2,1.2108612E-2,4.0162085E-3,-3.6138003E-3,2.3474176E-3,4.4995297E-2,4.0716574E-2,3.1295978E-2,2.9319687E-2,4.400102E-2,2.0320099E-2,3.8687043E-2,-1.2400247E-2,2.7239546E-2,3.8405296E-3,2.5774864E-2,1.6738785E-2,6.34801E-3,3.4075033E-2,9.830727E-3,-3.126984E-4,-1.0382283E-2,-1.4043751E-2,-1.8020248E-2,2.5213072E-3,-5.5676787E-3,-5.3620636E-3,-1.0871169E-2,3.2425043E-3,-4.59807E-3,-6.023658E-3,-1.2862503E-2,1.7607652E-2,6.9826106E-3,-2.9040877E-2,-3.726755E-3,-1.6913911E-2,-2.3123194E-2,-2.170897E-2,-1.4427252E-2,-9.416237E-3,1.7054903E-3,-1.3304934E-2,-1.9066697E-2,-2.0814732E-2,-2.6038831E-2,-1.912119E-2,-2.3650369E-2,-2.3505418E-2,-2.660408E-2,-3.0752739E-2,-2.8114188E-2],"split_indices":[8,24,8,23,8,24,8,8,23,1,1,23,23,24,1,26,26,8,8,41,23,23,23,23,23,1,53,23,1,24,8,23,53,23,53,28,53,46,23,25,23,25,23,25,23,23,61,8,1,8,8,23,62,8,61,23,53,23,1,24,8,23,53,0,0,0,0,0,0,0,0,0,0,0,0,0,0,0,0,0,0,0,0,0,0,0,0,0,0,0,0,0,0,0,0,0,0,0,0,0,0,0,0,0,0,0,0,0,0,0,0,0,0,0,0,0,0,0,0,0,0,0,0,0,0,0,0],"split_type":[0,0,0,0,0,0,0,0,0,0,0,0,0,0,0,0,0,0,0,0,0,0,0,0,0,0,0,0,0,0,0,0,0,0,0,0,0,0,0,0,0,0,0,0,0,0,0,0,0,0,0,0,0,0,0,0,0,0,0,0,0,0,0,0,0,0,0,0,0,0,0,0,0,0,0,0,0,0,0,0,0,0,0,0,0,0,0,0,0,0,0,0,0,0,0,0,0,0,0,0,0,0,0,0,0,0,0,0,0,0,0,0,0,0,0,0,0,0,0,0,0,0,0,0,0,0,0],"sum_hessian":[2.2610005E5,9.155313E4,1.3454692E5,3.812534E4,5.3427793E4,7.109031E4,6.3456605E4,1.0820167E4,2.7305174E4,1.861899E4,3.48088E4,4.024376E4,3.0846553E4,4.0535555E4,2.292105E4,1.645799E3,9.174368E3,1.0788855E4,1.6516318E4,1.0105454E4,8.513536E3,2.0323924E4,1.4484878E4,1.7049572E4,2.3194191E4,2.6679637E4,4.166915E3,2.4100412E4,1.6435143E4,9.918989E3,1.3002062E4,1.3300549E3,3.1574405E2,7.3628315E3,1.8115367E3,4.0391711E3,6.7496836E3,5.29827E3,1.1218049E4,7.104826E3,3.0006277E3,2.4953792E3,6.0181567E3,9.66853E3,1.0655394E4,1.3612639E4,8.722395E2,2.8334814E3,1.4216091E4,1.1676127E4,1.1518063E4,2.1976217E4,4.703421E3,3.8950046E3,2.7191037E2,1.6951328E4,7.149083E3,8.679874E3,7.7552676E3,3.0957842E3,6.823205E3,9.35307E3,3.648991E3,4.8508777E2,8.449671E2,1.4417252E2,1.7157152E2,3.4678018E3,3.89503E3,2.8546988E2,1.5260669E3,4.6454614E2,3.574625E3,6.3903677E3,3.593163E2,1.8983383E3,3.3999316E3,7.1936187E3,4.0244297E3,7.609359E1,7.028733E3,1.3144421E3,1.6861854E3,6.0884784E2,1.8865314E3,3.781942E3,2.2362148E3,2.3112659E2,9.437403E3,3.5819583E3,7.0734355E3,6.1694595E3,7.4431787E3,7.55904E2,1.1633555E2,8.445582E2,1.9889233E3,4.9923267E3,9.223765E3,6.701471E3,4.974656E3,6.0980977E3,5.4199663E3,1.6781486E4,5.1947305E3,3.0505554E3,1.6528655E3,2.1190227E3,1.775982E3,4.5124535E1,2.2678584E2,5.6930156E3,1.12583125E4,7.545616E2,6.3945215E3,8.0344927E3,6.453812E2,5.603356E3,2.1519116E3,8.689391E2,2.2268452E3,5.107293E3,1.7159124E3,3.6816963E3,5.6713735E3,1.648646E3,2.0003451E3],"tree_param":{"num_deleted":"0","num_feature":"68","num_nodes":"127","size_leaf_vector":"1"}},{"base_weights":[1.3697703E-3,-1.7398725E-1,1.0765844E-1,-3.1977496E-1,-1.08024E-1,6.07222E-2,1.9692141E-1,-2.1374857E-1,-3.6947945E-1,-4.56332E-2,-1.7489685E-1,1.0337836E-1,3.0161315E-3,1.6208838E-1,2.5939095E-1,-2.9664877E-1,-1.0778847E-1,-4.8741865E-1,-3.1656322E-1,-1.9711381E-1,9.595526E-3,6.232754E-1,-1.8372785E-1,2.5055086E-2,1.3102224E-1,-3.4409888E-2,7.60649E-2,2.605972E-1,1.4574051E-1,1.8218207E-1,3.0360898E-1,-3.2980555E-1,-7.567982E-2,-1.946241E-1,-1.3015058E-2,-4.0223283E-1,-5.8557814E-1,-1.4170979E-1,-4.0945348E-1,-2.2256535E-1,1.1399779E-2,-1.9258665E-2,1.1444421E-1,1.060974E0,4.2162395E-1,-3.1266546E-1,-1.4207615E-1,-2.6997162E-2,7.954964E-2,1.1075852E0,1.290751E-1,8.306894E-1,-3.867476E-2,3.8159678E-3,1.1251226E-1,3.3513173E-1,2.0027857E-1,1.9858104E-1,1.052477E-1,1.641016E-1,5.3187203E-1,1.4365414E-1,3.3223504E-1,-2.5770068E-2,-1.431499E-2,-3.2627296E-2,-1.4872289E-3,-1.9345917E-3,-1.4256358E-2,-9.497283E-3,5.1819202E-3,-2.4415681E-2,-1.1766027E-2,-2.9643416E-2,3.850229E-2,-8.77571E-3,4.845515E-3,1.4717452E-2,-2.1158498E-2,-1.42233595E-2,-5.744651E-3,8.769777E-3,-1.5861047E-2,-1.2065222E-3,2.465775E-2,4.6413126E-3,2.4851125E-2,-2.0711768E-2,5.5577554E-2,9.337786E-3,4.46987E-2,-1.7979855E-2,-1.0046982E-2,-3.4607865E-3,-1.226249E-2,-8.7583065E-3,-2.4353646E-4,7.4034208E-3,-4.0951083E-4,-2.4913808E-2,6.0111236E-2,6.7795343E-3,-3.3595383E-3,4.6439104E-2,-2.9527783E-2,9.35913E-3,-2.353576E-3,-5.387223E-3,2.4458987E-3,-2.5662348E-2,5.8414787E-3,2.8226033E-2,1.4268989E-2,-1.8394848E-2,1.0530973E-2,1.3139069E-2,7.4959896E-3,1.2685509E-2,3.996302E-3,8.7114135E-3,-2.172528E-2,3.143577E-2,-3.032361E-2,1.0598333E-3,1.3986351E-2,2.290274E-2,1.4941463E-2],"categories":[],"categories_nodes":[],"categories_segments":[],"categories_sizes":[],"default_left":[0,0,0,0,0,0,0,0,0,0,0,0,0,0,0,0,0,0,0,0,0,0,0,0,0,0,0,0,0,0,0,0,0,0,0,0,0,0,0,0,0,0,0,0,0,0,0,0,0,0,0,0,0,0,0,0,0,0,0,0,0,0,0,0,0,0,0,0,0,0,0,0,0,0,0,0,0,0,0,0,0,0,0,0,0,0,0,0,0,0,0,0,0,0,0,0,0,0,0,0,0,0,0,0,0,0,0,0,0,0,0,0,0,0,0,0,0,0,0,0,0,0,0,0,0,0,0],"id":11,"left_children":[1,3,5,7,9,11,13,15,17,19,21,23,25,27,29,31,33,35,37,39,41,43,45,47,49,51,53,55,57,59,61,63,65,67,69,71,73,75,77,79,81,83,85,87,89,91,93,95,97,99,101,103,105,107,109,111,113,115,117,119,121,123,125,-1,-1,-1,-1,-1,-1,-1,-1,-1,-1,-1,-1,-1,-1,-1,-1,-1,-1,-1,-1,-1,-1,-1,-1,-1,-1,-1,-1,-1,-1,-1,-1,-1,-1,-1,-1,-1,-1,-1,-1,-1,-1,-1,-1,-1,-1,-1,-1,-1,-1,-1,-1,-1,-1,-1,-1,-1,-1,-1,-1,-1,-1,-1,-1],"loss_changes":[4.2262646E3,8.2265283E2,5.9135974E2,1.4009302E2,2.45703E2,2.2771808E2,1.05607056E2,7.45412E1,1.1266577E2,2.5514178E2,2.0031183E2,1.151037E2,1.0756112E2,5.0069763E1,5.9135864E1,3.474048E1,3.0679424E1,4.6213867E1,2.0316345E2,4.3347687E1,6.763274E1,2.6239258E1,1.5076538E2,3.9411808E1,7.399872E1,9.55832E1,3.5044044E1,1.9631073E1,5.717224E1,3.968834E1,5.037384E1,3.294278E1,1.6227116E1,2.73367E1,3.70588E1,4.2793243E1,2.6097412E1,3.5146408E1,7.915393E1,4.817975E1,4.7687325E1,4.350181E1,3.956307E1,8.014381E0,2.3165085E1,3.5633423E1,1.5965533E2,2.3177198E1,4.087889E1,1.2743385E1,5.0222473E1,1.8429276E1,4.9017742E1,2.2494732E1,2.3786774E1,2.2024796E1,1.445697E1,3.605954E1,5.6882477E1,3.654074E1,3.4587395E1,2.790195E1,3.8913452E1,0E0,0E0,0E0,0E0,0E0,0E0,0E0,0E0,0E0,0E0,0E0,0E0,0E0,0E0,0E0,0E0,0E0,0E0,0E0,0E0,0E0,0E0,0E0,0E0,0E0,0E0,0E0,0E0,0E0,0E0,0E0,0E0,0E0,0E0,0E0,0E0,0E0,0E0,0E0,0E0,0E0,0E0,0E0,0E0,0E0,0E0,0E0,0E0,0E0,0E0,0E0,0E0,0E0,0E0,0E0,0E0,0E0,0E0,0E0,0E0,0E0,0E0,0E0,0E0],"parents":[2147483647,0,0,1,1,2,2,3,3,4,4,5,5,6,6,7,7,8,8,9,9,10,10,11,11,12,12,13,13,14,14,15,15,16,16,17,17,18,18,19,19,20,20,21,21,22,22,23,23,24,24,25,25,26,26,27,27,28,28,29,29,30,30,31,31,32,32,33,33,34,34,35,35,36,36,37,37,38,38,39,39,40,40,41,41,42,42,43,43,44,44,45,45,46,46,47,47,48,48,49,49,50,50,51,51,52,52,53,53,54,54,55,55,56,56,57,57,58,58,59,59,60,60,61,61,62,62],"right_children":[2,4,6,8,10,12,14,16,18,20,22,24,26,28,30,32,34,36,38,40,42,44,46,48,50,52,54,56,58,60,62,64,66,68,70,72,74,76,78,80,82,84,86,88,90,92,94,96,98,100,102,104,106,108,110,112,114,116,118,120,122,124,126,-1,-1,-1,-1,-1,-1,-1,-1,-1,-1,-1,-1,-1,-1,-1,-1,-1,-1,-1,-1,-1,-1,-1,-1,-1,-1,-1,-1,-1,-1,-1,-1,-1,-1,-1,-1,-1,-1,-1,-1,-1,-1,-1,-1,-1,-1,-1,-1,-1,-1,-1,-1,-1,-1,-1,-1,-1,-1,-1,-1,-1,-1,-1,-1],"split_conditions":[5.5803574E-4,3.5824155E-4,5.266328E-4,-2.5881904E-1,-1.8369701E-16,-1.8369701E-16,1.5176601E-3,1.2329156E-3,5E-1,-8.660254E-1,-4.3388373E-1,-8.660254E-1,8.106768E-5,-8.8082516E-4,-4.3600393E-3,6.779661E-1,5.7921207E-1,-1.8369701E-16,8.660254E-1,3.7046599E-3,2.6188507E-3,1.1276834E-3,5E-1,7.170473E-4,-1.3875516E-2,-4.3388373E-1,5.7737355E-4,-1.5586081E-3,-2.5881904E-1,9.659258E-1,9.451958E-4,-8.660254E-1,2.0680549E-4,1.671816E-4,-7.0710677E-1,2.1087792E-4,5.660587E-3,3.1355184E-3,-4.3388373E-1,4.911987E-4,6.7157894E-1,5.89612E-3,8.371975E-3,1.1543168E-4,6.4247787E-1,5.0553016E-4,8.660254E-1,-1.5441844E-3,5.667184E-1,1.6777408E-1,8.362211E-1,9.17044E-1,-9.401657E-3,3.0561333E-4,1.4240305E-1,0E0,-1.4798688E-3,-2.2252093E-1,-3.7421212E-3,-4.553123E-3,6.9226104E-1,5.669763E-1,-2.488575E-3,-2.5770068E-2,-1.431499E-2,-3.2627296E-2,-1.4872289E-3,-1.9345917E-3,-1.4256358E-2,-9.497283E-3,5.1819202E-3,-2.4415681E-2,-1.1766027E-2,-2.9643416E-2,3.850229E-2,-8.77571E-3,4.845515E-3,1.4717452E-2,-2.1158498E-2,-1.42233595E-2,-5.744651E-3,8.769777E-3,-1.5861047E-2,-1.2065222E-3,2.465775E-2,4.6413126E-3,2.4851125E-2,-2.0711768E-2,5.5577554E-2,9.337786E-3,4.46987E-2,-1.7979855E-2,-1.0046982E-2,-3.4607865E-3,-1.226249E-2,-8.7583065E-3,-2.4353646E-4,7.4034208E-3,-4.0951083E-4,-2.4913808E-2,6.0111236E-2,6.7795343E-3,-3.3595383E-3,4.6439104E-2,-2.9527783E-2,9.35913E-3,-2.353576E-3,-5.387223E-3,2.4458987E-3,-2.5662348E-2,5.8414787E-3,2.8226033E-2,1.4268989E-2,-1.8394848E-2,1.0530973E-2,1.3139069E-2,7.4959896E-3,1.2685509E-2,3.996302E-3,8.7114135E-3,-2.172528E-2,3.143577E-2,-3.032361E-2,1.0598333E-3,1.3986351E-2,2.290274E-2,1.4941463E-2],"split_indices":[8,8,46,24,24,24,8,60,24,24,25,24,44,0,50,51,51,24,24,60,50,60,24,8,50,25,1,50,24,24,30,24,8,48,24,30,60,50,25,8,4,61,50,45,4,8,24,48,49,51,51,10,50,46,49,25,50,26,20,50,10,51,20,0,0,0,0,0,0,0,0,0,0,0,0,0,0,0,0,0,0,0,0,0,0,0,0,0,0,0,0,0,0,0,0,0,0,0,0,0,0,0,0,0,0,0,0,0,0,0,0,0,0,0,0,0,0,0,0,0,0,0,0,0,0,0,0],"split_type":[0,0,0,0,0,0,0,0,0,0,0,0,0,0,0,0,0,0,0,0,0,0,0,0,0,0,0,0,0,0,0,0,0,0,0,0,0,0,0,0,0,0,0,0,0,0,0,0,0,0,0,0,0,0,0,0,0,0,0,0,0,0,0,0,0,0,0,0,0,0,0,0,0,0,0,0,0,0,0,0,0,0,0,0,0,0,0,0,0,0,0,0,0,0,0,0,0,0,0,0,0,0,0,0,0,0,0,0,0,0,0,0,0,0,0,0,0,0,0,0,0,0,0,0,0,0,0],"sum_hessian":[2.2674938E5,8.556965E4,1.4117973E5,2.6652527E4,5.8917117E4,9.253191E4,4.864783E4,8.511569E3,1.8140959E4,3.0484734E4,2.8432385E4,5.3198363E4,3.9333543E4,3.124E4,1.740783E4,4.77176E3,3.7398093E3,5.6130303E3,1.2527929E4,8.146662E3,2.2338072E4,3.0975333E2,2.8122633E4,1.3883187E4,3.931518E4,2.6004172E4,1.3329369E4,4.439997E3,2.6800002E4,6.345102E3,1.1062728E4,4.146774E3,6.249857E2,1.9483317E3,1.7914775E3,3.0105632E3,2.6024673E3,4.3491484E3,8.17878E3,7.262517E3,8.841451E2,1.751423E4,4.823841E3,9.557031E1,2.1418303E2,6.862003E3,2.1260629E4,7.0962764E3,6.78691E3,7.659256E1,3.9238586E4,1.2604392E2,2.5878129E4,4.474491E3,8.854878E3,1.9802262E3,2.459771E3,1.1620171E4,1.5179832E4,6.0359185E3,3.0918372E2,1.6828568E3,9.37987E3,7.8321875E2,3.3635552E3,4.4319523E1,5.806662E2,7.1807544E2,1.2302562E3,7.132838E2,1.0781937E3,1.9829736E3,1.0275895E3,2.5894731E3,1.2993971E1,3.8115417E3,5.3760706E2,1.5526167E2,8.023518E3,4.6073965E3,2.6551208E3,5.911325E2,2.9301257E2,1.7351193E4,1.6303798E2,4.568257E3,2.555842E2,2.6019402E0,9.296837E1,1.446915E2,6.949154E1,4.8274766E3,2.0345265E3,1.2464684E4,8.795945E3,9.1818243E2,6.178094E3,3.8136914E3,2.9732188E3,3.7312837E0,7.2861275E1,3.798057E4,1.2580138E3,1.18559395E2,7.4845243E0,9.24695E2,2.4953434E4,1.284583E3,3.1899082E3,5.907274E1,8.795806E3,3.493053E2,1.6309209E3,4.2485703E1,2.4172852E3,5.0038086E3,6.616363E3,2.2076248E3,1.2972207E4,5.937026E3,9.8892746E1,2.8575995E2,2.342377E1,8.882843E2,7.945726E2,1.9621058E3,7.4177646E3],"tree_param":{"num_deleted":"0","num_feature":"68","num_nodes":"127","size_leaf_vector":"1"}},{"base_weights":[2.2140655E-3,-1.944793E-1,9.8521635E-2,-5.319891E-2,-2.9396084E-1,2.1285566E-2,1.921066E-1,-1.873627E-1,-3.4402472E-3,-4.6061006E-1,-2.2705401E-1,6.71733E-2,-2.8287144E-2,1.9911125E-1,-2.4060749E-2,-6.354658E-2,-2.6443103E-1,2.4019444E-1,-2.1277685E-2,-4.9267355E-1,-3.484723E-1,-1.9818753E-1,-3.795856E-1,1.4376245E-1,1.9195806E-2,-9.579899E-2,5.72707E-3,1.6839133E-1,2.3124173E-1,-2.6281267E-1,1.42428E-1,3.1610233E-1,-9.4064705E-2,-2.8921226E-1,1.2132954E-1,6.7975275E-2,4.3105122E-1,-9.6299805E-2,3.1456128E-2,-4.965993E-1,2.6815677E-1,5.4987687E-1,-3.5778973E-1,-8.2597464E-2,-2.2967117E-1,-1.9579396E-1,-4.666767E-1,1.189587E-1,3.2638523E-1,1.6771013E-1,-2.862061E-3,-1.0026609E-1,5.116286E-1,1.6764404E-2,-1.3967223E-1,2.005466E-1,1.2595451E-1,1.8583983E-1,2.528794E-1,