{"learner":{"attributes":{"scikit_learn":"{\"_estimator_type\": \"classifier\"}"},"feature_names":[],"feature_types":[],"gradient_booster":{"model":{"cats":{"enc":[],"feature_segments":[],"sorted_idx":[]},"gbtree_model_param":{"num_parallel_tree":"1","num_trees":"24"},"iteration_indptr":[0,3,6,9,12,15,18,21,24],"tree_info":[0,1,2,0,1,2,0,1,2,0,1,2,0,1,2,0,1,2,0,1,2,0,1,2],"trees":[{"base_weights":[-1.2611561E-7,2.4329367E-1,-4.7330105E-1,-3.3137494E-1,5.073355E-1,-5.711394E-1,1.3705581E-1,-1.6318297E-1,9.175159E-2,-7.0077896E-2,2.3483005E-1,-2.0554341E-1,1.3705581E-1],"categories":[],"categories_nodes":[],"categories_segments":[],"categories_sizes":[],"default_left":[0,0,0,0,0,0,0,0,0,0,0,0,0],"id":0,"left_children":[1,3,5,7,9,11,-1,-1,-1,-1,-1,-1,-1],"loss_changes":[6.2104874E0,5.5733113E0,1.9273243E0,1.7673192E0,5.244473E0,2.306848E0,0E0,0E0,0E0,0E0,0E0,0E0,0E0],"parents":[2147483647,0,0,1,1,2,2,3,3,4,4,5,5],"right_children":[2,4,6,8,10,12,-1,-1,-1,-1,-1,-1,-1],"split_conditions":[4.6892166E-1,-6.276378E-1,1.7981924E0,4.4304118E-1,-4.6288916E-1,9.6314096E-1,1.3705581E-1,-1.6318297E-1,9.175159E-2,-7.0077896E-2,2.3483005E-1,-2.0554341E-1,1.3705581E-1],"split_indices":[39,18,7,48,24,28,0,0,0,0,0,0,0],"split_type":[0,0,0,0,0,0,0,0,0,0,0,0,0],"sum_hessian":[5.193334E1,3.4622227E1,1.7311113E1,1.0819446E1,2.380278E1,1.601278E1,1.2983334E0,8.222778E0,2.5966668E0,6.4916673E0,1.7311113E1,1.4714446E1,1.2983334E0],"tree_param":{"num_deleted":"0","num_feature":"50","num_nodes":"13","size_leaf_vector":"1"}},{"base_weights":[3.1603614E-7,2.872434E-1,-2.8724277E-1,5.06823E-1,-3.528507E-1,-5.5101347E-1,3.6717722E-1,-1.8268189E-1,2.1024203E-1,-2.0380627E-1,9.238358E-2,-2.2993651E-1,-1.890132E-2,2.6451468E-1,-1.205112E-1],"categories":[],"categories_nodes":[],"categories_segments":[],"categories_sizes":[],"default_left":[0,0,0,0,0,0,0,0,0,0,0,0,0,0,0],"id":1,"left_children":[1,3,5,7,9,11,13,-1,-1,-1,-1,-1,-1,-1,-1],"loss_changes":[4.883132E0,4.337989E0,5.310338E0,5.2844696E0,1.9671342E0,2.2111855E0,3.954705E0,0E0,0E0,0E0,0E0,0E0,0E0,0E0,0E0],"parents":[2147483647,0,0,1,1,2,2,3,3,4,4,5,5,6,6],"right_children":[2,4,6,8,10,12,14,-1,-1,-1,-1,-1,-1,-1,-1],"split_conditions":[6.6764124E-2,1.0618243E0,6.673762E-1,-1.1032268E0,9.146524E-1,5.436874E-1,2.1169876E-1,-1.8268189E-1,2.1024203E-1,-2.0380627E-1,9.238358E-2,-2.2993651E-1,-1.890132E-2,2.6451468E-1,-1.205112E-1],"split_indices":[19,14,4,8,0,37,18,0,0,0,0,0,0,0,0],"split_type":[0,0,0,0,0,0,0,0,0,0,0,0,0,0,0],"sum_hessian":[5.7183323E1,2.8591661E1,2.8591661E1,2.1443747E1,7.1479154E0,2.049069E1,8.100971E0,2.8591661E0,1.858458E1,4.765277E0,2.3826385E0,1.38193035E1,6.6713877E0,4.765277E0,3.3356938E0],"tree_param":{"num_deleted":"0","num_feature":"50","num_nodes":"15","size_leaf_vector":"1"}},{"base_weights":[-2.386149E-7,-4.0207657E-1,3.0074096E-1,1.8964553E-1,-6.037423E-1,1.0723625E-2,1.1982629E0,-1.033113E-1,3.2041878E-1,-1.9806875E-1,1.6744144E-2,-6.6189334E-2,1.9814704E-1,1.6744144E-2,4.279719E-1],"categories":[],"categories_nodes":[],"categories_segments":[],"categories_sizes":[],"default_left":[0,0,0,0,0,0,0,0,0,0,0,0,0,0,0],"id":2,"left_children":[1,3,5,7,9,11,13,-1,-1,-1,-1,-1,-1,-1,-1],"loss_changes":[6.237506E0,2.7484598E0,7.668623E0,3.3566253E0,6.590805E-1,3.6502132E0,1.7978296E0,0E0,0E0,0E0,0E0,0E0,0E0,0E0,0E0],"parents":[2147483647,0,0,1,1,2,2,3,3,4,4,5,5,6,6],"right_children":[2,4,6,8,10,12,14,-1,-1,-1,-1,-1,-1,-1,-1],"split_conditions":[-4.3247254E-3,-5.788217E-1,6.632164E-1,1.6140585E-1,1.8034693E0,7.0156544E-1,-1.2547475E0,-1.033113E-1,3.2041878E-1,-1.9806875E-1,1.6744144E-2,-6.6189334E-2,1.9814704E-1,1.6744144E-2,4.279719E-1],"split_indices":[29,5,43,19,3,39,14,0,0,0,0,0,0,0,0],"split_type":[0,0,0,0,0,0,0,0,0,0,0,0,0,0,0],"sum_hessian":[4.9583347E1,2.1072924E1,2.8510426E1,5.3715296E0,1.5701393E1,2.2312506E1,6.1979184E0,3.7187512E0,1.6527783E0,1.446181E1,1.2395837E0,1.6940977E1,5.3715296E0,1.2395837E0,4.958335E0],"tree_param":{"num_deleted":"0","num_feature":"50","num_nodes":"15","size_leaf_vector":"1"}},{"base_weights":[-6.141898E-5,1.9018973E-1,-4.1328737E-1,6.6881555E-1,-5.0794132E-2,-5.1210076E-1,1.2351703E-1,2.8353572E-1,-7.88585E-2,2.9826137E-1,-6.772741E-2,-1.8822853E-1,1.14596464E-1],"categories":[],"categories_nodes":[],"categories_segments":[],"categories_sizes":[],"default_left":[0,0,0,0,0,0,0,0,0,0,0,0,0],"id":3,"left_children":[1,3,5,7,9,11,-1,-1,-1,-1,-1,-1,-1],"loss_changes":[4.176945E0,4.230184E0,1.5763214E0,3.4028964E0,4.8185997E0,1.8280134E0,0E0,0E0,0E0,0E0,0E0,0E0,0E0],"parents":[2147483647,0,0,1,1,2,2,3,3,4,4,5,5],"right_children":[2,4,6,8,10,12,-1,-1,-1,-1,-1,-1,-1],"split_conditions":[4.6892166E-1,-4.3203953E-1,1.7981924E0,6.2454844E-1,-1.2851821E0,9.6314096E-1,1.2351703E-1,2.8353572E-1,-7.88585E-2,2.9826137E-1,-6.772741E-2,-1.8822853E-1,1.14596464E-1],"split_indices":[39,29,7,20,9,28,0,0,0,0,0,0,0],"split_type":[0,0,0,0,0,0,0,0,0,0,0,0,0],"sum_hessian":[5.1130672E1,3.538089E1,1.5749783E1,1.1253867E1,2.4127022E1,1.4403878E1,1.3459046E0,8.668623E0,2.585244E0,2.788706E0,2.1338316E1,1.3022382E1,1.3814958E0],"tree_param":{"num_deleted":"0","num_feature":"50","num_nodes":"13","size_leaf_vector":"1"}},{"base_weights":[-3.5007538E-3,-1.6895021E-1,3.3651525E-1,-4.3301427E-1,1.3319725E-1,5.4666334E-1,-2.0138203E-1,-1.5962276E-1,6.901662E-2,-6.5395996E-2,1.6158839E-1,2.075975E-1,-1.356828E-1,-1.8508114E-1,1.960529E-1],"categories":[],"categories_nodes":[],"categories_segments":[],"categories_sizes":[],"default_left":[0,0,0,0,0,0,0,0,0,0,0,0,0,0,0],"id":4,"left_children":[1,3,5,7,9,11,13,-1,-1,-1,-1,-1,-1,-1,-1],"loss_changes":[3.2765021E0,3.1825013E0,2.2654629E0,1.5106423E0,2.826934E0,2.3425374E0,2.5657747E0,0E0,0E0,0E0,0E0,0E0,0E0,0E0,0E0],"parents":[2147483647,0,0,1,1,2,2,3,3,4,4,5,5,6,6],"right_children":[2,4,6,8,10,12,14,-1,-1,-1,-1,-1,-1,-1,-1],"split_conditions":[6.2454844E-1,3.787163E-2,3.6892617E-1,1.0623124E0,-2.9711756E-1,6.7612195E-1,7.277757E-2,-1.5962276E-1,6.901662E-2,-6.5395996E-2,1.6158839E-1,2.075975E-1,-1.356828E-1,-1.8508114E-1,1.960529E-1],"split_indices":[20,28,43,46,33,37,10,0,0,0,0,0,0,0,0],"split_type":[0,0,0,0,0,0,0,0,0,0,0,0,0,0,0],"sum_hessian":[5.6232624E1,3.8164936E1,1.8067686E1,2.0134829E1,1.803011E1,1.298022E1,5.0874667E0,1.7689589E1,2.4452395E0,9.909144E0,8.120964E0,1.1599909E1,1.3803113E0,3.6106884E0,1.4767783E0],"tree_param":{"num_deleted":"0","num_feature":"50","num_nodes":"15","size_leaf_vector":"1"}},{"base_weights":[4.1101156E-3,2.609893E-1,-3.3667362E-1,5.3472364E-1,-4.7946718E-1,1.7245455E-1,-5.695443E-1,1.05485E-3,2.6244286E-1,2.6012274E-2,-1.7493951E-1,2.377566E-1,-1.5784094E-1,-1.8763727E-1,1.0650566E-2],"categories":[],"categories_nodes":[],"categories_segments":[],"categories_sizes":[],"default_left":[0,0,0,0,0,0,0,0,0,0,0,0,0,0,0],"id":5,"left_children":[1,3,5,7,9,11,13,-1,-1,-1,-1,-1,-1,-1,-1],"loss_changes":[4.423443E0,6.094437E0,2.6737857E0,3.8813543E0,5.3778446E-1,3.7027469E0,5.343313E-1,0E0,0E0,0E0,0E0,0E0,0E0,0E0,0E0],"parents":[2147483647,0,0,1,1,2,2,3,3,4,4,5,5,6,6],"right_children":[2,4,6,8,10,12,14,-1,-1,-1,-1,-1,-1,-1,-1],"split_conditions":[2.768862E-2,7.479422E-1,-3.519644E-1,2.464761E-3,-7.41598E-1,4.0925676E-1,1.1934013E0,1.05485E-3,2.6244286E-1,2.6012274E-2,-1.7493951E-1,2.377566E-1,-1.5784094E-1,-1.8763727E-1,1.0650566E-2],"split_indices":[28,20,5,39,48,25,13,0,0,0,0,0,0,0,0],"split_type":[0,0,0,0,0,0,0,0,0,0,0,0,0,0,0],"sum_hessian":[4.8526646E1,2.7803106E1,2.072354E1,2.0501785E1,7.3013206E0,6.5853496E0,1.413819E1,8.396677E0,1.2105108E1,1.1552689E0,6.1460514E0,3.417515E0,3.1678345E0,1.2911303E1,1.2268876E0],"tree_param":{"num_deleted":"0","num_feature":"50","num_nodes":"15","size_leaf_vector":"1"}},{"base_weights":[6.723999E-3,1.6459306E-1,-3.6932355E-1,3.048741E-1,-4.6661866E-1,-4.6914348E-1,1.1690604E-1,1.481257E-1,-8.751057E-2,7.008673E-3,-1.7238E-1,-1.7513214E-1,-2.0481776E-3],"categories":[],"categories_nodes":[],"categories_segments":[],"categories_sizes":[],"default_left":[0,0,0,0,0,0,0,0,0,0,0,0,0],"id":6,"left_children":[1,3,5,7,9,11,-1,-1,-1,-1,-1,-1,-1],"loss_changes":[3.0594223E0,3.353631E0,1.3377216E0,3.5557246E0,3.8324046E-1,7.3399687E-1,0E0,0E0,0E0,0E0,0E0,0E0,0E0],"parents":[2147483647,0,0,1,1,2,2,3,3,4,4,5,5],"right_children":[2,4,6,8,10,12,-1,-1,-1,-1,-1,-1,-1],"split_conditions":[4.6892166E-1,8.8378495E-1,1.18835E0,8.549597E-1,-4.0023282E-1,1.5303978E0,1.1690604E-1,1.481257E-1,-8.751057E-2,7.008673E-3,-1.7238E-1,-1.7513214E-1,-2.0481776E-3],"split_indices":[39,10,45,41,16,7,0,0,0,0,0,0,0],"split_type":[0,0,0,0,0,0,0,0,0,0,0,0,0],"sum_hessian":[4.9510746E1,3.5267395E1,1.4243348E1,2.9277697E1,5.9896994E0,1.2925388E1,1.3179591E0,2.2368198E1,6.9094996E0,1.2231457E0,4.766554E0,1.0146796E1,2.7785923E0],"tree_param":{"num_deleted":"0","num_feature":"50","num_nodes":"13","size_leaf_vector":"1"}},{"base_weights":[-2.6413798E-3,2.1158701E-1,-2.3008515E-1,-1.7281055E-1,3.260974E-1,-4.5970055E-1,2.8820303E-1,-1.5995765E-1,1.24425195E-1,-1.9767812E-1,-1.5717875E-2,2.003904E-1,-9.927752E-2],"categories":[],"categories_nodes":[],"categories_segments":[],"categories_sizes":[],"default_left":[0,0,0,0,0,0,0,0,0,0,0,0,0],"id":7,"left_children":[1,3,5,-1,7,9,11,-1,-1,-1,-1,-1,-1],"loss_changes":[2.75046E0,2.8101714E0,3.390219E0,0E0,2.2035596E0,1.5360994E0,2.3415973E0,0E0,0E0,0E0,0E0,0E0,0E0],"parents":[2147483647,0,0,1,1,2,2,4,4,5,5,6,6],"right_children":[2,4,6,-1,8,10,12,-1,-1,-1,-1,-1,-1],"split_conditions":[6.6764124E-2,-1.2156361E0,6.673762E-1,-1.7281055E-1,-1.3684914E0,5.436874E-1,2.1169876E-1,-1.5995765E-1,1.24425195E-1,-1.9767812E-1,-1.5717875E-2,2.003904E-1,-9.927752E-2],"split_indices":[19,47,4,0,40,37,18,0,0,0,0,0,0],"split_type":[0,0,0,0,0,0,0,0,0,0,0,0,0],"sum_hessian":[5.44496E1,2.80753E1,2.63743E1,3.0520885E0,2.5023212E1,1.8355408E1,8.018892E0,1.8712631E0,2.3151949E1,1.1911413E1,6.4439936E0,4.9213295E0,3.0975628E0],"tree_param":{"num_deleted":"0","num_feature":"50","num_nodes":"13","size_leaf_vector":"1"}},{"base_weights":[-4.028352E-3,-1.5936054E-1,4.5294094E-1,-2.92678E-1,3.8779294E-1,7.8734684E-1,-1.9812948E-1,8.664257E-2,-1.2767364E-1,2.8752142E-1,-8.482356E-2,2.992788E-1,3.2078527E-2,1.0516048E-1,-1.4237927E-1],"categories":[],"categories_nodes":[],"categories_segments":[],"categories_sizes":[],"default_left":[0,0,0,0,0,0,0,0,0,0,0,0,0,0,0],"id":8,"left_children":[1,3,5,7,9,11,13,-1,-1,-1,-1,-1,-1,-1,-1],"loss_changes":[3.4759521E0,2.777995E0,2.8612223E0,2.4367425E0,3.1737237E0,1.0964298E0,9.271142E-1,0E0,0E0,0E0,0E0,0E0,0E0,0E0,0E0],"parents":[2147483647,0,0,1,1,2,2,3,3,4,4,5,5,6,6],"right_children":[2,4,6,8,10,12,14,-1,-1,-1,-1,-1,-1,-1,-1],"split_conditions":[1.009485E0,1.1041834E0,5.206334E-1,-1.0331305E0,-3.2156056E-1,6.6214526E-1,-7.461206E-1,8.664257E-2,-1.2767364E-1,2.8752142E-1,-8.482356E-2,2.992788E-1,3.2078527E-2,1.0516048E-1,-1.4237927E-1],"split_indices":[41,18,1,10,28,34,34,0,0,0,0,0,0,0,0],"split_type":[0,0,0,0,0,0,0,0,0,0,0,0,0,0,0],"sum_hessian":[4.695257E1,3.552742E1,1.1425151E1,2.8940878E1,6.586541E0,7.4099207E0,4.01523E0,5.1657662E0,2.3775112E1,3.32648E0,3.260061E0,5.3046384E0,2.1052823E0,1.2555755E0,2.7596548E0],"tree_param":{"num_deleted":"0","num_feature":"50","num_nodes":"15","size_leaf_vector":"1"}},{"base_weights":[4.9167387E-3,-2.884168E-1,1.9117066E-1,1.9327377E-1,-4.0052605E-1,4.737986E-1,-1.7529E-1,-1.5975313E-1,1.5165822E-1,2.2607227E-1,-1.9932264E-2,-1.3458033E-1,1.6517247E-1],"categories":[],"categories_nodes":[],"categories_segments":[],"categories_sizes":[],"default_left":[0,0,0,0,0,0,0,0,0,0,0,0,0],"id":9,"left_children":[1,3,5,-1,7,9,11,-1,-1,-1,-1,-1,-1],"loss_changes":[2.7227075E0,2.2823958E0,3.2383761E0,0E0,2.4097495E0,2.6905727E0,3.023435E0,0E0,0E0,0E0,0E0,0E0,0E0],"parents":[2147483647,0,0,1,1,2,2,4,4,5,5,6,6],"right_children":[2,4,6,-1,8,10,12,-1,-1,-1,-1,-1,-1],"split_conditions":[-1.6819204E-1,-1.5661148E0,1.6471727E-1,1.9327377E-1,1.2492296E0,2.9884803E-1,1.0588145E0,-1.5975313E-1,1.5165822E-1,2.2607227E-1,-1.9932264E-2,-1.3458033E-1,1.6517247E-1],"split_indices":[24,40,29,0,35,46,23,0,0,0,0,0,0],"split_type":[0,0,0,0,0,0,0,0,0,0,0,0,0],"sum_hessian":[4.7825733E1,1.8360712E1,2.9465021E1,1.4608637E0,1.6899849E1,1.6469913E1,1.2995108E1,1.5110924E1,1.7889254E0,1.0590491E1,5.8794217E0,9.717964E0,3.2771437E0],"tree_param":{"num_deleted":"0","num_feature":"50","num_nodes":"13","size_leaf_vector":"1"}},{"base_weights":[-5.3507914E-3,-4.5885104E-1,8.07184E-2,-1.8193942E-1,6.40681E-2,-3.7335348E-1,1.8865539E-1,-1.8940154E-1,1.7165802E-1,9.545595E-2,-9.309853E-2],"categories":[],"categories_nodes":[],"categories_segments":[],"categories_sizes":[],"default_left":[0,0,0,0,0,0,0,0,0,0,0],"id":10,"left_children":[1,3,5,-1,-1,7,9,-1,-1,-1,-1],"loss_changes":[2.1137831E0,9.867687E-1,2.3038242E0,0E0,0E0,2.5780158E0,2.5213213E0,0E0,0E0,0E0,0E0],"parents":[2147483647,0,0,1,1,2,2,5,5,6,6],"right_children":[2,4,6,-1,-1,8,10,-1,-1,-1,-1],"split_conditions":[-9.768085E-1,3.4553662E-1,-8.095946E-1,-1.8193942E-1,6.40681E-2,1.5790031E0,7.4192995E-1,-1.8940154E-1,1.7165802E-1,9.545595E-2,-9.309853E-2],"split_indices":[47,20,8,0,0,14,43,0,0,0,0],"split_type":[0,0,0,0,0,0,0,0,0,0,0],"sum_hessian":[5.220568E1,7.636679E0,4.4569E1,6.3424115E0,1.2942675E0,8.087465E0,3.6481537E1,6.614936E0,1.4725294E0,2.9250687E1,7.2308493E0],"tree_param":{"num_deleted":"0","num_feature":"50","num_nodes":"11","size_leaf_vector":"1"}},{"base_weights":[9.803408E-4,-3.1148446E-1,1.9753894E-1,1.12106204E-1,-4.2866722E-1,4.374252E-1,-1.8223207E-1,-4.2813965E-3,-1.7166896E-1,-9.074443E-3,2.1721703E-1,-1.21918716E-1,1.5657103E-1],"categories":[],"categories_nodes":[],"categories_segments":[],"categories_sizes":[],"default_left":[0,0,0,0,0,0,0,0,0,0,0,0,0],"id":11,"left_children":[1,3,5,-1,7,9,11,-1,-1,-1,-1,-1,-1],"loss_changes":[2.8574927E0,1.602764E0,2.6812868E0,0E0,9.323206E-1,2.4074185E0,2.0684767E0,0E0,0E0,0E0,0E0,0E0,0E0],"parents":[2147483647,0,0,1,1,2,2,4,4,5,5,6,6],"right_children":[2,4,6,-1,8,10,12,-1,-1,-1,-1,-1,-1],"split_conditions":[-4.3247254E-3,-1.234117E0,9.211693E-3,1.12106204E-1,-6.720169E-1,-1.8083611E-1,6.622071E-1,-4.2813965E-3,-1.7166896E-1,-9.074443E-3,2.1721703E-1,-1.21918716E-1,1.5657103E-1],"split_indices":[29,8,2,0,24,32,0,0,0,0,0,0,0],"split_type":[0,0,0,0,0,0,0,0,0,0,0,0,0],"sum_hessian":[4.4523766E1,1.6967005E1,2.7556759E1,2.158317E0,1.4808688E1,1.6795742E1,1.0761016E1,4.0931516E0,1.0715537E1,6.7221794E0,1.0073564E1,8.483206E0,2.2778096E0],"tree_param":{"num_deleted":"0","num_feature":"50","num_nodes":"13","size_leaf_vector":"1"}},{"base_weights":[6.51651E-3,-2.3560408E-1,2.0494573E-1,-3.3289844E-1,1.6421625E-1,-1.12724796E-1,5.102664E-1,-1.7888372E-1,-2.5550898E-2,-1.4257948E-1,1.0626437E-1,-1.1760365E-1,1.9986825E-1],"categories":[],"categories_nodes":[],"categories_segments":[],"categories_sizes":[],"default_left":[0,0,0,0,0,0,0,0,0,0,0,0,0],"id":12,"left_children":[1,3,5,7,-1,9,11,-1,-1,-1,-1,-1,-1],"loss_changes":[2.269238E0,1.8038613E0,2.573566E0,1.2251725E0,0E0,2.4591684E0,2.1480215E0,0E0,0E0,0E0,0E0,0E0,0E0],"parents":[2147483647,0,0,1,1,2,2,3,3,5,5,6,6],"right_children":[2,4,6,8,-1,10,12,-1,-1,-1,-1,-1,-1],"split_conditions":[2.0493932E-1,1.6342839E0,-9.2033796E-2,-2.9844892E-1,1.6421625E-1,-1.3127348E-1,-1.4001023E0,-1.7888372E-1,-2.5550898E-2,-1.4257948E-1,1.0626437E-1,-1.1760365E-1,1.9986825E-1],"split_indices":[23,25,24,11,0,36,10,0,0,0,0,0,0],"split_type":[0,0,0,0,0,0,0,0,0,0,0,0,0],"sum_hessian":[4.5227654E1,2.0286726E1,2.4940926E1,1.855582E1,1.7309043E0,1.2532402E1,1.24085245E1,8.311843E0,1.02439785E1,7.044835E0,5.487567E0,1.6056814E0,1.0802843E1],"tree_param":{"num_deleted":"0","num_feature":"50","num_nodes":"13","size_leaf_vector":"1"}},{"base_weights":[-6.443973E-3,-3.577369E-1,8.254922E-2,2.7806628E-1,-1.7757839E-1,4.6651202E-1,-3.175578E-2,1.3618934E-1,-1.55576235E-2,2.1503489E-1,-6.2980846E-4,6.1990406E-2,-7.7871576E-2],"categories":[],"categories_nodes":[],"categories_segments":[],"categories_sizes":[],"default_left":[0,0,0,0,0,0,0,0,0,0,0,0,0],"id":13,"left_children":[1,3,5,7,-1,9,11,-1,-1,-1,-1,-1,-1],"loss_changes":[1.6185782E0,1.72228E0,1.8303903E0,2.2645122E-1,0E0,1.1219547E0,1.8357342E0,0E0,0E0,0E0,0E0,0E0,0E0],"parents":[2147483647,0,0,1,1,2,2,3,3,5,5,6,6],"right_children":[2,4,6,8,-1,10,12,-1,-1,-1,-1,-1,-1],"split_conditions":[-8.032013E-1,-5.7637525E-1,-6.817972E-1,-6.626906E-1,-1.7757839E-1,1.821897E-1,-4.0485632E-1,1.3618934E-1,-1.55576235E-2,2.1503489E-1,-6.2980846E-4,6.1990406E-2,-7.7871576E-2],"split_indices":[47,24,18,7,0,48,11,0,0,0,0,0,0],"split_type":[0,0,0,0,0,0,0,0,0,0,0,0,0],"sum_hessian":[4.982889E1,9.461322E0,4.036757E1,2.4964325E0,6.9648895E0,8.55365E0,3.1813921E1,1.3830842E0,1.1133482E0,5.2305727E0,3.323077E0,1.5591598E1,1.6222324E1],"tree_param":{"num_deleted":"0","num_feature":"50","num_nodes":"13","size_leaf_vector":"1"}},{"base_weights":[6.103277E-4,1.8534051E-1,-2.7519873E-1,3.4586546E-1,-3.7849993E-1,1.3292238E-1,-5.0078E-1,-6.8462063E-3,1.6899773E-1,-1.4618364E-1,3.0081274E-2,1.5768078E-1,-1.3134375E-1,1.006382E-2,-1.66308E-1],"categories":[],"categories_nodes":[],"categories_segments":[],"categories_sizes":[],"default_left":[0,0,0,0,0,0,0,0,0,0,0,0,0,0,0],"id":14,"left_children":[1,3,5,7,9,11,13,-1,-1,-1,-1,-1,-1,-1,-1],"loss_changes":[2.2463381E0,2.5205748E0,1.6947886E0,1.7024319E0,3.7844265E-1,1.8181767E0,3.506894E-1,0E0,0E0,0E0,0E0,0E0,0E0,0E0,0E0],"parents":[2147483647,0,0,1,1,2,2,3,3,4,4,5,5,6,6],"right_children":[2,4,6,8,10,12,14,-1,-1,-1,-1,-1,-1,-1,-1],"split_conditions":[2.768862E-2,7.479422E-1,-3.519644E-1,2.464761E-3,1.2634833E0,4.0925676E-1,-1.455629E0,-6.8462063E-3,1.6899773E-1,-1.4618364E-1,3.0081274E-2,1.5768078E-1,-1.3134375E-1,1.006382E-2,-1.66308E-1],"split_indices":[28,20,5,39,7,25,36,0,0,0,0,0,0,0,0],"split_type":[0,0,0,0,0,0,0,0,0,0,0,0,0,0,0],"sum_hessian":[4.208777E1,2.5402084E1,1.6685686E1,2.0073706E1,5.328379E0,6.085881E0,1.0599805E1,7.7794104E0,1.2294294E1,4.327404E0,1.0009754E0,3.6521714E0,2.4337096E0,1.0001104E0,9.599694E0],"tree_param":{"num_deleted":"0","num_feature":"50","num_nodes":"15","size_leaf_vector":"1"}},{"base_weights":[6.1053284E-3,2.5366655E-1,-1.5864097E-1,5.0959164E-1,-2.1427675E-1,-3.256095E-1,2.1909046E-1,1.9781448E-1,2.467607E-4,-1.5647665E-1,1.0397845E-1,-1.4632884E-1,1.240065E-2,1.5570317E-1,-9.0736166E-2],"categories":[],"categories_nodes":[],"categories_segments":[],"categories_sizes":[],"default_left":[0,0,0,0,0,0,0,0,0,0,0,0,0,0,0],"id":15,"left_children":[1,3,5,7,9,11,13,-1,-1,-1,-1,-1,-1,-1,-1],"loss_changes":[1.8336482E0,2.2594433E0,1.7753141E0,9.065609E-1,1.3962758E0,1.1588981E0,1.5459299E0,0E0,0E0,0E0,0E0,0E0,0E0,0E0,0E0],"parents":[2147483647,0,0,1,1,2,2,3,3,4,4,5,5,6,6],"right_children":[2,4,6,8,10,12,14,-1,-1,-1,-1,-1,-1,-1,-1],"split_conditions":[-3.252539E-1,3.367072E-1,8.205549E-1,4.0813008E-1,-1.9063747E-1,6.7022145E-1,1.34018585E-2,1.9781448E-1,2.467607E-4,-1.5647665E-1,1.0397845E-1,-1.4632884E-1,1.240065E-2,1.5570317E-1,-9.0736166E-2],"split_indices":[1,41,23,39,2,3,7,0,0,0,0,0,0,0,0],"split_type":[0,0,0,0,0,0,0,0,0,0,0,0,0,0,0],"sum_hessian":[4.2972427E1,1.695489E1,2.601754E1,1.0902919E1,6.05197E0,1.8137993E1,7.879546E0,8.194339E0,2.70858E0,3.9549935E0,2.0969765E0,1.2350878E1,5.7871156E0,5.0057755E0,2.8737707E0],"tree_param":{"num_deleted":"0","num_feature":"50","num_nodes":"15","size_leaf_vector":"1"}},{"base_weights":[-3.1571717E-3,1.5010461E-1,-1.8100618E-1,2.8812206E-1,-2.7453336E-1,-3.7220016E-1,2.2181979E-1,-1.3844757E-1,1.2056323E-1,8.349399E-2,-1.6780935E-1,2.7035555E-2,-1.587398E-1,-1.3832137E-1,1.375521E-1],"categories":[],"categories_nodes":[],"categories_segments":[],"categories_sizes":[],"default_left":[0,0,0,0,0,0,0,0,0,0,0,0,0,0,0],"id":16,"left_children":[1,3,5,7,9,11,13,-1,-1,-1,-1,-1,-1,-1,-1],"loss_changes":[1.34151E0,1.6290735E0,1.8364716E0,1.9290615E0,1.2578537E0,1.1952119E0,1.4973974E0,0E0,0E0,0E0,0E0,0E0,0E0,0E0,0E0],"parents":[2147483647,0,0,1,1,2,2,3,3,4,4,5,5,6,6],"right_children":[2,4,6,8,10,12,14,-1,-1,-1,-1,-1,-1,-1,-1],"split_conditions":[6.6764124E-2,1.0618243E0,6.673762E-1,-1.1032268E0,-5.4776365E-1,-1.0110039E0,-6.986442E-1,-1.3844757E-1,1.2056323E-1,8.349399E-2,-1.6780935E-1,2.7035555E-2,-1.587398E-1,-1.3832137E-1,1.375521E-1],"split_indices":[19,14,4,8,37,17,3,0,0,0,0,0,0,0,0],"split_type":[0,0,0,0,0,0,0,0,0,0,0,0,0,0,0],"sum_hessian":[4.7219475E1,2.5446712E1,2.1772762E1,1.944735E1,5.9993634E0,1.4816438E1,6.956324E0,2.1595666E0,1.7287783E1,2.0477123E0,3.951651E0,3.8627205E0,1.0953717E1,1.5464576E0,5.4098663E0],"tree_param":{"num_deleted":"0","num_feature":"50","num_nodes":"15","size_leaf_vector":"1"}},{"base_weights":[-2.8672295E-3,-2.2892627E-1,2.0610723E-1,-3.2727945E-1,1.5593538E-1,4.1809413E-1,-3.1229785E-1,-1.3148427E-1,7.1439095E-2,1.6834098E-1,-1.2039665E-1,-1.5086795E-1,1.0311313E-1],"categories":[],"categories_nodes":[],"categories_segments":[],"categories_sizes":[],"default_left":[0,0,0,0,0,0,0,0,0,0,0,0,0],"id":17,"left_children":[1,3,5,7,-1,9,11,-1,-1,-1,-1,-1,-1],"loss_changes":[1.9621835E0,1.6389285E0,2.5032938E0,1.2493868E0,0E0,2.0715008E0,1.0279291E0,0E0,0E0,0E0,0E0,0E0,0E0],"parents":[2147483647,0,0,1,1,2,2,3,3,5,5,6,6],"right_children":[2,4,6,8,-1,10,12,-1,-1,-1,-1,-1,-1],"split_conditions":[9.4511494E-2,1.4705738E0,5.424423E-1,1.5198851E0,1.5593538E-1,7.4784935E-1,1.7653562E0,-1.3148427E-1,7.1439095E-2,1.6834098E-1,-1.2039665E-1,-1.5086795E-1,1.0311313E-1],"split_indices":[19,49,4,41,0,20,4,0,0,0,0,0,0],"split_type":[0,0,0,0,0,0,0,0,0,0,0,0,0],"sum_hessian":[3.9537197E1,1.8946386E1,2.059081E1,1.7244028E1,1.7023578E0,1.475193E1,5.8388796E0,1.4602169E1,2.6418583E0,1.2827825E1,1.9241062E0,4.7052345E0,1.1336448E0],"tree_param":{"num_deleted":"0","num_feature":"50","num_nodes":"13","size_leaf_vector":"1"}},{"base_weights":[1.0973748E-2,-2.2130968E-1,1.4877914E-1,1.5310031E-1,-3.306132E-1,-7.218506E-2,4.238342E-1,-1.3572699E-1,1.0711327E-1,5.4842506E-2,-1.2578489E-1,1.6390282E-1,-4.7632225E-2],"categories":[],"categories_nodes":[],"categories_segments":[],"categories_sizes":[],"default_left":[0,0,0,0,0,0,0,0,0,0,0,0,0],"id":18,"left_children":[1,3,5,-1,7,9,11,-1,-1,-1,-1,-1,-1],"loss_changes":[1.3508359E0,1.4268866E0,1.6375005E0,0E0,1.3589076E0,1.4499058E0,9.377825E-1,0E0,0E0,0E0,0E0,0E0,0E0],"parents":[2147483647,0,0,1,1,2,2,4,4,5,5,6,6],"right_children":[2,4,6,-1,8,10,12,-1,-1,-1,-1,-1,-1],"split_conditions":[-1.6819204E-1,-1.5661148E0,1.3400447E-1,1.5310031E-1,1.2492296E0,1.7750973E-2,4.86599E-1,-1.3572699E-1,1.0711327E-1,5.4842506E-2,-1.2578489E-1,1.6390282E-1,-4.7632225E-2],"split_indices":[24,40,18,0,35,49,9,0,0,0,0,0,0],"split_type":[0,0,0,0,0,0,0,0,0,0,0,0,0],"sum_hessian":[4.017193E1,1.473269E1,2.5439238E1,1.4380256E0,1.3294664E1,1.4515688E1,1.0923549E1,1.1584664E1,1.7100006E0,8.640973E0,5.874716E0,9.077099E0,1.8464493E0],"tree_param":{"num_deleted":"0","num_feature":"50","num_nodes":"13","size_leaf_vector":"1"}},{"base_weights":[-5.444516E-3,-3.2257372E-1,6.842938E-2,2.1155307E-1,-1.5893741E-1,-3.350307E-1,1.4882044E-1,-1.4933019E-2,1.0717084E-1,7.5892635E-2,-1.5703958E-1,-7.4647125E-3,1.3378835E-1],"categories":[],"categories_nodes":[],"categories_segments":[],"categories_sizes":[],"default_left":[0,0,0,0,0,0,0,0,0,0,0,0,0],"id":19,"left_children":[1,3,5,7,-1,9,11,-1,-1,-1,-1,-1,-1],"loss_changes":[1.0754422E0,1.0716813E0,1.2594347E0,1.3725162E-1,0E0,8.530387E-1,1.6518626E0,0E0,0E0,0E0,0E0,0E0,0E0],"parents":[2147483647,0,0,1,1,2,2,3,3,5,5,6,6],"right_children":[2,4,6,8,-1,10,12,-1,-1,-1,-1,-1,-1],"split_conditions":[-8.032013E-1,-5.7637525E-1,-1.0343578E0,-1.0034794E0,-1.5893741E-1,-8.790972E-1,4.5945853E-1,-1.4933019E-2,1.0717084E-1,7.5892635E-2,-1.5703958E-1,-7.4647125E-3,1.3378835E-1],"split_indices":[47,24,8,6,0,37,46,0,0,0,0,0,0],"split_type":[0,0,0,0,0,0,0,0,0,0,0,0,0],"sum_hessian":[4.3962784E1,7.670022E0,3.6292763E1,2.138046E0,5.531976E0,5.503705E0,3.0789057E1,1.0009105E0,1.1371356E0,1.2525713E0,4.251134E0,2.0008642E1,1.0780414E1],"tree_param":{"num_deleted":"0","num_feature":"50","num_nodes":"13","size_leaf_vector":"1"}},{"base_weights":[-5.550981E-3,1.5160602E-1,-2.5708327E-1,-3.6867306E-2,5.42422E-1,1.15293026E-1,-4.7102115E-1,-8.67541E-2,1.3425621E-1,1.9447441E-1,-1.0728907E-2,1.2237658E-1,-1.12018324E-1,-1.5393966E-2,-1.5516269E-1],"categories":[],"categories_nodes":[],"categories_segments":[],"categories_sizes":[],"default_left":[0,0,0,0,0,0,0,0,0,0,0,0,0,0,0],"id":20,"left_children":[1,3,5,7,9,11,13,-1,-1,-1,-1,-1,-1,-1,-1],"loss_changes":[1.5131477E0,1.756942E0,1.2262913E0,2.1881993E0,4.9651432E-1,1.0348407E0,1.5839744E-1,0E0,0E0,0E0,0E0,0E0,0E0,0E0,0E0],"parents":[2147483647,0,0,1,1,2,2,3,3,4,4,5,5,6,6],"right_children":[2,4,6,8,10,12,14,-1,-1,-1,-1,-1,-1,-1,-1],"split_conditions":[2.768862E-2,6.7176723E-1,-3.519644E-1,6.2155074E-1,1.0429914E0,4.0925676E-1,-9.430452E-1,-8.67541E-2,1.3425621E-1,1.9447441E-1,-1.0728907E-2,1.2237658E-1,-1.12018324E-1,-1.5393966E-2,-1.5516269E-1],"split_indices":[28,49,5,39,1,25,1,0,0,0,0,0,0,0,0],"split_type":[0,0,0,0,0,0,0,0,0,0,0,0,0,0,0],"sum_hessian":[3.629244E1,2.2581081E1,1.3711355E1,1.5845271E1,6.7358103E0,5.171328E0,8.540028E0,1.06833935E1,5.1618776E0,5.591257E0,1.1445531E0,3.337865E0,1.8334631E0,1.0559146E0,7.4841127E0],"tree_param":{"num_deleted":"0","num_feature":"50","num_nodes":"15","size_leaf_vector":"1"}},{"base_weights":[9.874657E-3,-3.7447825E-1,9.401412E-2,-1.5339684E-1,5.1711705E-2,2.2822002E-1,-2.4868765E-1,1.4009556E-2,1.8944843E-1,-1.2321069E-1,5.6237582E-2],"categories":[],"categories_nodes":[],"categories_segments":[],"categories_sizes":[],"default_left":[0,0,0,0,0,0,0,0,0,0,0],"id":21,"left_children":[1,3,5,-1,-1,7,9,-1,-1,-1,-1],"loss_changes":[1.2816236E0,6.2115145E-1,1.5478027E0,0E0,0E0,1.7140363E0,7.5545883E-1,0E0,0E0,0E0,0E0],"parents":[2147483647,0,0,1,1,2,2,5,5,6,6],"right_children":[2,4,6,-1,-1,8,10,-1,-1,-1,-1],"split_conditions":[-9.2459977E-1,1.2572789E0,4.6892166E-1,-1.5339684E-1,5.1711705E-2,4.7711954E-1,1.413474E0,1.4009556E-2,1.8944843E-1,-1.2321069E-1,5.6237582E-2],"split_indices":[18,26,39,0,0,11,7,0,0,0,0],"split_type":[0,0,0,0,0,0,0,0,0,0,0],"sum_hessian":[3.7541943E1,6.122661E0,3.1419281E1,4.9491487E0,1.1735129E0,2.2817677E1,8.601604E0,1.6504494E1,6.313183E0,6.3143573E0,2.2872472E0],"tree_param":{"num_deleted":"0","num_feature":"50","num_nodes":"11","size_leaf_vector":"1"}},{"base_weights":[-3.5147057E-3,-1.1640035E-1,1.8337627E-1,-2.0758797E-1,4.1210762E-1,-9.303672E-2,5.031413E-1,1.3439377E-1,-8.314788E-2,1.6934828E-1,-9.349597E-3,-9.142424E-2,9.272306E-2,1.977576E-1,-4.1586168E-2],"categories":[],"categories_nodes":[],"categories_segments":[],"categories_sizes":[],"default_left":[0,0,0,0,0,0,0,0,0,0,0,0,0,0,0],"id":22,"left_children":[1,3,5,7,9,11,13,-1,-1,-1,-1,-1,-1,-1,-1],"loss_changes":[9.129551E-1,1.384801E0,1.4877553E0,1.2031384E0,3.0818754E-1,9.104338E-1,8.6397827E-1,0E0,0E0,0E0,0E0,0E0,0E0,0E0,0E0],"parents":[2147483647,0,0,1,1,2,2,3,3,4,4,5,5,6,6],"right_children":[2,4,6,8,10,12,14,-1,-1,-1,-1,-1,-1,-1,-1],"split_conditions":[3.8093495E-1,1.1946925E0,1.362583E-1,-1.3639464E0,-2.9509467E-1,3.7609535E-1,2.03593E-1,1.3439377E-1,-8.314788E-2,1.6934828E-1,-9.349597E-3,-9.142424E-2,9.272306E-2,1.977576E-1,-4.1586168E-2],"split_indices":[34,40,44,12,17,27,25,0,0,0,0,0,0,0,0],"split_type":[0,0,0,0,0,0,0,0,0,0,0,0,0,0,0],"sum_hessian":[4.126179E1,2.5959152E1,1.530264E1,2.2657156E1,3.3019974E0,8.588001E0,6.7146387E0,1.6519432E0,2.1005213E1,2.253745E0,1.0482523E0,5.784583E0,2.803418E0,5.3794203E0,1.3352184E0],"tree_param":{"num_deleted":"0","num_feature":"50","num_nodes":"15","size_leaf_vector":"1"}},{"base_weights":[-6.7155985E-3,8.434028E-2,-3.955721E-1,2.5808755E-1,-1.9490574E-1,7.926153E-3,-1.4255257E-1,1.0980392E-1,-6.506677E-2,5.5270124E-2,-1.3050665E-1],"categories":[],"categories_nodes":[],"categories_segments":[],"categories_sizes":[],"default_left":[0,0,0,0,0,0,0,0,0,0,0],"id":23,"left_children":[1,3,5,7,9,-1,-1,-1,-1,-1,-1],"loss_changes":[1.2568406E0,1.4487052E0,2.3868954E-1,1.0122316E0,1.1384217E0,0E0,0E0,0E0,0E0,0E0,0E0],"parents":[2147483647,0,0,1,1,2,2,3,3,4,4],"right_children":[2,4,6,8,10,-1,-1,-1,-1,-1,-1],"split_conditions":[7.479422E-1,2.768862E-2,-1.6140194E0,7.896477E-1,-3.519644E-1,7.926153E-3,-1.4255257E-1,1.0980392E-1,-6.506677E-2,5.5270124E-2,-1.3050665E-1],"split_indices":[20,28,17,42,5,0,0,0,0,0,0],"split_type":[0,0,0,0,0,0,0,0,0,0,0],"sum_hessian":[3.355403E1,2.7822203E1,5.731829E0,1.7197601E1,1.0624602E1,1.0156672E0,4.716162E0,1.4200365E1,2.9972365E0,4.20993E0,6.4146724E0],"tree_param":{"num_deleted":"0","num_feature":"50","num_nodes":"11","size_leaf_vector":"1"}}]},"name":"gbtree"},"learner_model_param":{"base_score":"[-4.3440938E-2,1.691199E-1,-1.2567878E-1]","boost_from_average":"1","num_class":"3","num_feature":"50","num_target":"1"},"objective":{"name":"multi:softprob","softmax_multiclass_param":{"num_class":"3"}}},"version":[3,2,0]}