tree
version=v4
num_class=3
num_tree_per_iteration=3
label_index=0
max_feature_idx=67
objective=multiclass num_class:3
feature_names=return hl_ratio close_pos volume_change rsi macd_line macd_signal macd_hist atr channel_width_3x channel_position above_upper_1x above_upper_2x above_upper_3x below_lower_1x below_lower_2x below_lower_3x atr_slope ema_diff price_ema30 price_ema60 ema30_slope ema_cross hour_sin hour_cos dow_sin dow_cos ret_mean_10 ret_std_10 ret_mean_20 ret_std_20 ret_slope_10 ret_slope_20 ret_lag1 ret_lag2 ret_lag3 ret_lag4 ret_lag5 rsi_lag1 rsi_lag2 rsi_lag3 atr_lag1 atr_lag2 atr_lag3 atr_std_10 up_atr_ratio down_atr_ratio atr_asymmetry m15_ema_bias m15_rsi h1_ema_bias h1_rsi h1_macd_sign h4_ema_bias m15_h1_trend_align m5_m15_dir_align rsi_oversold rsi_overbought bullish_divergence bearish_divergence support_distance resistance_distance volume_surge price_ema50_distance reversal_candle bullish_engulfing bearish_engulfing atr_expansion
feature_infos=[-0.021357076350093099:0.014491978200885099] [1.8130065086917173e-05:0.030487662942271902] [0:1] [0.10774968918358881:4.0191877794336817] [0:0.99912357581069322] [-0.0108699978338663:0.0118177072654956] [-0.0100037605447448:0.0101383805148649] [-0.0044850092226752999:0.0034248293430425001] [0.001:0.0096267523288877006] [0.0059761894054166003:0.0582848894707148] [-0.95149860413512155:2.0309200880132527] [0:1] [0:1] [0:1] [0:1] [0:1] [0:1] [-0.65907595103329764:7.2393867924520778] [-0.011370949960415599:0.011951004541572101] [-0.039553821114877701:0.040917624484288803] [-0.043014297651875102:0.051233654562587098] [-0.0100947773367206:0.010410891149312601] [-1:1] [-1:1] [-1:1] [-0.97492791218182362:0.97492791218182362] [-0.90096886790241903:1] [-0.0052887122500274997:0.0040960738491670999] [0.00018114020940290001:0.0091400855760819001] [-0.0028124568001716001:0.0028727473471361] [0.00030327067400799998:0.0071158757950081997] [-0.0020658605603524:0.0021421078211965] [-0.0010803493446739001:0.0010028712815611] [-0.021357076350093099:0.014491978200885099] [-0.021357076350093099:0.014491978200885099] [-0.021357076350093099:0.014491978200885099] [-0.021357076350093099:0.014491978200885099] [-0.021357076350093099:0.014491978200885099] [0:0.99912357581069322] [0:0.99912357581069322] [0:0.99623149394347577] [0.00028936504895890001:0.0096267523288877006] [0.00026294590609939999:0.0096267523288877006] [0.00025832934864529998:0.0096267523288877006] [9.3214224672968525e-06:0.0028756046477667] [9.6483536893489957e-05:0.0058414837400999004] [0.0001044519663564:0.0058396736469212996] [-0.86658031088083198:0.86548172086447661] [-0.035211439999999997:0.049061127000000003] [0.0025510203999999999:0.99820260000000005] [-0.050590086999999999:0.048568926999999998] [0.0060629025:0.98658259999999998] [-1:1] [-0.084717914000000005:0.057603783999999998] [0:1] [0:1] [0:1] [0:1] [0:1] [0:1] [-0.0197716596301361:0.0620405262339623] [-0.014449061201537:0.044175536659332798] [0:1] [-0.042112146285594301:0.048670689462899597] [0:1] [0:1] [0:1] [0:1]
tree_sizes=3438 3447 3493 3537 3425 3093 3516 3507 2564 3527 3323 3318 3526 3506 3526 3581 2974 3323 3553 2992 3301 3548 3399 3437 3474 3579 3319 3541 3507 3172 3574 3527 3211 3571 3419 3075 3588 3543 3187 3524 3537 3554 3527 3519 3436 3574 3515 3293 3567 3104 3512 3560 3519 2688 3596 3285 3573 3551 3525 2579 3507 3528 2856 3579 3343 3004 3567 3451 2553 3579 2016 2977 3559 3469 3566 3590 2010 2416 3414 3546 2640 3508 2025 2873 3568 3522 2207 3414 3167 2520 3527 3368 3549 3607 3519 2766 3570 3570 3546 3566 3174 2544 3570 2026 3328 3563 3392 2668 3562 1641 2537 3537 3541 2427 3558 3204 2842 3575 2031 2657 3554 3532 2418 3495 2013 2328 3602 3066 2542 3573 3106 2537 3579 1861 2559 3573 2754 2331 3499 3565 2427 3496 2768 2412 3598 1681 2683 3273 2766 2670 3533 2021 2303 3485 2681 3566 3553 2865 2679 3469 3582 2543 3534 3527 2759 3567 2778 2658 3375 3337 2890 3592 1924 2994 3543 3451 3556 3525 3544 3601 3559 2012 2957 3525 2778 3101 3554 2028 3564 3530 3567 2335 3535 1907 2431 3341 2851 2641 3587 3469 2852 3562 3395 3099 3519 2840 3295 3516 3535 2735 3549 3466 3322 3505 2700 2967 3507 3406 3580 3511 2138 2725 3543 3565 2680 3549 1869 3594 3527 1895 2645 3522 3256 3195 3562 3206 2937 3560 3448 3531 3543 3348 2606 3562 2902 3562 3549 2639 2743 3521 3504 3548 3561 2125 2468 3565 3314 2593 3550 2012 2859 3569 3027 3445 3505 3347 3553 3503 2875 3231 3530 2899 3446 3545 2136 3595 3462 2905 3530 3473 2859 2860 3513 3501 3532 3524 2778 3545 3565 2875 3510 3583 3575 2957 3591 3369 2797 3521 3524 2920 3547 3439 3176 3524 2786 3323 3453 2857 3566 3543 3305 3542 3323 3549 3138 3490 2403 2625 3588 3343 3532 3444 3160 3569 3507 2745 3569 3507 3518 3527 3522 2726 3562 3481 2640 3195 3531 3547 3534 3499 2983 3301 3516 3220 3057 3568 2513 3145 3535 3425 3623 3590 2329 2533 3477 2808 3511 3588 2737 2934 2902 3287 2879 3533 3283 2972 3596 2845 2948 3465 3086 3305 3551 3526 3560 3545 2975 3568 3604 3401 3566 3449 3345 2808 3528 2842 3302 3614 2555 3548 3540 3129 3317 3579 3516 2805 3164 2758 2937 3493 2721 3590 3533 2633 2663 3538 2962 3297 3419 2966 3236 3539 3542 3320 3602 3037 3543 3506 2615 2622 3488 2866 3592 3502 2660 3169 3549 2428 3622 3535 3085 3553 3513 2572 2803 3524 2730 3583 3300 2709 3526 3540 2544 3371 3330 3194 3591 3598 2476 2861

Tree=0
num_leaves=31
num_cat=0
split_feature=24 62 24 24 53 30 43 42 24 23 53 26 43 53 50 50 45 7 51 43 51 23 30 43 41 18 1 6 49 31
split_gain=596.264 115.532 113.497 77.7264 70.653 57.7591 26.4486 25.5587 17.1988 15.9579 13.5665 12.5832 9.83459 12.5163 12.9294 9.44732 7.65376 7.57427 6.57962 13.7008 6.39354 5.87398 5.70924 5.65706 5.59232 5.08631 3.9817 3.12012 2.85201 2.73042
threshold=-0.37940952255126009 1.0000000180025095e-35 -0.12940952255126034 -0.9159756150367534 -0.021507561999999997 0.0010537237665097503 0.0012836448825735501 0.0019892716453810502 0.37940952255126043 0.37940952255126054 0.0053078024500000012 0.81174490092936691 0.0011005204594053501 -0.016238852499999998 0.014003288500000001 -0.011661310499999999 0.00077332739671490006 0.00022849045993035002 0.53552137500000019 0.00091537741634525015 0.79911715000000016 -1.0000000180025095e-35 0.0027705604912854503 0.0019210615975631003 0.0015147734127959002 0.00077171149812530013 0.0010296750161468502 0.00032045708892690009 0.21015540500000005 1.8721713289258241e-05
decision_type=2 2 2 2 2 2 2 2 2 2 2 2 2 2 2 2 2 2 2 2 2 2 2 2 2 2 2 2 2 2
left_child=3 2 6 12 8 -6 17 9 -4 24 -8 23 20 25 -15 28 -11 -2 29 -20 27 -22 -17 26 -5 -14 -3 -1 -9 -13
right_child=1 11 4 7 5 -7 10 15 -10 16 -12 18 13 14 -16 22 -18 -19 19 -21 21 -23 -24 -25 -26 -27 -28 -29 -30 -31
leaf_value=-2.2036310500535872 -2.2008295555820792 -2.1962330024386012 -2.1914467669584492 -2.2077679994500232 -2.1892988968419975 -2.1816985874681603 -2.1911881885536495 -2.1977351775727905 -2.2052032609477918 -2.2036419394675386 -2.1972245773362196 -2.2050915786364915 -2.2062204997767818 -2.1921963001458278 -2.2069979997391993 -2.1972245773362196 -2.1956324969335497 -2.1937848461193705 -2.2049943029431778 -2.1783933091675274 -2.2030420681972553 -2.1637765184841666 -2.1788787926806883 -2.1944476481065989 -2.2046111844369767 -2.1929557744964217 -2.2063309297916458 -2.1973363347497861 -2.2124375870264372 -2.1940813785725526
leaf_weight=262.04445628076792 886.20250916481018 31.288890302181244 114.88395580649376 3223.4668122678995 3477.1359595283866 1239.0321547314525 886.16300299018621 21.807408392429352 254.38025840371847 632.80990512669086 549.09632109850645 50.133335597813129 111.4469186142087 592.07903908938169 54.320990107953548 308.38519911468029 121.08642522245646 155.73334036767483 24.256791219115257 42.232100673019886 2.8444445729255676 4.8197533041238776 13.195062324404715 37.412347368896008 726.51855133473873 28.286421030759811 544.23706161975861 110.34074572473764 45.511113166809082 25.916050553321838
leaf_count=1285 4631 183 724 14408 22579 9082 5575 118 1203 3110 3091 233 511 3661 241 1737 706 939 110 334 9 59 110 226 3494 177 2513 616 172 159
internal_value=-2.19722 -2.19196 -2.19084 -2.20422 -2.18828 -2.18729 -2.19612 -2.20582 -2.20083 -2.20643 -2.19348 -2.20311 -2.19722 -2.19532 -2.19353 -2.19833 -2.20231 -2.19974 -2.19528 -2.18845 -2.20117 -2.1787 -2.19624 -2.20498 -2.2072 -2.20329 -2.20573 -2.20186 -2.20833 -2.20098
internal_weight=14577.1 8318.1 7562.63 6258.96 5085.43 4716.17 2477.2 5092.78 369.264 4703.88 1435.26 755.477 1166.18 786.133 646.4 388.899 753.896 1041.94 142.538 66.4889 380.049 7.6642 321.58 612.938 3949.99 139.733 575.526 372.385 67.3185 76.0494
internal_count=81996 51582 47824 30414 33588 31661 14236 23855 1927 21718 8666 3758 6559 4590 3902 2137 3816 5570 836 444 1969 68 1847 2922 17902 688 2696 1901 290 392
is_linear=0
shrinkage=1


Tree=1
num_leaves=31
num_cat=0
split_feature=12 24 24 50 30 21 63 51 30 48 50 26 50 43 51 51 51 46 23 25 28 26 50 51 24 23 18 48 42 19
split_gain=80.9138 116.916 73.6909 60.3529 53.2441 48.8659 38.2427 29.5194 23.8683 33.1025 22.6892 22.8253 22.3228 30.227 27.4908 20.2644 17.771 17.0475 20.1973 16.9669 25.1684 14.4943 13.2673 15.4749 12.9939 12.7346 12.0996 9.70848 9.42709 7.04707
threshold=1.0000000180025095e-35 -0.37940952255126009 0.98296291314453432 -0.0015828279999999999 0.0012094724075122504 -0.0024146768904848995 0.0016250401221256502 0.8859283750000001 0.0015595134026874004 0.0084765405000000026 0.007583036300000001 0.81174490092936691 0.015088895000000001 0.0012670676252288001 0.79911715000000016 0.87171695000000005 0.94521125000000017 0.00078706460028325016 0.91597561503675362 0.6078576107927941 0.00095182633307790002 1.0000000180025095e-35 -0.0025459191499999996 0.25733180000000005 0.37940952255126043 -0.9159756150367534 0.0034597010464599005 0.0012826580500000003 0.0023559911018420504 -0.0010525440216798997
decision_type=2 2 2 2 2 2 2 2 2 2 2 2 2 2 2 2 2 2 2 2 2 2 2 2 2 2 2 2 2 2
left_child=1 5 3 4 -3 22 -5 15 9 12 24 -12 14 -14 -2 -7 -9 19 25 20 -10 27 23 -1 -11 -19 -21 -4 -24 -23
right_child=8 2 21 6 -6 7 -8 16 17 10 11 -13 13 -15 -16 -17 -18 18 -20 26 -22 29 28 -25 -26 -27 -28 -29 -30 -31
leaf_value=-0.81814714560489321 -0.8069508249535009 -0.80994313128647577 -0.7814096065995354 -0.81606372854738496 -0.81587866811193166 -0.80930031407916159 -0.81201892745710647 -0.79238692968029656 -0.77915840635964873 -0.79408387433232519 -0.82993101015982618 -0.80760779625048074 -0.78559278272299859 -0.80730218823979893 -0.81425963100873899 -0.82733603231258201 -0.81927167991673544 -0.80191838198871468 -0.78542491781705359 -0.78240813429946166 -0.81220695132094023 -0.7942400298812563 -0.82295275579774196 -0.84088932944325268 -0.8255633097734103 -0.81931580911367885 -0.81317407481968584 -0.81093021621632877 -0.7903439253158111 -0.82542579147618556
leaf_weight=57.382720805704594 3530.3706629946828 6039.7042043209076 84.148155122995377 6814.815379679203 1751.30878713727 13355.260366246104 3075.2595141604543 136.8889002352953 24.592594631016254 42.074077561497688 136.8889002352953 54.320992156863213 95.308649875223637 152.39507436007261 526.22226583957672 53.037041433155537 22.814816705882549 62.716054581105709 28.444446802139282 93.432106509804726 76.543216221034527 8.1975315436720866 13.432099878787996 62.22222737967968 12.444445475935934 85.432105846703053 10.567902110517023 12.148149155080317 11.950618274509905 12.345680035650728
leaf_count=119 7626 14749 194 16920 4579 25903 8065 252 46 90 336 109 167 318 1205 110 42 145 57 197 201 13 24 140 28 221 37 39 30 34
internal_value=-0.81093 -0.81149 -0.813094 -0.813254 -0.811275 -0.809409 -0.81481 -0.809221 -0.807358 -0.807976 -0.818586 -0.823481 -0.807359 -0.798626 -0.807908 -0.809378 -0.796495 -0.800149 -0.807296 -0.794282 -0.803775 -0.78967 -0.826537 -0.830667 -0.802179 -0.81172 -0.78579 -0.784914 -0.808104 -0.811166
internal_weight=36442.7 31510.9 17797.9 17681.1 7791.01 13713 9890.07 13568 4931.75 4550.03 245.728 191.21 4304.3 247.704 4056.59 13408.3 159.704 381.728 176.593 205.136 101.136 116.84 144.988 119.605 54.5185 148.148 104 96.2963 25.3827 20.5432
internal_count=81996 71213 44593 44313 19328 26620 24985 26307 10783 9879 563 445 9316 485 8831 26013 294 904 423 481 247 280 313 259 118 366 234 233 54 47
is_linear=0
shrinkage=1


Tree=2
num_leaves=31
num_cat=0
split_feature=20 23 20 53 20 25 53 53 50 30 53 50 53 25 20 23 23 50 60 20 53 5 46 53 53 9 23 20 50 30
split_gain=78.8868 59.5162 67.0448 49.0719 50.999 49.258 47.222 44.8397 47.2546 45.8962 42.3192 43.4793 40.6521 65.1276 45.8019 40.1067 39.2653 33.0189 30.8813 28.7106 27.3061 26.924 24.2843 22.2991 22.1309 20.2377 19.3148 18.1917 16.8293 15.3706
threshold=0.0035028798458056503 -0.60355339059327362 -0.0082954721737406468 0.030713892500000003 -0.0053049088266962996 1.0000000180025095e-35 -0.015816105499999997 0.0075901298000000004 0.0020024203500000003 0.0013527541377622002 -0.0073837891499999994 -0.0073948739999999992 0.018492695000000003 0.87837969732492682 0.0088141562849431507 0.37940952255126054 0.78656609248549325 -0.015870431999999997 0.0031315631478704004 0.0054216930392498508 0.015402218000000002 -0.0031640238508655496 0.0012112011847254004 -0.03451946899999999 -0.015354091499999998 0.0097281459908365505 -0.78656609248549303 0.004781778409256701 0.0029583835000000004 0.0007587711212246501
decision_type=2 2 2 2 2 2 2 2 2 2 2 2 2 2 2 2 2 2 2 2 2 2 2 2 2 2 2 2 2 2
left_child=1 2 23 5 -5 6 -3 8 22 15 17 -12 16 14 -14 -10 20 -4 -6 -15 -9 -7 25 26 -25 -2 -1 -24 -11 -18
right_child=7 3 10 4 18 21 -8 12 9 28 11 -13 13 19 -16 -17 29 -19 -20 -21 -22 -23 27 24 -26 -27 -28 -29 -30 -31
leaf_value=-0.83872871179853614 -0.80922345958191377 -0.82262627510680497 -0.80025329449128124 -0.8358296939017813 -0.79561728711533175 -0.83546251858220522 -0.81383492422836279 -0.80827002199762832 -0.81809150406255682 -0.80094768452882348 -0.8024069048243796 -0.80941973043777315 -0.82047840317289134 -0.81001307033116898 -0.80099089053806738 -0.80177909098442446 -0.80374685817961977 -0.8128520325982671 -0.82938979047264449 -0.78370083312929129 -0.7968663979655658 -0.81073291680632253 -0.81859230609120326 -0.79008463417896158 -0.80266684691143453 -0.818493481046632 -0.79629712387492468 -0.78582589934115155 -0.82913624498412097 -0.83060356340300689
leaf_weight=21.629631422460079 616.88894002139568 682.07413060963154 192.00001591444016 32.493829853832722 314.07410010695457 36.938274666666985 2899.9508576542139 1005.5309475436807 1697.2840913012624 16.790124848484993 838.22229170054197 15595.359317354858 875.65439356863499 80.592599272727966 119.90124450623989 143.30865385383368 21.037038780748844 4401.2843154296279 23.111113026738167 71.111117005348206 233.77779715508223 5016.9880701676011 17.679013811051846 188.64199094474316 433.97534461319447 316.93829787522554 12.444445475935934 52.740745112299919 400.39509491622448 83.851858802139759
leaf_count=37 1318 1432 425 70 646 101 7165 2292 4074 44 2075 34290 1803 179 262 373 66 9591 66 118 519 11485 46 349 1041 668 21 121 1093 226
internal_value=-0.81093 -0.810326 -0.809474 -0.812374 -0.801728 -0.812836 -0.815526 -0.814153 -0.816466 -0.818872 -0.809771 -0.809059 -0.811109 -0.815263 -0.818079 -0.816792 -0.807585 -0.812312 -0.798163 -0.797196 -0.806066 -0.81093 -0.81102 -0.800051 -0.798725 -0.812352 -0.822493 -0.794438 -0.827867 -0.824889
internal_weight=36442.7 30689.2 21683.6 9005.63 369.679 8635.95 3582.02 5753.48 3262.02 2257.78 21026.9 16433.6 2491.46 1147.26 995.556 1840.59 1344.2 4593.28 337.185 151.704 1239.31 5053.93 1004.25 656.691 622.617 933.827 34.0741 70.4198 417.185 104.889
internal_count=81996 68794 47829 20965 782 20183 8597 13202 7737 5584 46381 36365 5465 2362 2065 4447 3103 10016 712 297 2811 11586 2153 1448 1390 1986 58 167 1137 292
is_linear=0
shrinkage=1


Tree=3
num_leaves=31
num_cat=0
split_feature=24 62 24 24 24 24 42 42 10 23 49 26 30 42 27 60 18 23 48 51 42 51 51 29 9 42 17 46 31 49
split_gain=570.72 110.466 107.561 75.3185 38.058 53.4596 24.9102 23.8568 22.633 15.5683 14.6316 12.1911 9.34089 9.12 8.35209 8.45178 6.89707 12.2081 6.50446 6.31292 11.5391 5.24413 7.17623 7.11982 5.07687 4.19949 3.7536 3.45183 2.6522 1.88963
threshold=-0.37940952255126009 1.0000000180025095e-35 -0.12940952255126034 -0.9159756150367534 0.37940952255126043 0.78656609248549303 0.0019892716453810502 0.0016210374763528004 1.0484970695189015 0.37940952255126054 0.47567200000000004 0.81174490092936691 0.00072716539847180004 0.0011033353245412502 0.00021620693842945004 0.0015542992180374502 0.0010202464013056003 1.0000000180025095e-35 0.0017698826000000002 0.53552137500000019 0.0011300521894928002 0.43051032000000006 0.55437453500000011 -0.00021162722909784997 0.0088532319140059521 0.0023559911018420504 0.023413687624365302 0.00069646005539960004 1.8721713289258241e-05 0.18716126000000002
decision_type=2 2 2 2 2 2 2 2 2 2 2 2 2 2 2 2 2 2 2 2 2 2 2 2 2 2 2 2 2 2
left_child=3 2 7 13 8 -6 9 12 -4 24 -9 25 -2 16 15 -15 27 -18 -11 28 -21 23 -23 -8 -5 29 -16 -1 -13 -3
right_child=1 11 4 6 5 -7 21 10 -10 18 -12 19 -14 14 26 -17 17 -19 -20 20 -22 22 -24 -25 -26 -27 -28 -29 -30 -31
leaf_value=-0.0037321758501646031 -0.0034497769279544133 0 0.011494507282266132 -0.010481254319900593 0.0018120605600143239 0.011320890294440156 0.00062760312364157811 0.010448676977442069 -0.0020216394783166948 -0.0066723178094627786 0.0014608804598148692 -0.0077855512262453956 0.00096363249037777448 0.001085406039590906 -0.0075399598871025032 0.0088367801434000894 -0.0091482688590615417 0.018952605960053347 -0.00018799654377593236 -0.0021425128115319485 0.021474270421217741 0.010099023215416596 -0.0015804948995392293 -0.010847419734662741 -0.0077089951800030105 0.0047268656125261203 0.000684314449271383 -0.011953048313486325 0.003054244209193055 -0.008436887920202446
leaf_weight=263.62682820484042 693.0216237641871 18.831327952444553 2791.2610226869583 2989.6895846314728 1319.8766694888473 900.84627090767026 95.162654489278793 324.83883798122406 111.37122549116611 551.58610605075955 344.29612968116999 49.891596999019384 1118.4064795859158 421.82787681743503 99.762517604976892 185.80195226147771 21.680422410368919 27.234908875077963 199.02795630320907 36.7548648416996 30.204187396913767 65.883558664470911 140.09446349367499 87.159609362483025 926.15159824490547 18.938652019947767 84.523395732045174 61.701610311865807 26.005376193672419 571.82836874946952
leaf_count=1373 3634 109 19155 13460 7666 6172 546 2202 595 2702 1992 233 6408 2425 473 1230 94 219 1114 194 250 450 760 381 4442 121 485 260 159 2692
internal_value=0 0.00512031 0.00620741 -0.00687861 0.00868978 0.00569292 -0.00846328 0.00106393 0.010964 -0.00907136 0.0058959 -0.00580669 -0.000711241 0 0.00181727 0.00353653 -0.00384694 0.00611086 -0.00500038 0.00188309 0.00854586 -0.00106541 0.00210308 -0.00478298 -0.00983963 -0.00765811 -0.00365714 -0.00547768 -0.00371625 -0.00812763
internal_weight=14577.3 8356.37 7603.92 6220.92 5123.36 2220.72 5054.76 2480.56 2902.63 4666.46 669.135 752.454 1811.43 1166.16 791.916 607.63 374.244 48.9153 750.614 142.856 66.9591 388.3 205.978 182.322 3915.84 609.598 184.286 325.328 75.897 590.66
internal_count=81996 51582 47824 30414 33588 13838 23855 14236 19750 21718 4194 3758 10042 6559 4613 3655 1946 313 3816 836 444 2137 1210 927 17902 2922 958 1633 392 2801
is_linear=0
shrinkage=0.03


Tree=4
num_leaves=30
num_cat=0
split_feature=12 23 53 5 23 49 5 53 51 27 46 44 51 30 5 23 50 53 50 53 53 30 7 44 28 53 4 23 3
split_gain=76.0626 91.7753 50.3331 53.6236 45.3539 43.8768 41.2058 43.4553 41.1104 39.5518 34.183 38.413 26.7795 22.602 28.8145 33.3801 33.4518 26.2137 44.7491 25.3447 24.1871 19.0794 26.6695 21.8698 16.5293 27.1573 20.4296 11.8664 1.8365
threshold=1.0000000180025095e-35 -0.9159756150367534 -0.015354091499999998 0.00086829155120825014 -0.5 0.66915448500000008 -0.0019329876326390496 0.033774876500000002 0.59524027000000013 6.7996282722700697e-05 0.0017775208138322001 0.00012618187531125003 0.5907607800000001 0.0015595134026874004 0.0025241707508144003 -0.9159756150367534 0.012451134500000001 0.018492695000000003 0.0085610080000000019 0.019675808000000006 -0.016238852499999998 0.0012623951400737503 -5.8961137595892864e-05 0.00014703583883880002 0.0009158590700659501 0.016925533500000003 0.78355988292374301 -0.9159756150367534 0.88052191782624167
decision_type=2 2 2 2 2 2 2 2 2 2 2 2 2 2 2 2 2 2 2 2 2 2 2 2 2 2 2 2 2
left_child=1 9 3 4 -3 -5 8 -8 -4 10 11 -1 -12 14 17 16 -16 18 -2 -19 -17 23 -23 -11 28 26 -26 -27 -15
right_child=13 2 6 5 -6 -7 7 -9 -10 21 12 -13 -14 24 15 20 -18 19 -20 -21 -22 22 -24 -25 25 27 -28 -29 -30
leaf_value=-0.0050817052234672349 0.0040874815522041006 0.00076117048807728511 -0.0090349041739508154 -0.020298457838628194 0.0092079925651661499 0.0066085170461276342 0.00064138000526079895 -0.0093575135653116565 0.016874501264353227 -0.00043732419597514166 -0.023074741170647527 -0.00053581438507295661 0.0068339561911279741 0.0071356375563260271 0.017245231656371388 0.017144224420665863 -0.011385941126887801 0.021821748996687769 -0.004541217550449869 0.0061253554707160623 -0.01930130079319755 0.012660547002128437 -0.0079949221719018138 0.0059169833761578625 0.0041948095915734229 0.0062117627474783865 0.020537527792209784 -0.022459820573303639 0.031357973495213735
leaf_weight=5121.3884276002645 2998.9236279129982 959.92981118708849 665.85604806989431 132.05547446012497 1445.7313951477408 87.338987730443478 16312.675342127681 397.54580819606781 56.586136564612389 2543.781985938549 134.07444179803133 2508.034748852253 30.292047508060932 9.1090426892042142 78.788831420242786 15.240140311419962 62.834650687873363 116.53606290370226 654.16596718132496 481.75974903255701 143.99707592278719 60.436759479343891 453.70698538422585 598.18099439889193 165.33208509534597 16.999225579202175 125.43672750145197 31.354459501802921 34.059817880392075
leaf_count=12637 6540 1858 1621 280 2807 205 34993 787 104 6298 373 6159 69 22 174 21 175 206 1492 897 374 164 1293 1565 419 32 266 94 71
internal_value=0 -0.000542325 0.000679802 0.0045503 0.00585506 -0.00950748 9.45689e-05 0.000400069 -0.00690277 -0.00268546 -0.00389282 -0.00359205 -0.0173598 0.00346229 0.00286047 -0.00603449 0.00436221 0.00350081 0.00253166 0.00932621 -0.0153758 -0.000102425 -0.00544953 0.000767389 0.0104727 0.00796945 0.0114849 -0.0120218 0.0276924
internal_weight=36442.2 31507.6 20057.7 2625.06 2405.66 219.394 17432.7 16710.2 722.442 11449.9 7793.79 7629.42 164.366 4934.54 4552.25 300.861 141.623 4251.39 3653.09 598.296 159.237 3656.11 514.144 3141.96 382.291 339.122 290.769 48.3537 43.1689
internal_count=81996 71213 42655 5150 4665 485 37505 35780 1725 28558 19238 18796 442 10783 9879 744 349 9135 8032 1103 395 9320 1457 7863 904 811 685 126 93
is_linear=0
shrinkage=0.03


Tree=5
num_leaves=27
num_cat=0
split_feature=48 24 27 24 23 48 47 24 51 48 51 60 18 51 6 10 4 28 28 26 21 18 6 27 0 36
split_gain=80.3812 70.7732 44.4552 48.631 41.8185 52.6434 40.3441 36.9325 43.9987 48.9266 39.2168 35.6726 33.9686 33.9684 27.7079 21.7751 18.4668 17.6875 16.85 15.7945 14.9775 10.7122 5.81552 5.18987 2.95085 1.81795
threshold=0.0034740310000000003 0.98296291314453432 7.0954071543234375e-05 -0.5 -0.60355339059327362 -0.0090406364999999992 -0.037508663332643695 -0.37940952255126009 0.44399118500000007 0.0055146475000000007 0.73477955000000017 0.0023447112697169508 0.0050529037022816513 0.50899020000000006 0.0020329253716185503 0.90905598980397795 0.78979921587356727 0.00063714135841485013 0.00054814009371535017 1.0000000180025095e-35 0.0031282614423465004 0.00092771051549120017 0.00065952864672960015 6.2862438345644242e-05 -0.0016003535432016498 0.00102347865023625
decision_type=2 2 2 2 2 2 2 2 2 2 2 2 2 2 2 2 2 2 2 2 2 2 2 2 2 2
left_child=1 2 4 6 5 -1 -4 12 9 17 18 -6 15 -5 -12 16 -2 -9 -10 22 -17 -11 25 -21 -14 -3
right_child=7 19 3 13 11 -7 -8 8 10 21 14 -13 24 -15 -16 20 -18 -19 -20 23 -22 -23 -24 -25 -26 -27
leaf_value=0.012940803038504638 -0.0026181826143654528 -0.032826037285768647 -0.0048535775233316701 -0.004963248602202288 0.0002375066774511402 0.0020236250351993103 0.0027578566495874554 0.020293521624266914 0.0014681988335942956 0.0093746322129076593 -0.00038726527167564316 -0.0067293511923727624 0.0043554526127362794 -0.00017608794237119866 -0.0092740662355780563 0.0030999813962327501 -0.019240641915392931 -0.0078435618460908855 -0.010070619547582205 -0.011789835350479753 -0.021407061733148873 0.035630901204214672 -0.0027553460312618825 0.014667851601346201 0.035147233102792892 -0.011582449165727751
leaf_weight=407.1690084412694 907.73212138563395 70.288246840238571 757.4584089666605 3057.9401552379131 5481.8176617100835 14428.845962874591 3518.1358981505036 21.132295995950699 117.25003891438246 28.266796350479126 1231.3772301226854 748.24124044924974 6.8245509862899807 2388.6224527060986 425.48952747881413 977.25556522607803 62.516202189028263 111.17394799739122 1559.7679351121187 10.661015771329405 19.738404348492622 47.146623566746712 10.846891008317469 9.8842709511518461 23.232598088681698 13.386023439466952
leaf_count=938 1922 168 1558 7877 12446 31523 6733 39 292 48 2851 1971 13 5885 1204 1911 122 279 3942 24 39 92 33 23 39 24
internal_value=0 0.000596661 0.000686441 -0.000989547 0.00146138 0.00232782 0.00139996 -0.00332693 -0.00516539 0.00808697 -0.00600661 -0.000597249 -4.91084e-05 -0.00287057 -0.00270014 -0.000569993 -0.00377605 -0.00277741 -0.00924484 -0.0225787 0.00252203 0.0269072 -0.0276218 0 0.0300931 -0.0302922
internal_weight=36442.2 30903.3 30788.2 9722.16 21066.1 14836 4275.59 5538.9 3541.6 207.72 3333.88 6230.06 1997.3 5446.56 1656.87 1967.24 970.248 132.306 1677.02 115.066 996.994 75.4134 94.5212 20.5453 30.0571 83.6743
internal_count=81996 69203 68931 22053 46878 32461 8291 12793 8747 458 8289 14417 4046 13762 4055 3994 2044 318 4234 272 1950 140 225 47 52 192
is_linear=0
shrinkage=0.03


Tree=6
num_leaves=31
num_cat=0
split_feature=23 23 23 23 23 53 1 53 42 30 3 1 10 42 1 6 53 23 1 53 3 1 42 25 30 51 50 51 53 27
split_gain=224.449 218.076 76.5729 70.6059 68.012 44.3672 31.916 42.5298 28.3668 27.4437 24.2847 21.367 21.2024 19.1294 15.5494 15.1091 13.2376 13.1726 12.5016 11.8496 9.86055 9.15533 6.80233 5.81376 5.37128 4.95767 7.08108 5.04896 4.74992 1.62477
threshold=-0.9159756150367534 -0.60355339059327362 -0.5 0.91597561503675362 -0.9829629131445341 -0.016238852499999998 0.0017726823984389002 0.0098668815000000024 0.0018898143278201001 0.00070555834755445018 1.0136959030974146 0.0013828082862953502 1.0074594619202604 0.0013290514063045503 0.0012531531464665502 -0.00070691564656974991 -0.019548972999999994 -0.70710678118654735 0.0010243494532000501 0.0094893060000000012 1.3393580431667169 0.0011604072611227001 0.0019052719314306503 0.87837969732492682 0.0013805296698925003 0.37574520500000008 -0.009152093499999998 0.38577643000000006 0.0022504932500000004 0.00052037939335045004
decision_type=2 2 2 2 2 2 2 2 2 2 2 2 2 2 2 2 2 2 2 2 2 2 2 2 2 2 2 2 2 2
left_child=4 8 6 5 12 -4 7 -3 17 25 15 -5 13 21 -15 -11 -10 18 -2 -18 -12 -1 -8 24 -14 26 -6 -27 -25 -19
right_child=1 2 3 11 9 -7 22 -9 16 10 20 -13 23 14 -16 -17 19 29 -20 -21 -22 -23 -24 28 -26 27 -28 -29 -30 -31
leaf_value=0.0094656819871469719 -0.0042068246443015796 0.030515457524164218 -0.0079047099295038448 0.017473788083679262 0.012304524126740849 0.00097994412025132491 -0.0033881341496906675 0.003577804607421466 -0.010099902135889502 0.010901203580415672 0.0014650520101604429 0.0027743031269473334 -0.0081730063307591146 0.018428997983848332 0.0097328072670112512 0.0043755046669263862 0.0057159674146218262 -0.011077885663138597 -0.0082803608368025427 -0.0046445282461287738 -0.0069272019926467556 0.0026872022701173708 0.01102912548860792 0.031561358488230537 0.011972990888770766 0.018546974921927709 -0.008539872512555037 -0.0014337113752626303 0 -0.004635863864736571
leaf_weight=581.33701357617974 1061.8997503705323 157.6503175124526 604.55003969371319 270.61146860569715 12.321407403796909 3005.6000546477735 71.912612680345774 83.850933331996202 101.12168156728148 445.29570404440165 884.43169528618455 141.64045858383179 87.947376079857349 378.11592850461602 434.15295474603772 1255.4465345852077 263.72584597766399 1093.7072863653302 2144.0838179737329 152.94475667178631 143.55796168372035 283.54333389550447 44.093277998268604 4.3500745445489866 9.9222542941570264 8.4392425939440709 166.13540524244308 618.32022396102548 7.0411419086158276 59.526944857090712
leaf_count=3852 5508 1419 2881 2038 93 17231 372 505 452 3029 5105 839 408 2879 2888 7640 1654 4875 10186 777 694 1672 306 53 76 74 773 3377 37 303
internal_value=0 -0.00282315 0.00202986 0.000834217 0.00490742 -0.000504891 0.0152802 0.0214439 -0.00718623 0.00248058 0.00391993 0.0125522 0.00967931 0.0105166 0.0138707 0.00611789 -0.000482558 -0.00797474 -0.00694565 0.0018355 0.000247235 0.00729496 0.0019796 -0.00284342 -0.0055378 -0.00235643 -0.00675572 -0.00102997 0.0145499 -0.0107842
internal_weight=14577.3 9256.92 4379.91 4022.4 5320.36 3610.15 357.507 241.501 4877.01 3533.95 2728.73 412.252 1786.41 1677.15 812.269 1700.74 517.792 4359.22 3205.98 416.671 1027.99 864.88 116.006 109.261 97.8696 805.216 178.457 626.759 11.3912 1153.23
internal_count=81996 49346 25591 22989 32650 20112 2602 1924 23755 20785 16468 2877 11865 11291 5767 10669 2883 20872 15694 2431 5799 5524 678 574 484 4317 866 3451 90 5178
is_linear=0
shrinkage=0.03


Tree=7
num_leaves=31
num_cat=0
split_feature=10 53 5 6 17 29 30 49 53 53 17 18 5 30 5 53 53 51 49 8 61 18 53 46 53 29 51 18 44 3
split_gain=78.3378 77.8079 61.6845 51.0354 46.8545 37.9567 41.8036 37.4838 29.7864 26.9377 26.5627 27.5185 25.2297 20.6327 27.3875 26.2575 29.616 27.0136 19.6365 21.9391 18.3444 14.9203 14.2711 13.6403 15.227 13.3473 10.5431 9.42875 9.1608 6.94668
threshold=0.82526618994424783 -0.0073837891499999994 0.00088510285373180012 -0.0025063337818828995 0.020214386301899253 -0.00061194539116824983 0.0025663259136055002 0.68075880000000011 -0.024991098999999999 0.019675808000000006 -0.2812471891374817 -0.0052406522392520992 -0.0011191555092492998 0.0015595134026874004 0.0023973981523578007 0.018492695000000003 0.019675808000000006 0.79911715000000016 0.93874762500000009 0.0018619952734310003 0.0023228655013362502 0.0011425016844261004 0.0037341264500000003 0.00077989485815040018 0.017288132000000001 0.00024718636922630002 0.37868993000000006 0.0037388392185303005 0.00021422689317495002 0.95789258282903422
decision_type=2 2 2 2 2 2 2 2 2 2 2 2 2 2 2 2 2 2 2 2 2 2 2 2 2 2 2 2 2 2
left_child=1 2 5 10 9 8 -7 21 -1 -5 29 -12 -6 14 15 17 -17 -2 19 -16 23 -4 26 27 -25 -9 -22 -15 -24 -3
right_child=13 3 7 4 12 6 -8 25 -10 -11 11 -13 -14 20 18 16 -18 -19 -20 -21 22 -23 28 24 -26 -27 -28 -29 -30 -31
leaf_value=0.0077332131175744121 0.0036057316033679936 -0.0030432733019720754 -0.0099227325179860899 -0.0033951999687638103 -0.0031614060711428684 0.002864480955160266 0.024200073169504073 -0.0033346126814882086 -0.016176280388988926 0.00087380172878465416 0.022527795442391179 -0.021915224629920967 0.00052015304526996278 0.022443198208282666 0.0040247201694398283 0.022754865064408668 0.0059289028353041008 -0.0038937156945052067 -0.024434729634764386 -0.01074324721433958 -0.0098942424441438859 -0.025129347500295631 0.011497940851159868 0.010324033500108397 -0.018401471617790835 0.012162245550609404 0.016800723093941008 0 -0.016951497408017532 0.022824397958876322
leaf_weight=61.794109635055065 3257.6775734275579 14.887697838246824 219.1802780777216 8993.0625156983733 1983.8777859285474 7029.3855260387063 81.120404921472073 157.60404274612665 160.09431404620409 1547.3641769066453 10.367121979594229 193.09184996783733 10669.714262783527 141.13513851165771 206.24654188007116 118.28003685921431 482.78592972457409 492.12972620874643 37.72696066647768 154.85581268370152 14.603609554469584 87.949637323617935 9.3891847431659681 109.75866660475731 16.053188629448414 68.960585691034794 45.207500636577606 17.837321072816849 44.360026486217976 14.694253116846083
leaf_count=129 7097 32 541 21963 4614 15105 156 412 354 3413 28 637 22903 303 477 207 897 1141 89 400 29 248 18 255 37 180 106 54 134 37
internal_value=0 -0.000563752 0.00201576 -0.0014313 -0.00128847 0.00273641 0.00312221 -0.00778933 -0.00936995 -0.00276558 -0.0153229 -0.0192109 -5.52979e-05 0.00342876 0.00286579 0.00355985 0.00938621 0.00261117 -0.00460115 -0.00226235 0.00999499 -0.014575 0 0.0140246 0.00608265 0.00134886 0.00964394 0.0198956 -0.0111081 0.0098037
internal_weight=36441.2 31293.1 7866.09 23427.1 23194 7332.39 7110.51 533.695 221.888 10540.4 233.041 203.459 12653.6 5148.05 4749.7 4350.87 601.066 3749.81 398.829 361.102 398.345 307.13 113.56 284.784 125.812 226.565 59.8111 158.972 53.7492 29.582
internal_count=81996 70752 17125 53627 52893 15744 15261 1381 483 25376 734 665 27517 11244 10308 9342 1104 8238 966 877 936 789 287 649 292 592 135 357 152 69
is_linear=0
shrinkage=0.03


Tree=8
num_leaves=22
num_cat=0
split_feature=24 29 24 50 43 50 24 50 51 29 25 51 50 21 24 24 26 10 9 32 33
split_gain=64.6775 64.0686 41.4757 41.1115 49.2856 40.5593 40.4871 40.9734 34.0271 33.5025 51.3863 33.4332 32.2531 29.8534 26.469 23.3833 14.3615 7.65004 4.43392 0.835926 1.75768
threshold=0.98296291314453432 0.00022672912601805003 0.78656609248549303 -0.015870431999999997 0.0016281686489317503 -0.014954636249999998 -0.37940952255126009 -0.009373320499999999 0.44583020000000007 -7.8873687357290323e-05 0.6078576107927941 0.83850843500000016 -0.0022714322999999995 0.0021137591163946003 0.96592582628906831 -0.78656609248549325 1.0000000180025095e-35 0.76216969241799071 0.0073130040251271006 -0.00011921895084444999 0.00092427903319865017
decision_type=2 2 2 2 2 2 2 2 2 2 2 2 2 2 2 2 2 2 2 2 2
left_child=1 2 3 4 -1 -5 7 15 12 14 -11 -10 -8 -9 -4 -3 17 19 -18 -2 -21
right_child=16 6 9 5 -6 -7 8 13 11 10 -12 -13 -14 -15 -16 -17 18 -19 -20 20 -22
leaf_value=-0.0055439226309878754 -0.0052836802665576473 0.0017524356112365615 -0.0057740934509440721 -0.016097722039742565 0.012612344635861729 0.00076209055901144379 -0.0025004702646323658 0.00032341048032491878 -0.0080240764903888769 0.0050556101991058129 -0.0080261036916816821 0.0011857177683050474 0.014896379294471147 0.01629970754268039 -0.020647520400683905 -0.030351810743416908 -0.011043507170961711 -0.00032588346241903764 0.013375727127695327 -0.031749103751822487 -0.0080380688647470784
leaf_weight=175.81645091623068 5.7935426384210578 28.010912589728832 722.76544108986855 125.85828644037247 526.65251909941435 28516.368228115141 359.0209229812026 1713.7034570351243 2197.1111969202757 668.1259531378746 449.23783461004496 415.52222915738821 126.80189643055201 109.515296690166 127.70803701132536 56.543630294501781 10.262602984905245 11.726060353219507 10.26405795663595 75.495577961206436 9.1134501844644529
leaf_count=352 10 46 1973 259 1111 63120 872 3413 5565 1759 1191 1020 290 240 384 97 27 35 20 189 23
internal_value=0 7.43257e-05 0.00057903 0.00086272 0.00802135 0.000685281 -0.00307492 0.000348683 -0.00519087 -0.00363104 -0.000184544 -0.00654817 0.00204237 0.00132469 -0.00810738 -0.0196782 -0.0214861 -0.0259757 4.04124e-05 -0.0288643 -0.0299003
internal_weight=36441.4 36318.8 31312.5 29344.7 702.469 28642.2 5006.23 1907.77 3098.46 1967.84 1117.36 2612.63 485.823 1823.22 850.473 84.5545 122.655 102.129 20.5267 90.4026 84.609
internal_count=81996 81692 70149 64842 1463 63379 11543 3796 7747 5307 2950 6585 1162 3653 2357 143 304 257 47 222 212
is_linear=0
shrinkage=0.03


Tree=9
num_leaves=31
num_cat=0
split_feature=24 62 24 24 53 30 43 42 24 53 24 43 5 43 53 53 1 7 51 4 5 60 46 30 53 30 53 24 43 24
split_gain=529.261 102.922 100.453 71.9537 64.0443 51.6164 23.8541 23.6556 15.6598 12.7408 11.2571 9.77622 9.53095 9.15497 10.2971 11.9922 7.46517 7.32679 6.47747 5.73165 5.40258 5.20222 3.95453 3.94354 3.74497 3.88178 3.67774 3.26603 3.17564 2.80339
threshold=-0.37940952255126009 1.0000000180025095e-35 -0.12940952255126034 -0.9159756150367534 -0.021507561999999997 0.0010537237665097503 0.0012836448825735501 0.0019892716453810502 0.37940952255126043 0.0053078024500000012 -0.78656609248549325 0.0020424268955849005 0.00065793150802230017 0.0010899478825757501 -0.016238852499999998 0.021823502000000005 0.0010395727719629002 0.00022849045993035002 0.79911715000000016 0.83277959903013143 0.0019712072420270004 0.0012602268694738503 0.00069646005539960004 0.0027705604912854503 -0.0092906534999999974 0.0018096236835727501 -0.015354091499999998 0.78656609248549303 0.0011299079270096501 0.96592582628906831
decision_type=2 2 2 2 2 2 2 2 2 2 2 2 2 2 2 2 2 2 2 2 2 2 2 2 2 2 2 2 2 2
left_child=3 2 6 13 8 -6 17 10 -4 -8 12 16 -5 18 28 -16 27 -2 22 -20 -12 26 -1 -23 -13 -26 -9 -3 -15 -18
right_child=1 11 4 7 5 -7 9 21 -10 -11 20 24 -14 14 15 -17 29 -19 19 -21 -22 23 -24 -25 25 -27 -28 -29 -30 -31
leaf_value=-0.002913774168389136 -0.0035609869919208288 0 0.0051829472750970895 -0.0071839239501224799 0.0073387854234423684 0.014437898033189909 0.0056533024176831188 -0.0041718876999491949 -0.0078640023132624647 -8.0092747245024488e-05 -0.0096489708011342837 -0.0014295122723916613 0.0007186883066404719 0.009772505632187926 0.0052686920728374576 -0.0049183236072652403 -0.0077160095920030926 0.003358993130346169 0.034942113395038839 -0.0045836039768478313 0 -0.0043218299037342568 -0.011229426113645439 0.0092183283464394843 0.0010719477756862786 0.027553739306310221 0.0074781879120858373 0.018955724205148274 -0.0067329285587234469 0.00090513415624670517
leaf_weight=277.57806846126914 884.43116251379251 32.253087908029556 117.14634651318192 585.84169536083937 3538.7377052418888 1272.5775964297354 896.99893201515079 28.143762312829494 252.71168244630098 552.81524702161551 3798.4793327413499 15.299506139010189 169.76299535483122 7.3456299602985373 549.71771740168333 122.66114868596196 640.94256311282516 156.17302935197949 4.1913732923567286 2.88753467425704 50.457280088216066 259.47798682004213 67.653164144605398 16.844423312693834 12.829453185200693 9.727737829089163 83.380382537841797 8.5164199620485288 132.42226753383875 28.689658772200346
leaf_count=1474 4631 183 724 2852 22579 9082 5575 142 1203 3091 17601 80 977 56 3406 619 3079 939 54 10 288 1334 293 118 77 96 543 75 647 168
internal_value=0 0.0048866 0.00592455 -0.00668413 0.00830422 0.00923054 0.000957713 -0.0082496 -0.00364269 0.00345085 -0.00884952 -0.00569635 -0.00537306 5.76602e-06 0.00178296 0.00335228 -0.00651937 -0.00248702 -0.00398705 0.0192775 -0.00951949 -0.00103727 -0.0047122 -0.00329889 0.00835862 0.0155598 0.004244 0.0052331 -0.00546822 -0.00729966
internal_weight=14576.7 8419.85 7671.59 6156.84 5181.17 4811.32 2490.42 4992.39 369.858 1449.81 4604.54 748.258 755.605 1164.46 812.147 672.379 710.402 1040.6 352.31 7.07891 3848.94 387.847 345.231 276.322 37.8567 22.5572 111.524 40.7695 139.768 669.632
internal_count=81996 51582 47824 30414 33588 31661 14236 23855 1927 8666 21718 3758 3829 6559 4728 4025 3505 5570 1831 64 17889 2137 1767 1452 253 173 685 258 703 3247
is_linear=0
shrinkage=0.03


Tree=10
num_leaves=29
num_cat=0
split_feature=19 23 25 46 44 38 45 5 30 46 40 27 48 51 48 61 51 23 40 44 5 51 51 28 5 25 46 49
split_gain=60.9784 84.6736 39.0435 32.1864 34.1729 33.8127 31.691 38.1694 28.9103 26.3441 25.1728 29.0218 32.0628 24.1978 23.5997 23.5644 36.7973 23.7407 18.2852 17.0862 22.4797 16.803 14.7996 14.2675 10.9623 10.4689 10.0988 1.29817
threshold=0.0020605351840741006 -0.9159756150367534 -0.70440582564969068 0.0017775208138322001 0.00012522255579590003 0.59144816944535117 0.00046710872989965004 -0.0011191555092492998 0.0012623951400737503 0.0009808382759666002 0.54435704695614773 0.0011128000152343502 0.0084765405000000026 0.5907607800000001 -0.0046040434999999992 0.0019463405423227002 0.31928650000000008 0.91597561503675362 0.46367945181897668 0.00016637546082735001 0.0029280689659794005 0.84606990500000012 0.15943947500000002 0.0025739056191863507 0.00068305361041140012 -1.0000000180025095e-35 0.0010961929136504504 0.54887607500000013
decision_type=2 2 2 2 2 2 2 2 2 2 2 2 2 2 2 2 2 2 2 2 2 2 2 2 2 2 2 2
left_child=1 3 -3 4 5 -1 14 -8 -6 10 18 12 -12 22 -4 19 27 -18 25 20 -11 -13 -5 -15 -20 -2 -21 -17
right_child=9 2 6 13 8 -7 7 -9 -10 15 11 21 -14 23 -16 16 17 -19 24 26 -22 -23 -24 -25 -26 -27 -28 -29
leaf_value=-0.0047420021821466566 0.011397064982180124 0.032725106541062574 -0.0020004085536041018 -0.002433365025873335 0.0015015150646548734 0.00048244566099709166 -0.0037378829999572339 0.00055541067474061722 -0.0049396598840587879 -0.015660341720927805 0.0024792244832536549 0.022504606332828903 -0.0081458866592429915 -0.0091309619259793903 0.0041028059258282424 0.0071552418225246375 -0.019035971745239071 0.0092067635232088128 0.005906135216778359 -0.0054370254267938388 0.018623175351845506 -0.012492623790819491 -0.026199096124833145 0.028561691359746715 0.014842671227219618 -0.00092933184724360691 0.0099173902203325056 0.031858774497355191
leaf_weight=5673.615310177207 77.93953999131918 31.040860779583454 688.55068108439445 34.571370773017406 2583.1710415557027 1374.1126932352781 2183.042406886816 12624.723873987794 824.76471118628979 79.470769882202148 5391.9424086734653 89.062202908098698 264.28027477860451 16.565092340111732 3117.8494806140661 9.1852341890335101 180.64040028303862 27.975318521261215 237.68576834350824 45.355149477720261 18.355587914586067 11.139762580394743 106.49308742582798 13.116877965629103 311.76320503652096 249.50045973062515 162.89700100570917 11.285901360213755
leaf_count=14125 151 46 1429 80 6369 3300 5013 26660 2201 182 12074 170 669 42 6371 30 502 65 472 109 32 22 324 21 646 521 354 16
internal_value=0 -0.000606702 0.000610099 -0.0027441 -0.00252708 -0.00371935 0.000549668 -7.61337e-05 -5.15112e-05 0.00247993 0.00299933 0.00226815 0.00197342 -0.015588 0.0029902 -0.00388306 -0.0111091 -0.01503 0.00774105 0.00148359 -0.00856732 0.0180731 -0.0207549 0.0077008 0.0110842 0.00199073 0.00640163 0.024384
internal_weight=36440.1 29271.6 18645.2 10626.4 10455.7 7047.73 18614.2 14807.8 3407.94 7168.48 6633.31 5756.42 5656.22 170.746 3806.4 535.165 229.087 208.616 876.889 306.079 97.8264 100.202 141.064 29.682 549.449 327.44 208.252 20.4711
internal_count=81996 65981 39519 26462 25995 17425 39473 31673 8570 16015 14725 12935 12743 467 7800 1290 613 567 1790 677 214 192 404 63 1118 672 463 46
is_linear=0
shrinkage=0.03


Tree=11
num_leaves=29
num_cat=0
split_feature=20 24 53 24 45 53 23 29 21 53 28 53 30 6 24 53 49 30 6 30 26 39 6 24 30 36 46 41
split_gain=66.2473 65.6456 49.1464 45.2985 36.5229 40.3743 33.0819 66.8629 39.21 31.4949 36.1384 32.5028 48.9383 37.3999 28.7539 47.4925 31.8892 25.5147 19.2337 21.3996 14.9627 5.41779 5.40423 5.37852 5.31858 1.84181 1.57034 0.74209
threshold=0.0035028798458056503 0.98296291314453432 -0.0073837891499999994 -0.37940952255126009 0.00083225289722705005 0.033774876500000002 0.12940952255126043 -0.00061194539116824983 -0.0010041509819285498 -0.028690199999999996 0.0028046293024791007 0.0075901298000000004 0.0010093292653531002 0.0010485203455348501 -0.9159756150367534 0.033774876500000002 0.85928267000000014 0.0024047600734631506 0.0024872593116143506 0.00064335552948265008 1.0000000180025095e-35 0.41785813141681599 0.00065952864672960015 -0.12940952255126034 0.00094004487987630009 0.00102347865023625 0.0010725606899936002 0.0039439780830836007
decision_type=2 2 2 2 2 2 2 2 2 2 2 2 2 2 2 2 2 2 2 2 2 2 2 2 2 2 2 2
left_child=1 2 6 14 5 -4 7 -1 -8 10 21 12 -11 -13 18 16 -16 -6 19 -2 22 -5 25 -12 -22 -3 -20 -17
right_child=3 20 4 9 17 -7 8 -9 -10 11 23 13 -14 -15 15 27 -18 -19 26 -21 24 -23 -24 -25 -26 -27 -28 -29
leaf_value=0.017218984356355025 0.0098682387902061051 -0.031885745401432339 0.0016916823099019107 -0.0051054064747631418 -0.0011292282528347524 0.016257782469815057 -0.016756099595927061 -0.00092182257040483706 -0.0032845854469931977 -0.0037716139930717529 -0.020862738427619192 -0.0094499402788637103 -0.013301006169749663 0.00068918118005594029 -0.00021693261621642671 0.034026886372001394 0.012072623419797496 -0.015396704609463211 0.028071787696900156 -0.010573297422788158 -0.011760024687025068 0.032361958714853617 -0.0028147021281600612 0.00067732231793283572 0.015024063004957828 -0.010924921337434041 0.0048062527514674451 0.011749695968010461
leaf_weight=185.65910444408655 49.12096331268549 69.66276278346777 19510.756426244974 1.4784000143408764 2966.7364794388413 170.35023766011 222.33188203722239 5877.3206172659993 1534.2711057439446 1134.15287681669 15.138350531458853 451.55447973310947 865.18358039855957 1153.4467993080616 1377.1028423532844 38.106810592114925 216.64477474242449 114.84170777350664 10.180355034768583 349.33185358345509 10.740924611687662 43.677018657326698 11.007085166871546 18.273187547922134 9.7873291745781881 13.306284636259077 9.7993126735091192 10.595688991248606
leaf_count=401 113 168 43619 8 7336 301 560 12735 3239 2837 21 981 2320 2710 2688 63 443 329 19 811 25 77 35 59 22 24 22 30
internal_value=0 0.000553113 0.000639995 -0.00295645 0.00134551 0.00182174 -0.00140965 -0.000353132 -0.00503237 -0.00494897 0.0134085 -0.00536826 -0.00792405 -0.00215703 0.000591762 0.00239496 0.00145439 -0.00168512 -0.0063817 -0.00792364 -0.0218201 0.0302706 -0.0267538 -0.0091731 2.22722e-05 -0.0293716 0.0200835 0.0307235
internal_weight=36440.6 30696.8 30582.3 5743.79 22762.7 19681.1 7819.58 6062.98 1756.6 3682.9 78.567 3604.34 1999.34 1605 2060.88 1642.45 1593.75 3081.58 418.432 398.453 114.504 45.1554 93.9761 33.4115 20.5283 82.969 19.9797 48.7025
internal_count=81996 68794 68520 13202 51585 43920 16935 13136 3799 9013 165 8848 5157 3691 4189 3224 3131 7665 965 924 274 85 227 80 47 192 41 93
is_linear=0
shrinkage=0.03


Tree=12
num_leaves=31
num_cat=0
split_feature=23 23 23 23 23 53 62 1 53 30 43 43 1 18 1 38 1 47 1 30 53 9 53 46 62 50 62 36 33 26
split_gain=204.649 204.959 70.2521 65.4128 61.4347 41.9879 30.4215 29.2744 38.8485 26.4454 26.2735 24.5976 19.8859 14.8811 14.4645 14.3732 13.8798 11.2346 10.849 8.06829 7.0245 6.01652 5.7796 5.45351 5.25601 3.88465 3.77608 1.90586 1.47976 1.34945
threshold=-0.9159756150367534 -0.60355339059327362 -0.5 0.91597561503675362 -0.9829629131445341 -0.016238852499999998 1.0000000180025095e-35 0.0017726823984389002 0.0098668815000000024 0.00070555834755445018 0.0015973638003976504 0.0013390650795814002 0.0013828082862953502 2.538880145857601e-05 0.0011604072611227001 0.85703289987813125 0.0012531531464665502 0.4601106107769995 0.00099874430457560018 0.00077850045016780018 0.0103258085 0.011725239072046752 0.017750919000000004 0.00048941986329370014 1.0000000180025095e-35 -0.010389633999999998 1.0000000180025095e-35 -0.0021970911128630496 0.00103788257672565 0.81174490092936691
decision_type=2 2 2 2 2 2 2 2 2 2 2 2 2 2 2 2 2 2 2 2 2 2 2 2 2 2 2 2 2 2
left_child=4 10 7 5 11 -4 9 8 -3 25 18 14 -5 -11 22 16 -13 20 19 -2 -12 -9 -1 -19 -16 -6 -20 -8 -17 -29
right_child=1 2 3 12 6 -7 27 21 -10 13 17 15 -14 -15 24 28 -18 23 26 -21 -22 -23 -24 -25 -26 -27 -28 29 -30 -31
leaf_value=0.0089733880847225021 -0.0074538434456069115 0.028823134068532784 -0.0077233348132376128 0.016694466815000652 0.01722947312404504 0.00095594597780255391 0.006732061986493904 -0.0034611047057746063 0.0032871618660246815 0.0067923470309425391 -0.00098389739249504608 0.017447765743726543 0.0025840700954305358 0.0021793704175159584 0.0020988539353860008 -0.012586455250197214 0.0094825869856790309 0 -0.0082239677972619218 -0.0021817279056697259 -0.0068119814010490021 0.0099216063839986813 -0.0064423380279598919 0.043345813666738432 -0.0085524784605952951 -0.0021110994086966412 -0.010853986418620331 -0.0096062510800632352 0.0002340407741813915 -0.001491784748510848
leaf_weight=575.17606237530708 758.37890790775418 162.60818076133728 598.38252902403474 275.61408971250057 6.1877161450684062 3008.2042320817709 3.2118473760783663 69.642879292368889 84.714983209967613 1300.2645944170654 638.51410065963864 415.69722413644195 142.6041461341083 1273.9936492927372 283.16098523512483 18.003164593130354 451.49133088439703 5.3526986241340619 1805.889990311116 431.37381562963128 270.27990113571286 47.119211729615927 18.422922477126122 4.0077922791242599 45.44466108083725 743.78226756677032 909.29768672958016 191.56825957074761 6.0195416733622542 31.743412993848324
leaf_count=3759 3692 1419 2881 2038 55 17231 26 359 505 8220 3536 3095 839 7425 1643 68 2970 32 8659 2342 1319 319 84 59 209 4009 4116 880 37 170
internal_value=0 -0.00271357 0.00197158 0.000817178 0.00465558 -0.000480978 0.00234624 0.0145403 0.0203404 0.00307975 -0.00698173 0.00914951 0.012007 0.00452623 0.00562737 0.0127295 0.0133823 -0.00235928 -0.00805826 -0.00557776 -0.00276681 0.00180223 0.00841467 0.0258483 0.000471307 -0.00184368 -0.00912679 -0.00818689 -0.00859442 -0.00862042
internal_weight=14576.2 9211.99 4388.89 4024.8 5364.17 3606.59 3550.75 364.085 247.323 3324.23 4823.09 1813.42 418.218 2574.26 922.205 891.211 867.189 918.154 3904.94 1189.75 908.794 116.762 593.599 9.36049 328.606 749.97 2715.19 226.524 24.0227 223.312
internal_count=81996 49346 25591 22989 32650 20112 20785 2602 1924 19709 23755 11865 2877 15645 5695 6170 6065 4946 18809 6034 4855 678 3843 91 1852 4064 12775 1076 105 1050
is_linear=0
shrinkage=0.03


Tree=13
num_leaves=31
num_cat=0
split_feature=10 24 53 61 24 26 9 50 53 50 17 49 30 21 53 50 53 24 53 18 61 63 40 53 46 53 50 63 50 18
split_gain=69.7416 93.1225 91.4846 59.6959 54.9471 45.4438 41.7843 41.5675 40.6188 53.6084 30.5275 26.4495 19.5333 25.8217 29.1706 37.3036 25.0345 24.0463 25.246 18.2343 17.0858 16.1629 15.2035 13.3967 12.8205 14.3979 10.5641 9.97494 9.1018 8.81831
threshold=0.82526618994424783 -0.37940952255126009 -0.0077393928499999995 0.010681423392496002 0.98296291314453432 0.81174490092936691 0.011626086651003701 -0.015870431999999997 -0.015816105499999997 -0.0078932829999999992 0.74621840664181216 0.25629697500000009 0.0015595134026874004 0.0018639460318487001 0.018492695000000003 0.009265798250000002 0.019675808000000006 0.25881904510252057 0.0076863330000000009 0.0010417827860117002 0.0023228655013362502 0.0012628684087115504 0.29593818356200113 0.0037341264500000003 0.00077989485815040018 0.017288132000000001 0.0014085981000000003 -0.0094041374542637481 0.016339846000000002 0.0037388392185303005
decision_type=2 2 2 2 2 2 2 2 2 2 2 2 2 2 2 2 2 2 2 2 2 2 2 2 2 2 2 2 2 2
left_child=1 3 5 8 10 6 -3 -7 11 -10 -4 -1 13 14 15 -2 -16 18 -15 -19 24 -6 -5 26 29 -26 -22 -24 -25 -14
right_child=12 2 4 22 21 7 -8 -9 9 -11 -12 -13 20 17 16 -17 -18 19 -20 -21 23 -23 27 28 25 -27 -28 -29 -30 -31
leaf_value=-0.0031813695071170986 0.0035998134717620651 0.0051592810651062502 -0.003501726119889153 -0.023804383788765208 0.028724738007644853 0.0094379928134986635 -0.0026747968440513593 -0.0078293034486152224 -0.0063437091195213176 0.0015206355063351767 0.0086382157403657855 0.0082460286320479702 0.021640375789496791 0.005977275607480406 0.022008531396750651 -0.0051257994959241658 0.0063863556825326283 0.015991645392730847 -0.011453658881250457 -0.019038897898639776 -0.0055425716373537258 -0.0092754811800775747 0.012208954462692273 -0.022495151860459434 0.0099179281575912954 -0.018037858291309175 0.018728812251348564 -0.020537591275956845 0.00051840160698272671 0
leaf_weight=210.76983217149973 3182.5438209697604 2661.4321968257427 13150.798006013036 102.6856427192688 59.195819996297359 150.99025690555573 788.13800164312124 654.42043166607618 833.88335827738047 11301.393700413406 184.94069515168667 1147.856372281909 141.54660725593567 222.4287763312459 115.60187757015228 506.57487317174673 493.65586227178574 11.896892592310904 108.8359859213233 112.27620609849691 22.510185867547989 9.206208832561968 19.996170334517959 26.253187276422977 109.951833948493 15.99829115718603 37.372612334787846 10.157336398959158 27.384096555411816 17.839735798537731
leaf_count=389 6942 6381 33629 233 140 312 1879 1532 1687 21977 388 2107 303 504 205 1208 911 29 210 299 46 37 35 84 255 37 89 26 68 54
internal_value=1.50371e-08 -0.000531881 -0.00197018 0.00132986 -0.00318742 0.0018569 0.00335994 -0.00453208 0.00153078 0.000976326 -0.00332921 0.00644811 0.00323382 0.00268614 0.00340995 0.00239033 0.00949286 -0.00405723 0.000109251 -0.0151487 0.00961795 0.0230153 -0.0184427 0 0.0135002 0.00579728 0.00929887 0 -0.010811 0.0191829
internal_weight=36438.5 31285.9 17659.1 13626.7 13404.1 4254.98 3449.57 805.411 13493.9 12135.3 13335.7 1358.63 5152.67 4753.81 4298.38 3689.12 609.258 455.438 331.265 124.173 398.857 68.402 132.839 113.52 285.336 125.95 59.8828 30.1535 53.6373 159.386
internal_count=81996 70752 44298 26454 34194 10104 8260 1844 26160 23664 34017 2496 11244 10308 9266 8150 1116 1042 714 328 936 177 294 287 649 292 135 61 152 357
is_linear=0
shrinkage=0.03


Tree=14
num_leaves=31
num_cat=0
split_feature=20 60 50 7 5 30 61 49 51 49 25 51 51 18 43 28 50 25 6 51 28 51 6 51 63 51 51 50 43 60
split_gain=61.8534 38.302 51.9389 35.7714 33.7721 43.1191 32.376 39.149 31.2027 29.4989 26.5592 22.1735 59.443 30.6402 27.4338 35.4547 32.3392 25.5396 19.8364 17.1258 29.3233 23.2853 16.3651 16.2833 15.0806 12.1491 10.7394 9.96739 9.59048 4.38266
threshold=0.0036943171930660006 0.0022681000895590003 0.0013132685000000002 -0.00041593258484119998 -0.0041043040451600498 0.0025663259136055002 0.0035336669883593505 0.26010787500000004 0.54534600000000011 0.58651696500000006 1.0000000180025095e-35 0.44137523500000003 0.31928650000000008 0.0012078933822156003 0.0014746487545832002 0.00085154773129825017 0.0085610080000000019 0.87837969732492682 -0.0012172888007786497 0.78604978500000011 0.00074724791553975017 0.77166693500000016 0.0017791881093668002 0.23717183500000003 0.0066261658001166004 0.28971402500000004 0.30322235000000003 -0.0089574904999999982 0.0016127070679520501 0.0084064094701369017
decision_type=2 2 2 2 2 2 2 2 2 2 2 2 2 2 2 2 2 2 2 2 2 2 2 2 2 2 2 2 2 2
left_child=1 2 3 23 10 18 8 -8 -4 -5 29 12 25 24 19 28 -17 -15 -6 21 -21 -13 -7 -1 -14 27 -12 -2 -16 -3
right_child=11 4 6 9 5 22 7 -9 -10 -11 26 14 13 17 15 16 -18 -19 -20 20 -22 -23 -24 -25 -26 -27 -28 -29 -30 -31
leaf_value=0.010821498719999628 -0.022457692770116014 0.029838691887279552 0.0071029284447766761 -0.00087022809039069766 0.0024270324374401327 -0.025376927251972034 0.011100765135900824 -0.006600740408496431 0.0024669967771943019 0.0036562696612485387 -0.024326287876765666 -0.0023084156886301775 0 0.031157595963872884 -0.0083326026684035805 -0.0094240162699620114 -0.0007130726319346521 -0.012714874688860119 -0.0024149221028748617 0.0086996505952507096 -0.002625614707147205 -0.01513213749074236 0.0089729055107934351 0.0028283542057243828 0.018042989854826667 -0.03009697117675984 0.011986799696081265 0.00036795626407498363 -0.0188431458348692 0.0053058125815044115
leaf_weight=279.56716252863407 22.49330760538578 52.66978358477354 1657.4332183599472 13528.205625787377 901.32148665934801 90.387563921511173 135.37122710049152 582.76173446327448 6384.502951644361 1428.4510035738349 14.303753957152368 1941.7039523348212 185.61384297162294 75.594713926315308 154.49487341940403 655.25221253931522 940.30567277222872 11.329277716577051 4668.8607776984572 337.69135832041502 511.48918401449919 134.9078147560358 11.474001988768576 1363.9740896895528 50.477480359375477 34.510052554309368 9.0496041402220708 45.238376840949059 217.03512269258499 12.673510544002054
leaf_count=571 40 89 3637 30584 2444 245 242 1290 14166 2976 33 4292 376 154 414 1643 2378 24 10514 728 1132 257 25 2886 84 64 28 95 555 30
internal_value=0 0.000510682 0.00101304 2.4852e-05 -0.00169501 -0.00199071 0.00288158 -0.00319003 0.00342848 -0.000435268 0.016334 -0.00298936 0.00352762 0.00989045 -0.00356371 -0.00630658 -0.00432016 0.0248724 -0.00162517 -0.00170479 0.00185764 -0.00317657 -0.0210756 0.00422345 0.00400605 -0.0159985 -0.00935364 -0.00741918 -0.0146544 0.0259612
internal_weight=36439.1 31121 25360.3 16600.2 5760.74 5672.04 8760.07 718.133 8041.94 14956.7 88.6967 5318.14 425.257 323.015 4892.88 1967.09 1595.56 86.924 5570.18 2925.79 849.181 2076.61 101.862 1643.54 236.091 102.242 23.3534 67.7317 371.53 65.3433
internal_count=81996 69760 56352 37017 13408 13228 19335 1532 17803 33560 180 12236 837 638 11399 4990 4021 178 12958 6409 1860 4549 270 3457 460 199 61 135 969 119
is_linear=0
shrinkage=0.03


Tree=15
num_leaves=31
num_cat=0
split_feature=24 24 1 24 41 53 53 1 43 43 53 42 53 18 1 53 53 24 24 50 24 43 53 3 37 51 53 17 42 7
split_gain=492.025 90.8638 77.1978 68.5738 39.1651 44.2576 31.7561 28.735 27.7402 26.8197 23.6057 22.6303 20.8892 19.8527 11.3236 11.1757 20.3428 10.5328 9.44991 9.02568 8.95218 8.80392 10.5227 6.8608 5.99235 5.88059 4.62768 3.51668 3.41844 2.90678
threshold=-0.12940952255126034 -0.37940952255126009 0.0017005552263373504 -0.9159756150367534 0.0017091393265178502 -0.027061005499999995 0.018492695000000003 0.00088134155874810009 0.0015761981951777002 0.0012836448825735501 -0.020785323999999997 0.0019892716453810502 0.027233701500000002 -0.00047517479757404991 0.0035714248631867006 -0.013200456499999997 0.0053078024500000012 -0.78656609248549325 0.37940952255126043 -0.011661310499999999 0.37940952255126043 0.0011005204594053501 -0.016238852499999998 1.0117928825945866 0.0012332894957854501 0.79911715000000016 -0.03221037949999999 -0.090800402808229833 0.0011276931401543002 0.00018832390248580005
decision_type=2 2 2 2 2 2 2 2 2 2 2 2 2 2 2 2 2 2 2 2 2 2 2 2 2 2 2 2 2 2
left_child=1 3 4 21 6 27 7 -2 18 23 20 17 -7 -8 -12 26 -17 -5 28 -13 -10 25 -23 24 -3 -1 -11 -6 -4 -25
right_child=2 9 8 11 5 12 13 -9 10 15 14 19 -14 -15 -16 16 -18 -19 -20 -21 -22 22 -24 29 -26 -27 -28 -29 -30 -31
leaf_value=-0.004376280840497457 0.011783088214426543 -0.0018171180827981229 -0.0039937388588530531 -0.0052554543109680765 -0.011379891268364395 0.021751287873590402 0.017307431841875259 0.0061699403191476212 0.0062198005356754772 -0.01489911441881084 0.010114362087182261 -0.010850117576480724 0.0015863362775322511 -0.0024795509548777347 -0.0015830316827389573 0.0068828659831188903 -0.00050049030291423973 -0.0092857008549673131 -0.0063662289221726037 0.0010500106547568224 -0.0091553264614791987 -0.005558951157976548 0.0034777348928199457 -0.0070444419539078436 0.01221058345655205 0.017603258211504675 -0.0017378350063473175 0.0016468330782137724 0.0032303866691058658 -0.0012595547363769362
leaf_weight=367.77995113283396 1480.3710205219686 631.13387577980757 83.021993067115545 751.20991796255112 40.960268776863813 423.39531407505274 48.882732283324003 1956.2728657834232 42.466775871813297 27.468595147132874 420.86412954330444 66.11484208330512 56.053004153072834 375.38033103942871 84.266253780573606 766.84606801345944 582.41392780467868 3793.2474136613309 431.39492510259151 320.73361206054688 119.2144362218678 136.11204174906015 651.3038731366396 410.27038096264005 25.270295798778534 7.8896251432597628 159.91299052536488 25.081592369824648 175.42078689858317 114.6985094845295
leaf_count=1901 10118 3423 425 3829 172 3347 373 12191 270 100 2796 290 323 1984 449 4855 3225 17889 2128 1847 550 688 3902 1995 183 68 856 150 1041 628
internal_value=0 -0.00445824 0.00681256 -0.00649184 0.00873846 0.0163071 0.00764952 0.00860475 0.000529705 9.26405e-05 0.00490116 -0.00803649 0.0194805 -2.4005e-05 0.00810613 0.00271406 0.00367958 -0.00862999 -0.00365546 -0.000974688 -0.00489503 3.53611e-05 0.00186254 -0.00329002 -0.00117849 -0.00369965 -0.00402912 -0.00614145 0.000775767 -0.00585168
internal_weight=14575.5 8812.41 5763.05 6094.39 4406.4 545.49 3860.91 3436.64 1356.65 2718.01 666.812 4931.31 479.448 424.263 505.13 1536.64 1349.26 4544.46 689.838 386.848 161.681 1163.09 787.416 1181.37 656.404 375.67 187.382 66.0419 258.443 524.969
internal_count=81996 45679 36317 30414 28658 3992 24666 22309 7659 15265 4065 23855 3670 2357 3245 9036 8080 21718 3594 2137 820 6559 4590 6229 3606 1969 956 322 1466 2623
is_linear=0
shrinkage=0.03


Tree=16
num_leaves=26
num_cat=0
split_feature=10 23 53 5 23 49 6 53 23 9 26 53 53 44 50 44 53 40 51 51 25 3 3 53 10
split_gain=65.1673 72.2392 43.7257 49.362 41.5235 38.6091 37.6626 39.4573 33.5343 31.5667 43.4161 41.2929 41.3598 37.6077 33.0756 17.5557 17.5254 15.8857 19.9431 30.5128 29.2033 12.8823 11.822 7.9372 6.64717
threshold=0.82526618994424783 -0.9159756150367534 -0.015354091499999998 0.00086829155120825014 -0.37940952255126054 0.66915448500000008 -0.0019765711513061494 -0.0038542203999999999 0.78656609248549325 0.015037380418735801 1.0000000180025095e-35 -0.0062405589999999988 -0.0065058444999999991 0.00014241526064470003 0.0010114124500000003 0.00015717562619645004 -0.047537983999999998 0.53415912415638755 0.79911715000000016 0.77166693500000016 0.6078576107927941 1.0372402204235376 1.1008794184630208 0.012638970000000001 1.0843410962215525
decision_type=2 2 2 2 2 2 2 2 2 2 2 2 2 2 2 2 2 2 2 2 2 2 2 2 2
left_child=1 9 3 4 -3 -5 7 -4 -8 11 15 12 -1 -13 -12 -11 24 21 19 -19 -20 23 -23 -18 -2
right_child=16 2 6 5 -6 -7 8 -9 -10 10 14 13 -14 -15 -16 -17 17 18 20 -21 -22 22 -24 -25 -26
leaf_value=0.00038342528234118164 0.028398057622790945 0.00098190218230168242 -0.017927078309969525 -0.019801674477195337 0.0089460155647090086 0.0057285058876729248 0.00065102350958826788 0 -0.0042438061033349267 -0.0044672929362852476 -0.0090618667329046554 -0.0043329105032341355 0.020082061282604095 0.00027321409111048881 0.022808889703931426 -0.023239764599566688 0.0099356670134128598 0.0025396312403362107 0.0020241225831506061 0.012631079734150487 -0.0095698208897511388 -0.0081944940226473997 0.00702800708656661 0.0264585693259159 0.001327259013616243
leaf_weight=2520.2581751346588 31.394833616912365 1070.5758942365646 209.66944875568151 128.03598956763744 1335.2842543423176 85.581904798746109 15502.656186014414 227.8436912894249 1367.3105339184403 67.691590033471584 68.346575021743774 6254.1027052626014 96.921143583953381 2124.7115588486195 46.207871459424496 176.36082747578621 99.196852259337902 3418.4956732690334 613.87302643805742 292.44660498946905 281.8411603346467 49.51332725584507 309.9852364435792 43.90896962583065 14.271077379584311
leaf_count=6203 50 2051 551 273 2608 200 32326 613 3764 157 200 15661 185 5329 118 513 217 7581 1350 592 662 101 587 79 25
internal_value=7.32779e-09 -0.000514285 0.000572762 0.00418275 0.00542018 -0.00949732 2.40291e-05 -0.0086337 0.000251836 -0.00242431 -0.0111675 -0.00213347 0.00114653 -0.00316162 0.00379266 -0.0182718 0.00312518 0.00294582 0.00238063 0.00335254 -0.00161036 0.00802185 0.0047982 0.0156499 0.0211579
internal_weight=36436.5 31281.6 19927 2619.48 2405.86 213.618 17307.5 437.513 16870 11354.6 358.607 10996 2617.18 8378.81 114.554 244.052 5154.93 5109.26 4606.66 3710.94 895.714 502.604 359.499 143.106 45.6659
internal_count=81996 70752 42386 5132 4659 473 37254 1164 36090 28366 988 27378 6388 20990 318 670 11244 11169 10185 8173 2012 984 688 296 75
is_linear=0
shrinkage=0.03


Tree=17
num_leaves=29
num_cat=0
split_feature=48 24 53 51 50 30 53 50 18 53 25 23 30 51 28 50 50 50 17 49 23 48 44 26 53 6 30 36
split_gain=65.6927 61.0478 44.4203 42.7334 49.0538 36.0482 35.1579 37.375 35.3923 47.1951 43.8398 40.9214 34.7757 34.7583 32.9026 32.5058 31.6545 30.3461 28.4946 26.3417 22.1785 17.0925 14.5573 14.264 10.44 5.37912 5.19876 1.83773
threshold=0.0034740310000000003 0.98296291314453432 -0.0073837891499999994 0.60204345000000015 -0.013703249999999998 0.0024047600734631506 0.0075901298000000004 0.0022708063500000005 0.0041799158927010504 0.018492695000000003 0.87837969732492682 0.78656609248549325 0.0013527541377622002 0.31928650000000008 0.0010453810193794503 -0.0068550228499999989 0.0028213707500000002 -0.0043913232999999987 0.20940098360826767 0.62740687000000006 0.37940952255126054 0.0037812166000000002 7.1046951881395575e-05 1.0000000180025095e-35 0.033774876500000002 0.00065952864672960015 0.00094004487987630009 0.00102347865023625
decision_type=2 2 2 2 2 2 2 2 2 2 2 2 2 2 2 2 2 2 2 2 2 2 2 2 2 2 2 2
left_child=1 2 3 4 -1 15 7 13 9 11 -11 -8 16 21 22 -4 -9 -15 -5 -14 -7 -2 -10 25 -16 27 -25 -3
right_child=6 23 5 18 -6 20 8 12 14 10 -12 -13 19 17 24 -17 -18 -19 -20 -21 -22 -23 -24 26 -26 -27 -28 -29
leaf_value=0.0035546166039981631 0.0040047682197361829 -0.031079994365703863 0.0052896849095103154 0.0030796514423293594 -0.0030679362951468356 -0.021164674131828942 0.0043756729598179202 -0.018840922960821273 0.023554820496650974 -0.0082258434642057746 0.010414722097760273 -0.015579124359723581 0.0092949203768555311 0.013647672352345217 0.012584898259341689 0.0010481609673768473 -0.0041645234020081835 -0.00088749337100398312 0.01982946986381812 -0.017444073858300699 0.0083034187746165583 -0.025005298429541068 -0.019462205211226179 -0.011511472733206468 0.033444180681763733 -0.0021239215762719507 0.014957178395441351 -0.01039244136517758
leaf_weight=1200.9635702818632 21.487545415759087 68.98215513676405 1764.984348975122 489.90754120051861 6048.9265286400914 97.739766880869865 1134.1635981723666 143.27428977936506 5.8285694867372504 913.97094788402319 125.66319178789854 97.256021991372108 32.960279017686844 154.81972303986549 64.02416954189539 21056.480879493058 1618.3751205429435 697.87907517701387 111.89368371665478 376.84843971580267 26.324867196381092 66.802153415977955 28.969286218285561 10.717678844928743 44.548739574849606 10.787041291594504 9.7911401167511922 13.231944277882574
leaf_count=2434 36 168 4212 1093 13266 291 2587 315 10 1893 265 275 83 306 143 47362 3965 1575 209 1050 64 135 77 25 78 33 22 24
internal_value=0 0.000538414 0.000621299 -0.00132418 -0.00196574 0.00128841 -0.00301182 -0.00511823 -0.000281055 -0.00121321 -0.00592045 0.00274133 -0.00728 -9.05842e-05 0.014002 0.00137816 -0.00540515 0.00175511 0.00632648 -0.0151689 -0.0146274 -0.0177167 -0.0101656 -0.0211293 0.0220817 -0.0259911 0.000144996 -0.0285856
internal_weight=36437.6 30910.7 30797.2 7851.69 7249.89 22945.5 5526.87 3112.45 2414.42 2271.05 1039.63 1231.42 2171.46 940.988 143.371 22821.5 1761.65 852.699 601.801 409.809 124.065 88.2897 34.7979 113.51 108.573 93.0011 20.5088 82.2141
internal_count=81996 69203 68931 17002 15700 51929 12793 7465 5328 5020 2158 2862 5413 2052 308 51574 4280 1881 1302 1133 355 171 87 272 221 225 47 192
is_linear=0
shrinkage=0.03


Tree=18
num_leaves=31
num_cat=0
split_feature=24 24 62 24 53 43 1 24 43 43 24 51 23 3 53 1 43 53 43 3 18 37 44 61 28 25 44 44 41 46
split_gain=470.816 87.3047 77.7506 66.7336 57.1892 40.0011 40.4942 29.523 25.7411 21.0506 14.1147 18.1987 14.0508 11.0068 10.2445 9.27452 8.46646 10.7305 8.23256 6.64476 6.50099 5.75154 4.49015 3.80226 3.11832 3.09221 2.07054 1.78013 1.61231 1.40933
threshold=-0.12940952255126034 -0.37940952255126009 1.0000000180025095e-35 -0.9159756150367534 -0.021507561999999997 0.0018749432403111002 0.0012473966905419001 0.78656609248549303 0.0012836448825735501 0.0019058782314334503 0.37940952255126043 0.45236854500000007 0.37940952255126054 1.2907844815017948 -0.03221037949999999 0.0010347973734272002 0.0011082511298060001 -0.016238852499999998 0.0019210615975631003 1.0117928825945866 0.0010202464013056003 0.0012332894957854501 0.00014473468275910003 0.0097685158936336516 0.0012101900461310002 1.0000000180025095e-35 0.00011977315839395001 2.6335851090889423e-05 0.0010707079441781501 0.00055042312712715003
decision_type=2 2 2 2 2 2 2 2 2 2 2 2 2 2 2 2 2 2 2 2 2 2 2 2 2 2 2 2 2 2
left_child=1 3 4 16 10 6 -6 -7 19 12 11 -2 -5 14 -10 26 20 -18 25 21 -1 -3 -11 -12 -20 -17 28 -21 -4 -15
right_child=2 8 15 9 5 7 -8 -9 13 22 23 -13 -14 29 -16 18 17 -19 24 27 -22 -23 -24 -25 -26 -27 -28 -29 -30 -31
leaf_value=-0.0050395588148077972 0 -0.0017992959424425951 -0.0041743122121437647 -0.009281015367239227 0.0094921375813096908 0.011814846293231178 0.0031337866508237464 0.027269085833350977 -0.01464878024252295 -0.0063335690048561127 -0.0084773070589883783 0.032429904624550941 -0.0046081308398971963 0.0020526042485328644 0.0036447897569988398 -0.0028829831777333432 -0.0056511949115342786 0.0035595264171552339 -0.00570047774642558 0.0022101021460280705 0.0059485877818278446 0.011884221285620038 0.00036169261998965119 0.007665473397837675 0.011765502676272202 -0.0084389611270217022 0.018385081061879444 -0.0061195997579293311 0.011208355708048312 -0.0084574560207471023
leaf_weight=341.29016123712063 103.96745986491442 630.66078886389732 10.604323878884321 3739.3365187868476 2911.0412890575826 503.35429770126939 1334.5557753033936 151.10909386724234 24.580062631517649 120.13781340420246 239.97173474729061 15.123230699449776 729.39470724016428 7.0021526739001265 1426.2171791121364 164.57030250132084 133.70257186517119 635.86806282401085 8.0362521558999997 17.314100228250027 51.456331461668015 25.515220135450363 308.9685217961669 9.6716189011931402 30.264321833848953 291.69536126405001 13.755877416580914 505.63512038812041 6.8882396146655074 83.142653234302998
leaf_count=1743 573 3423 50 17723 19101 3414 7858 1288 90 592 1134 151 3780 45 8516 875 677 3811 35 106 328 183 1760 69 215 1386 114 2517 54 385
internal_value=0 -0.00438178 0.00663327 -0.00638518 0.00773296 0.00859198 0.00750415 0.0155369 7.27692e-05 -0.00791798 -0.00357905 0.00468634 -0.00852861 0.00263427 0.00328463 -0.00431052 5.18336e-05 0.00190473 -0.00536927 -0.00324755 -0.00348994 -0.00117004 -0.00147432 -0.00764957 0.00722652 -0.00653222 0.0105728 -0.00577574 0.00117322 -0.00727917
internal_weight=14574.8 8780.22 5794.61 6060.15 5268.79 4900.06 4245.6 654.463 2720.07 4897.84 368.734 119.091 4468.73 1540.94 1450.8 525.815 1162.32 769.571 494.566 1179.13 392.746 656.176 429.106 249.643 38.3006 456.266 31.2484 522.949 17.4926 90.1448
internal_count=81996 45679 36317 30414 33588 31661 26959 4702 15265 23855 1927 724 21503 9036 8606 2729 6559 4488 2511 6229 2071 3606 2352 1203 250 2261 218 2623 104 430
is_linear=0
shrinkage=0.03


Tree=19
num_leaves=26
num_cat=0
split_feature=10 23 53 23 6 51 27 48 48 44 42 44 25 53 40 51 51 25 51 18 28 36 60 10 39
split_gain=61.0699 67.872 41.6228 50.5934 49.8447 40.0963 33.7432 30.2017 29.2895 28.1055 25.3044 24.241 17.8046 16.862 15.2513 19.1285 29.1307 28.045 13.9096 15.9079 12.7615 13.1558 7.61026 6.29527 6.26281
threshold=0.82526618994424783 -0.9159756150367534 -0.0078797014999999974 0.78656609248549325 0.00080918884745040008 0.71349610000000008 6.7996282722700697e-05 -0.0072166831999999998 -0.0022960120499999994 4.2140564450138234e-05 0.0026346578788137005 5.3544582127494328e-05 0.87837969732492682 -0.047537983999999998 0.53415912415638755 0.79911715000000016 0.77166693500000016 0.6078576107927941 0.097656294500000018 -0.0032717296916060993 0.00051092502539865005 -0.0014949149762079497 0.0017766658469041002 1.0843410962215525 0.39973632157296207
decision_type=2 2 2 2 2 2 2 2 2 2 2 2 2 2 2 2 2 2 2 2 2 2 2 2 2
left_child=1 6 4 7 5 -3 9 -4 -5 12 -11 -6 -1 23 20 16 -16 -17 24 -20 22 -22 -15 -2 -8
right_child=13 2 3 8 11 -7 18 -9 -10 10 -12 -13 -14 14 15 17 -18 -19 19 -21 21 -23 -24 -25 -26
leaf_value=-0.010953812272212244 0.027741709308416192 0.0040383497550852427 -0.0085898525297230417 0.0011270324084317904 -0.027829427379417293 -0.015880519991163834 0.0020919861112771772 0.00048287404964483436 -0.0092853813578435123 -0.0025118179694662286 -0.013372418702683259 -0.0046420220843210345 0 0.0069536678052603031 0.0024517743107688862 0.0019447830574890758 0.012306295405740733 -0.0094192016468144981 0.013767797420590847 -4.0446205531430802e-05 -0.01680720339143791 0.0098230720010369071 -0.024681882975189327 0.0013225631124850088 -0.024622461799642659
leaf_weight=652.90567629039288 31.457441382110119 4780.2303625121713 335.49561116099358 336.07024503499269 45.033947668969631 89.246291175484657 7.4928434416651717 13196.990844257176 827.33703306317329 6745.8462136611342 197.50443913787603 317.59916925430298 169.32330226153135 7.6338339298963573 3419.8046270087361 614.09655954688787 292.83698909729719 281.56351139396429 73.663855113089085 3475.7489848658442 13.861421398818491 467.35884179919958 14.166611261665819 14.269965320825575 26.521589897572994
leaf_count=1593 50 9715 717 841 113 168 20 27676 2388 16634 553 768 432 14 7581 1350 592 662 195 8873 28 904 38 25 66
internal_value=2.25159e-07 -0.000497766 0.000555662 -0.000260669 0.00285313 0.00365757 -0.00234981 0.000253874 -0.00625669 -0.00346072 -0.00283071 -0.00780833 -0.00871488 0.00302484 0.00284878 0.00229487 0.00324644 -0.00161378 5.01465e-05 0.000249067 0.00782026 0.00889466 -0.0128933 0.0207019 -0.0182346
internal_weight=36434.1 31277 19928 14695.9 5232.11 4869.48 11349 13532.5 1163.41 7765.58 6943.35 362.633 822.229 5157.05 5111.32 4608.3 3712.64 895.66 3583.43 3549.41 503.021 481.22 21.8004 45.7274 34.0144
internal_count=81996 70752 42386 31622 10764 9883 28366 28393 3229 19212 17187 881 2025 11244 11169 10185 8173 2012 9154 9068 984 932 52 75 86
is_linear=0
shrinkage=0.03


Tree=20
num_leaves=29
num_cat=0
split_feature=48 24 53 50 45 50 30 53 50 30 48 53 50 50 42 20 50 30 50 48 50 50 7 53 53 45 50 8
split_gain=61.7999 58.5457 41.5388 39.4551 53.5234 45.7459 34.6739 33.7693 35.8028 33.4504 31.4863 31.2028 31.1385 30.5769 29.4034 26.5566 22.4867 22.4753 16.3722 14.2364 7.32902 17.3675 14.0291 6.31813 6.54855 6.21046 6.11187 1.89254
threshold=0.0034740310000000003 0.98296291314453432 -0.0073837891499999994 -0.00017406348499999998 0.00047197274735725001 -0.015870431999999997 0.0024047600734631506 0.0075901298000000004 0.0022708063500000005 0.0013527541377622002 0.012886704000000001 0.018492695000000003 -0.0068550228499999989 0.0028213707500000002 0.0036236706278319005 0.0088141562849431507 0.00042785619000000006 0.00071888569829040006 0.0029583835000000004 -0.0036180076499999995 -0.0086142779999999978 -0.0097553159999999983 8.4571369775856623e-05 0.025701984500000004 0.017288132000000001 0.00047462639387570003 -0.014954636249999998 0.0010069512572944003
decision_type=2 2 2 2 2 2 2 2 2 2 2 2 2 2 2 2 2 2 2 2 2 2 2 2 2 2 2 2
left_child=1 2 3 5 -5 -1 12 8 14 13 11 16 -4 -10 17 -13 -9 -2 -11 -8 21 25 -23 24 -12 -3 -16 -22
right_child=7 20 6 4 -6 -7 19 10 9 18 23 15 -14 -15 26 -17 -18 -19 -20 -21 27 22 -24 -25 -26 -27 -28 -29
leaf_value=0.0044861633407640017 0.010034322294335181 0.0036072382089883657 0.005163131683868772 -0.01622887514301067 0.0081845724177218027 -0.0028729715334929835 -0.022039599917097738 0.034773724953749481 -0.018490831246480738 0.015553424609275258 0.01906653935734301 -0.00600990075727704 0.0010129215828255775 -0.0040481721363018102 0 0.0093111682000973188 0.0019220823196345871 -0.0032397679095382713 -0.015971644500714258 -0.00046984337443014412 0 -0.014764380823904631 0.026528033569591037 0.034950806405571494 -0.0098151820957329012 -0.028097336848797297 0.029901371358759751 -0.030260404226924224
leaf_weight=860.15434343367815 131.27206716686487 3.9147461652755728 1766.0795943140984 88.44607125222683 664.84588529169559 6235.8668270781636 77.315464988350868 16.193826362490654 142.88974499702454 12.148578822612761 16.912291094660763 993.22436074912548 21060.262090459466 1617.1164952665567 8.4249719828367216 109.31625826656818 1248.9078254699707 769.83305710554123 396.54789654165506 46.531014159321785 1.7614582180976857 10.462628178298475 12.672906465828417 21.982411324977875 7.1148402169346801 33.173348255455494 31.184925243258476 51.001481801271439
leaf_count=1716 295 5 4212 168 1570 13548 218 24 315 32 38 2048 47362 3965 22 237 2919 1667 1101 137 4 31 24 32 30 65 68 143
internal_value=0 0.00052207 0.000603073 -0.00127859 0.00522545 -0.00197518 0.00124802 -0.00292236 -0.00498809 -0.00710593 -0.000245864 -0.000749883 0.00133597 -0.00526722 -6.68067e-05 -0.00444255 0.00244753 -0.00124595 -0.0148552 -0.0143748 -0.0207448 -0.0117745 0.00715516 0.0235369 0.00926401 -0.023983 0.0242531 -0.0292613
internal_weight=36435.6 30912.5 30799.5 7849.31 753.292 7096.02 22950.2 5523.07 3109.42 2168.7 2413.65 2367.64 22826.3 1760.01 940.715 1102.54 1265.1 901.105 408.696 123.846 112.987 60.2236 23.1355 46.0095 24.0271 37.0881 39.6099 52.7629
internal_count=81996 69203 68931 17002 1738 15264 51929 12793 7465 5413 5328 5228 51574 4280 2052 2285 2943 1962 1133 355 272 125 55 100 68 70 90 147
is_linear=0
shrinkage=0.03


Tree=21
num_leaves=31
num_cat=0
split_feature=23 23 23 23 23 53 62 1 53 42 30 43 10 18 38 1 1 53 23 1 53 42 25 62 51 36 43 10 33 26
split_gain=177.632 187.935 62.9913 58.6421 53.0024 38.3005 27.9549 25.8275 35.0787 24.6612 23.9624 22.2635 18.9523 13.8331 13.3673 12.5464 12.3081 12.0634 11.912 11.3605 11.1529 5.77401 5.42179 4.7808 4.55369 1.84586 1.7636 1.69353 1.46692 1.33095
threshold=-0.9159756150367534 -0.60355339059327362 -0.5 0.91597561503675362 -0.9829629131445341 -0.016238852499999998 1.0000000180025095e-35 0.0017726823984389002 0.0098668815000000024 0.0018898143278201001 0.00070555834755445018 0.0013390650795814002 0.17837066009550279 2.538880145857601e-05 0.85703289987813125 0.0011604072611227001 0.0012531531464665502 -0.019548972999999994 -0.70710678118654735 0.0010243494532000501 0.0094893060000000012 0.0019052719314306503 -1.0000000180025095e-35 1.0000000180025095e-35 0.37574520500000008 -0.0021970911128630496 0.0020424268955849005 0.17837066009550279 0.00103788257672565 0.81174490092936691
decision_type=2 2 2 2 2 2 2 2 2 2 2 2 2 2 2 2 2 2 2 2 2 2 2 2 2 2 2 2 2 2
left_child=4 9 7 5 11 -4 10 8 -3 18 24 15 -5 -12 16 22 -13 26 19 -2 -19 -9 -1 -17 -6 -8 -11 -20 -16 -27
right_child=1 2 3 12 6 -7 25 21 -10 17 13 14 -14 -15 28 23 -18 20 27 -21 -22 -23 -24 -25 -26 29 -28 -29 -30 -31
leaf_value=0.0020394090309247752 -0.0038310947382655483 0.026857809331206059 -0.0074225102786926048 -0.0024725422461530492 -0.0061901519689917302 0.00092459673899104671 0.0066020446854164463 -0.0033135771671542859 0.0028589864739887176 0 0.0063749965536842607 0.016156533644454782 0.0140988827253552 0.0019512703334601009 -0.012652665191968773 0.0018265741539188612 0.008746586182324571 0.0054822714183365958 -0.013436899135855168 -0.0077572412347580175 -0.0045669548285829694 0.0098450809436352055 0.009183909510519216 -0.0083784894728019567 -0.00053012836414322029 -0.0094246860271003079 -0.011136108244954031 -0.0094627584952828147 5.0822853398957284e-05 -0.0013616026794786035
leaf_weight=136.78180225938559 1043.2967756912112 168.72269126400352 588.34644367173314 70.553677387535572 166.78528828546405 3011.4752313792706 3.2368144728243342 71.653556048870087 86.012973625212908 10.948489636182783 1317.064878936857 428.45448448508978 355.74671511352062 1284.4112752825022 18.107150640338663 285.96258411929011 461.0721114128828 265.69326442852616 182.58925961703062 2080.4853195473552 152.34742227941751 45.639548569917679 470.48994246870279 44.952911388128996 583.29320596531034 189.36818706616759 87.854849345982075 924.73405095562339 6.0827417746186248 31.556929066777229
leaf_count=785 5508 1419 2881 367 820 17231 26 372 505 65 8220 3095 2510 7425 68 1643 2970 1654 782 10186 777 306 3058 209 3244 880 387 4396 37 170
internal_value=-4.45415e-08 -0.00255329 0.00190905 0.000805129 0.00429595 -0.000436353 0.00214792 0.0136738 0.0189985 -0.00669179 0.00284261 0.00841707 0.0112883 0.00420718 0.0117738 0.00508889 0.0123916 -0.000440735 -0.00744744 -0.0064605 0.00174231 0.00167499 0.00764178 0.000287614 -0.00184816 -0.00800701 -0.00975113 -0.0101796 -0.00870177 -0.0084406
internal_weight=14573.7 9146.1 4398.15 4026.12 5427.62 3599.82 3575.72 372.029 254.736 4747.95 3351.55 1851.9 426.3 2601.48 913.716 938.187 889.527 516.844 4231.11 3123.78 418.041 117.293 607.272 330.915 750.078 224.162 98.8033 1107.32 24.1899 220.925
internal_count=81996 49346 25591 22989 32650 20112 20785 2602 1924 23755 19709 11865 2877 15645 6170 5695 6065 2883 20872 15694 2431 678 3843 1852 4064 1076 452 5178 105 1050
is_linear=0
shrinkage=0.03


Tree=22
num_leaves=30
num_cat=0
split_feature=10 24 50 61 48 60 18 6 24 18 29 50 27 21 60 7 44 24 24 50 40 47 37 46 10 10 52 27 49
split_gain=57.4558 77.885 62.1818 56.2361 48.3092 47.2103 45.4153 38.6309 35.119 28.8434 19.812 18.6539 15.6547 28.9649 40.2979 19.8256 26.087 18.7336 17.809 16.7632 14.6071 13.2174 12.0219 9.39278 7.80364 7.34252 4.11149 3.83069 2.79457
threshold=0.82526618994424783 -0.37940952255126009 -0.0015828279999999999 0.010681423392496002 -0.0049124541999999985 0.0026148760922080003 -0.0032717296916060993 0.0010866314551296501 0.9159756150367534 0.0011425016844261004 -0.00068515397272329989 0.0067648062500000007 0.0011128000152343502 0.0021137591163946003 0.007268542892743101 0.00029902314116460007 0.00027748834791525005 0.37940952255126043 0.9159756150367534 0.007426000250000001 0.29593818356200113 0.3218402459690663 0.0018109374030805003 0.00039591731258735007 1.1924441046072614 0.17243033007749217 1.0000000180025095e-35 -0.00087349562603804981 0.85928267000000014
decision_type=2 2 2 2 2 2 2 2 2 2 2 2 2 2 2 2 2 2 2 2 2 2 2 2 2 2 2 2 2
left_child=1 3 4 10 8 9 -6 -7 -3 -4 27 -12 13 15 22 16 -2 21 -17 -16 26 -14 -15 -19 -23 -22 -5 -1 -25
right_child=12 2 5 20 6 7 -8 -9 -10 -11 11 -13 17 14 19 18 -18 23 -20 -21 25 24 -24 28 -26 -27 -28 -29 -30
leaf_value=0 0.00036362652692917193 -0.0054582351877267886 -0.005183302414727726 -0.027255388019477595 0.02343801115105602 0.0047920413100234691 0.0011451594400017572 -0.0054432203310058281 0.0098809919627366113 -0.00077965418545579944 0.0010798675989636263 0.0046999620061846815 -0.0090062002733160978 0.012937456518602 -0.0017692028822676928 0.0055658283784216171 0.014902791556844257 0.010565785907667056 -0.0085058727704790116 -0.019127699547132834 0.0098956527408622548 0.028369541724028415 -0.016632614111395203 -0.026439162751914717 0.0099859047934689783 -0.018790008049478078 -0.0098374821288193491 -0.027179018144930765 -0.0016918395739739024
leaf_weight=5.3036767989397076 2089.6559034734964 1616.142575584352 6584.9127069562674 74.805103443562984 80.581072516739368 1022.5313866063952 6003.7852311879396 485.95375487208366 142.48095731437206 1702.4142213612795 12033.713929452002 1439.7008748874068 11.618317618966101 93.340048663318157 83.261191166937351 2387.0954761356115 114.67632889002562 14.604817800223826 79.550394386053085 143.30894988775253 21.099053621292118 61.938985101878643 10.750364311039446 11.630359262228014 47.142106145620346 9.032903239130972 27.400519207119942 22.880919627845287 10.266526378691195
leaf_count=12 4711 4125 16512 150 177 2569 14843 1402 338 4332 23233 2849 20 237 203 4921 267 21 201 384 39 111 32 20 89 22 83 66 27
internal_value=0 -0.00048325 -0.00180006 0.00121819 0.000187043 -0.00339366 0.00145674 0.00147068 -0.00418373 -0.00428292 0.00141283 0.00146988 0.00293306 0.00262794 -0.00588465 0.00324036 0.00115282 0.0122227 0.00509008 -0.0129859 -0.018009 0.0178768 0.00922296 -0.00565167 0.0211722 0 -0.0232846 -0.0224167 -0.0176431
internal_weight=36431.6 31272.7 17638.8 13633.9 7842.99 9795.81 6084.37 1508.49 1758.62 8287.33 13501.6 13473.4 5158.84 5001.64 330.661 4670.98 2204.33 157.201 2466.65 226.57 132.338 120.699 104.09 36.5017 109.081 30.132 102.206 28.1846 21.8969
internal_count=81996 70752 44298 26454 19483 24815 15020 3971 4463 20844 26160 26082 11244 10956 856 10100 4978 288 5122 587 294 220 269 68 200 61 233 78 47
is_linear=0
shrinkage=0.03


Tree=23
num_leaves=30
num_cat=0
split_feature=27 24 24 50 53 26 53 43 53 47 30 24 53 30 53 18 49 50 53 18 18 43 24 44 53 45 24 26 17
split_gain=54.8582 78.3453 68.0947 55.7072 59.7367 46.55 37.3588 36.764 43.775 35.5554 32.437 32.4331 31.844 32.3847 47.1979 29.6299 29.388 28.9626 26.3855 26.0439 22.8611 21.1422 20.784 20.2232 18.3631 14.344 4.56309 1.32671 0.504925
threshold=6.7996282722700697e-05 -0.37940952255126009 0.78656609248549303 -0.015870431999999997 -0.0077393928499999995 0.81174490092936691 -0.047537983999999998 0.0016281686489317503 -0.047537983999999998 -0.037508663332643695 0.0024047600734631506 0.98296291314453432 0.030713892500000003 0.0010494492105940503 -0.028690199999999996 0.0017090744603384502 0.68941435000000018 -0.0030859152499999997 -0.0092906534999999974 -0.0045112750297388489 0.0015236962705999003 0.0018075808024367501 -0.78656609248549325 0.00030064978048665003 0.033774876500000002 0.0011084497115865504 -0.78656609248549325 1.0000000180025095e-35 -0.34338742150165563
decision_type=2 2 2 2 2 2 2 2 2 2 2 2 2 2 2 2 2 2 2 2 2 2 2 2 2 2 2 2 2
left_child=2 5 3 7 18 6 26 22 -9 -8 -6 19 13 17 -15 25 -17 -3 -5 -4 -21 24 -1 -23 -7 -14 -2 28 -13
right_child=1 12 11 4 10 21 9 8 -10 -11 -12 27 15 14 -16 16 -18 -19 -20 20 -22 23 -24 -25 -26 -27 -28 -29 -30
leaf_value=0.028677245122878382 -0.0058250769564734987 -0.0064164006724846418 -0.028781591282482259 -0.00112864304363914 0.0021039550136904084 -0.0067356148685454205 -0.0038706221861210927 -0.014343750625360755 0.017857859200493639 0.0035232309916438335 -0.013404321300929925 -0.0004837305648852263 0.034212468016002105 0.0066821802766985523 -0.0077789263229310701 -0.015429671373354463 0.015559526866872408 -0.0012109775388058853 -0.0083872468990025331 -0.0018153451780950599 -0.012547002548537198 0.018655757568345949 -0.0075304728295966274 -0.017444953748690723 0.020223510054576805 0.0028336266016200417 -0.030756024824041217 -0.0081957688772095194 -0.02878093933970453
leaf_weight=13.040504485368727 14.469919130206106 1232.866563655436 35.462263979017735 3798.8080360218883 15560.085430905223 898.27031783014536 668.49845284223557 38.725616537034512 395.62148510664701 4414.8494985848665 118.88421641290188 2.8814635574817649 43.593188613653183 218.7529244273901 2248.1374618709087 54.784852795302868 49.502257458865643 4458.4274598807096 511.5578625574708 1119.0741576328874 212.5791851952672 57.115500509738922 116.76103155314922 14.803813375532625 19.96102973818779 22.109613582491875 29.974649459123611 11.47645418345928 52.242074757814407
leaf_count=20 21 3003 66 8083 34605 1842 1379 77 795 8493 292 9 91 447 6094 123 96 10825 1222 3059 638 124 238 38 34 70 41 26 145
internal_value=0 -0.00143586 0.000943674 0.00138603 0.00112111 0.00113785 0.00229205 0.0106642 0.0148395 0.00254328 0.00198191 -0.00536657 -0.00332986 -0.00360146 -0.00647787 0.00936776 -0.000416555 -0.00234665 -0.00200229 -0.00431265 -0.00357533 -0.00479821 -0.00310132 0.0104234 -0.00605305 0.0246747 -0.0241531 -0.0254513 -0.0279192
internal_weight=36433.3 14446.1 21987.2 20553.5 19989.3 6117.94 5127.79 564.149 434.347 5083.35 15679 1433.72 8328.17 8158.18 2466.89 169.99 104.287 5691.29 4310.37 1367.12 1331.65 990.151 129.802 71.9193 918.231 65.7028 44.4446 66.6 55.1235
internal_count=81996 32721 49275 45332 44202 11972 9934 1130 872 9872 34897 3943 20749 20369 6541 380 219 13828 9305 3763 3697 2038 258 162 1876 161 62 180 154
is_linear=0
shrinkage=0.03


Tree=24
num_leaves=31
num_cat=0
split_feature=62 43 53 30 53 53 17 41 51 7 44 53 26 49 30 6 46 43 25 0 51 35 53 6 43 36 28 53 2 27
split_gain=154.669 76.2438 44.2359 52.0211 29.6423 27.9287 11.6101 10.6447 8.30827 7.9358 8.26094 7.02808 6.93006 6.22086 5.85074 5.78692 5.14075 4.64167 4.31079 4.45302 4.19899 3.8739 3.66831 2.34687 1.55906 1.34387 0.914843 0.621622 0.45698 0.376851
threshold=1.0000000180025095e-35 0.0011644859412878004 -0.023026060999999997 0.0011591995818152504 0.019249886500000004 0.023320043500000002 0.0068273284822553014 0.0025655663216373505 0.58532860000000009 -0.00028207099663189993 0.00011897179424020001 -0.012680951999999999 0.81174490092936691 0.63436957500000013 0.00082639829665875008 -0.0013906856984122998 0.00048461732434625001 0.0012440216941476503 0.6078576107927941 -0.0027676871702600994 0.64309002500000012 0.0017900987857834003 -0.038727374999999994 0.0019661782967351003 0.00089829009066510015 9.1042348140647035e-05 0.0024002566952146501 0.0037341264500000003 0.14035087719312769 0.00046538500490030007
decision_type=2 2 2 2 2 2 2 2 2 2 2 2 2 2 2 2 2 2 2 2 2 2 2 2 2 2 2 2 2 2
left_child=1 6 8 4 -4 -5 9 12 22 10 -1 16 23 -10 -11 -13 -8 25 19 -9 -19 -21 -3 24 -2 -14 27 -20 -28 -25
right_child=7 2 3 5 -6 -7 11 18 13 14 -12 15 17 -15 -16 -17 -18 20 26 21 -22 -23 -24 29 -26 -27 28 -29 -30 -31
leaf_value=0.01437802953097018 -0.011222931077519831 -0.010895339946166436 0.0027166726428509806 0.0090349376442770482 -0.0040277941499389557 -0.00060091666978254557 0 -0.00076900950598444019 0 -0.0012680091876528499 -0.00519600856060147 0.010617367099612038 -0.008226367552249203 0.033631424359690812 0.0047687688411605774 -0.0028141360302577304 -0.0095646557844072371 -0.0015062110370573677 -0.0097782134191456045 0.035365284993369175 0.013540090419712523 0 -0.0046451606284104597 -0.00071425189893418019 -0.008469878818522689 -0.0027687271134407996 0 0 0.008856545275264539 0.0061235630333710831
leaf_weight=63.664278365671635 382.34901297092438 125.76212027668953 5281.7470589727163 1721.5781748667359 653.73838821053505 313.86204579472542 59.929401502013206 5.529351785779002 18.395609237253669 1008.4607727378607 22.858610387891531 25.41455464810133 130.86261482164264 4.6400019265711299 164.70122762769461 2552.1738447919488 236.50005232170224 63.219032224267721 8.4368664063513332 7.4501331150531751 18.459861315786839 3.6374785527586937 391.28034148737788 4.048713266849516 1183.8450411707163 94.513764709234238 2.0599345602095109 10.091128643602131 6.0903170444071293 7.5414825528860092
leaf_count=464 1736 563 31107 11230 3377 1718 343 27 105 5510 109 179 625 57 1011 13703 1093 346 32 85 139 20 2013 19 5711 509 9 57 46 53
internal_value=-6.20231e-07 0.00120475 0.00282944 0.00339516 0.00196712 0.00753569 -0.00213274 -0.00791057 -0.00543743 0.000246559 0.0088708 -0.00318518 -0.00825707 0.0108104 -0.000384992 -0.00265789 -0.00759745 -0.0039037 0.00608391 0.0168668 0.00189928 0.0260822 -0.00627718 -0.00907629 -0.00918126 -0.00613545 -0.000647617 -0.00498072 0.00520211 0.00202306
internal_weight=14572.8 12644.7 8511 7970.93 5935.49 2035.44 4133.7 1928.13 540.078 1259.68 86.5229 2874.02 1884.84 23.0356 1173.16 2577.59 296.429 307.055 43.2952 16.617 81.6789 11.0876 517.042 1577.78 1566.19 225.376 26.6782 18.528 8.15025 11.5902
internal_count=81996 72582 50170 47432 34484 12948 22412 9414 2738 7094 573 15318 9138 162 6521 13882 1436 1619 276 132 485 105 2576 7519 7447 1134 144 89 55 72
is_linear=0
shrinkage=0.03


Tree=25
num_leaves=31
num_cat=0
split_feature=10 23 8 26 44 4 50 45 50 48 40 23 51 4 50 44 17 44 48 26 50 18 23 23 21 50 47 26 51 44
split_gain=54.3964 60.4408 29.4013 39.2694 39.159 30.6401 29.9545 28.6896 45.3963 37.9345 37.0876 31.5336 25.6166 24.4398 18.4063 15.6348 15.3286 31.588 22.6786 18.9903 18.5964 21.6444 19.1012 17.0432 25.0844 26.1943 21.9688 19.8461 18.7195 10.2166
threshold=0.82526618994424783 -0.9159756150367534 0.0025093445485113506 1.0000000180025095e-35 0.00013005146187000002 0.59095951380138689 0.0010114124500000003 0.00046710872989965004 0.0014778141500000001 -0.0046040434999999992 0.27448325215637254 0.91597561503675362 0.64712968500000012 0.15714836648118199 0.0030418909000000005 0.00015717562619645004 -0.037020686291800893 0.00025548811394560008 0.0067622121000000006 -0.22252093395631442 0.0016792305000000003 0.00082086046244160007 0.37940952255126054 -0.9159756150367534 0.0021137591163946003 0.015088895000000001 0.54718158646226323 1.0000000180025095e-35 0.83251660000000005 0.00012711840372250002
decision_type=2 2 2 2 2 2 2 2 2 2 2 2 2 2 2 2 2 2 2 2 2 2 2 2 2 2 2 2 2 2
left_child=1 2 4 15 5 -1 -5 8 9 -3 13 -12 -6 -9 -10 -4 17 20 -19 -20 21 -2 -22 26 25 -25 28 -26 -18 -28
right_child=16 7 3 6 12 -7 -8 10 14 -11 11 -13 -14 -15 -16 -17 23 18 19 -21 22 -23 -24 24 27 -27 29 -29 -30 -31
leaf_value=-0.0041196164964792184 -0.0013119715078304609 -0.0017297609469543126 -0.0043042316729110502 -0.0085445426197703536 -0.00047763523553759286 0.00047671199445352603 0.021925071505214555 0.01111920340116835 -0.0096135212545522958 0.0065310049294119484 0.00068637320987211903 -0.0062350428681527022 0.0062717608151512654 -0.00594226530126221 -0.00018389685895821951 -0.022026172893502709 0.0071549795559485048 0.02014398656922824 0.0157308226989754 -0.012488531375007741 0.0013022393396578246 -0.021236118098399287 -0.014199049355918687 0.0025546202404810609 -0.0015570907458567099 0.015793662836734442 0.0063195106530002688 -0.022179857020794287 -0.0046213921267975024 0.030747494727268683
leaf_weight=5990.2533267959952 116.88844399899244 634.18293678015471 67.899556778371334 68.106090687215328 2718.6972346007824 1653.5335698276758 45.524418853223324 76.670792490243912 261.29509466141462 2258.9296902567148 14208.401734769344 614.65313079208136 617.23051859438419 1220.7286653295159 654.89924179762602 177.58987323194742 949.03629289567471 106.29256294667721 33.814575128257275 48.245307601988316 784.09067461639643 86.775035157799721 75.669582858681679 2388.8907440602779 162.96133572608232 141.0044838860631 30.133106648921967 55.666756138205528 133.94745008647442 46.954661384224892
leaf_count=14889 297 1332 161 201 6984 4100 117 142 552 4566 29836 1823 1397 2781 1354 517 2152 236 82 131 1918 198 170 4784 388 267 80 140 314 87
internal_value=9.84438e-08 -0.000470098 -0.00221894 -0.0106499 -0.00193761 -0.0031216 0.00365541 0.000523565 0.00286407 0.00470993 -2.80717e-05 0.000396143 0.000766701 -0.00488761 -0.00292843 -0.0173564 0.00285362 -1.20209e-05 0.0111874 -0.000362745 -0.00204967 -0.0101313 -7.19236e-05 0.00377835 0.00246958 0.00332218 0.00683903 -0.00717254 0.00566207 0.0221678
internal_weight=36429 31268.6 11338.8 359.12 10979.7 7643.79 113.631 19929.8 3809.31 2893.11 16120.5 14823.1 3335.93 1297.4 916.194 245.489 5160.37 1251.78 188.352 82.0599 1063.42 203.663 859.76 3908.59 2748.52 2529.9 1160.07 218.628 1082.98 77.0878
internal_count=81996 70752 28366 996 27370 18989 318 42386 7804 5898 34582 31659 8381 2923 1906 678 11244 3032 449 213 2583 495 2088 8212 5579 5051 2633 528 2466 167
is_linear=0
shrinkage=0.03


Tree=26
num_leaves=29
num_cat=0
split_feature=48 24 53 30 61 23 53 18 53 23 53 28 30 27 30 49 53 23 40 44 26 53 6 60 49 30 49 36
split_gain=55.9169 54.5798 37.2397 32.4013 32.1435 37.6095 32.1155 33.2248 43.872 39.1378 32.9041 30.8155 30.3764 29.1903 23.7745 35.6792 29.5306 21.3164 21.0618 14.0548 13.4961 9.55147 5.23852 5.14132 8.86858 4.9611 4.44011 1.88121
threshold=0.0034740310000000003 0.98296291314453432 -0.0073837891499999994 0.0024047600734631506 0.0055770290473911507 0.12940952255126043 0.0075901298000000004 0.0041799158927010504 0.018492695000000003 0.78656609248549325 0.0070790813500000013 0.0010453810193794503 0.0025663259136055002 6.7996282722700697e-05 0.0010223323860787002 0.53071820000000014 -0.0031738215499999994 0.37940952255126054 0.76540184374186948 7.1046951881395575e-05 1.0000000180025095e-35 0.033774876500000002 0.00065952864672960015 0.0023447112697169508 0.82656380000000007 0.00094004487987630009 0.78396442000000011 0.00102347865023625
decision_type=2 2 2 2 2 2 2 2 2 2 2 2 2 2 2 2 2 2 2 2 2 2 2 2 2 2 2 2
left_child=1 2 4 13 12 -6 10 8 9 -8 14 19 -1 -4 16 -16 -2 -5 -10 -9 22 -13 27 26 -25 -22 -12 -3
right_child=6 20 3 17 5 -7 7 11 18 -11 23 21 -14 -15 15 -17 -18 -19 -20 -21 25 -23 -24 24 -26 -27 -28 -29
leaf_value=-0.0016284022341897062 0.0032839787913419927 -0.029975315659842568 0.0019994796005764624 -0.020388849741742134 0.0077288158088775335 -0.0091363798659977059 0.0043309412414509292 0.023287551054556033 -0.008049595215862914 -0.015207836129824341 0.0074640040538669948 0.012313835404055184 -0.020034992259772042 -0.00030385594205415019 0.022387773631169082 -0.0081335711086194269 -0.004850089653459325 0.0085138730489589566 0.001791589385185431 -0.018960532550660405 -0.010901222693781158 0.032345668805421474 -0.0015047473733786169 -0.030672766737314557 -0.006448942823214788 0.014923258889270239 -0.016523509545366504 -0.009564769167073793
leaf_weight=6991.2856190949678 627.72930667549372 67.80732112377882 15614.296459503472 97.157238356769085 632.66161888092756 142.28671777248383 1134.3318948000669 5.8396424055099478 784.3465553149581 96.971930779516697 9.2364528402686137 64.096950314939022 78.999194830656052 7219.1103272214532 32.131316259503365 1248.7495578080416 1091.6501136496663 26.287421934306622 253.05416774749756 28.840861365199089 10.653573729097845 44.703005433082581 10.714316383004187 59.930213399231434 24.174818776547909 9.7911306619644147 11.091829717159269 13.097106322646139
leaf_count=15247 1419 168 35145 291 1279 325 2587 10 1656 275 17 143 151 16429 59 3181 2586 64 502 77 25 78 33 130 44 22 29 24
internal_value=0 0.000496727 0.000574658 0.00118508 -0.00120751 0.00457038 -0.0027812 -0.000170743 -0.00107572 0.00273463 -0.00479762 0.0136628 -0.00184672 0.00126999 -0.00419628 -0.00729404 -0.00186245 -0.0139408 -0.00562195 -0.00976277 -0.0201196 0.0214598 -0.0249113 -0.0211946 -0.0245163 0.00051375 -0.00478019 -0.0274889
internal_weight=36431 30914.1 30802.1 22956.9 7845.23 774.948 5516.88 2412.19 2268.7 1231.3 3104.69 143.48 7070.28 22833.4 3000.26 1280.88 1719.38 123.445 1037.4 34.6805 112.063 108.8 91.6187 104.433 84.105 20.4447 20.3283 80.9044
internal_count=81996 69203 68931 51929 17002 1604 12793 5328 5020 2862 7465 308 15398 51574 7245 3240 4005 355 2158 87 272 221 225 220 174 47 46 192
is_linear=0
shrinkage=0.03


Tree=27
num_leaves=31
num_cat=0
split_feature=24 24 62 24 53 30 50 53 43 42 23 24 51 53 53 1 50 60 27 18 43 3 40 1 61 7 25 44 44 31
split_gain=434.702 78.4805 69.6354 63.5266 51.474 40.4192 37.2824 26.3478 23.1613 20.3851 13.5415 12.8972 16.815 10.5002 18.8977 8.96253 8.78672 8.0343 10.4129 7.66117 7.65246 6.20953 4.50344 3.9869 3.71071 2.96439 2.94115 2.40808 1.94156 2.53265
threshold=-0.12940952255126034 -0.37940952255126009 1.0000000180025095e-35 -0.9159756150367534 -0.021507561999999997 0.0010537237665097503 0.010991748500000002 0.026420248000000004 0.0012836448825735501 0.0020071865684613507 0.37940952255126054 0.37940952255126043 0.45236854500000007 -0.013200456499999997 0.0053078024500000012 0.0010347973734272002 -0.011661310499999999 0.0011344369897136003 0.00024999186142160009 0.0010202464013056003 0.0019210615975631003 1.0117928825945866 0.75665348138623989 0.00049435016131355015 0.0097685158936336516 0.00018832390248580005 1.0000000180025095e-35 0.00037615688862270005 0.00011977315839395001 0.00011203614283485001
decision_type=2 2 2 2 2 2 2 2 2 2 2 2 2 2 2 2 2 2 2 2 2 2 2 2 2 2 2 2 2 2
left_child=1 3 4 17 11 6 -6 -7 21 10 -5 12 -2 22 -15 28 -11 19 -19 -1 26 23 -10 -3 -13 -23 -17 -22 -4 -30
right_child=2 8 15 9 5 7 -8 -9 13 16 -12 24 -14 14 -16 20 -18 18 -20 -21 27 25 -24 -25 -26 -27 -28 -29 29 -31
leaf_value=-0.003391639790150123 -3.8321920838491824e-06 0.011114956049371648 0.0012645225294234995 -0.0089864466948702832 0.0074930092330393874 0.014126519346345812 -0.0026111842893829233 0.00040843369367063562 -0.005229677712538904 -0.010700045720533484 -0.0044035603738871998 -0.0082132613592961808 0.03060172471537858 0.006355201382889801 -0.00071935052336380954 -0.0027216599914714167 0.0011790360026338012 0.0055931656672170938 -0.0031702487193935548 0.0074094028712280019 0 -0.0068649175777407952 0.015847317140599788 -0.0016655932940058114 0.0077529874345173538 -0.0010197452241911514 -0.0081694169475044799 0.013612675540213061 0.023794861587938192 0
leaf_weight=549.37503565475345 104.53250262513757 19.298052173107862 17.422700654715303 3725.086152959615 3272.5218350104988 1185.1205019317567 359.13185706362128 146.22217648103833 182.34647041559219 64.719862308353186 731.34870459884405 236.23702364042401 15.705815013498066 779.39572433382273 587.49222641438246 163.37702793255448 310.05824655294418 374.99675107747316 173.14886888861656 61.905350785702467 19.23856345936656 406.2948982603848 6.1016975231468669 637.55911784991622 9.6376996152102929 113.54443313553929 287.08412087336183 19.4508356153965 10.755007501691578 3.1222003437578669
leaf_count=2899 573 139 104 17957 20697 8271 1882 811 903 287 3823 1134 151 4855 3225 875 1788 2343 913 404 106 1995 53 3467 69 628 1386 144 99 15
internal_value=-6.32745e-07 -0.00424535 0.00632275 -0.00616625 0.00734755 0.00815 0.00648423 0.0126466 -2.01986e-05 -0.00767891 -0.00824454 -0.00342691 0.00439813 0.00236948 0.00329772 -0.00409524 -0.000861613 0.000114601 0.00276835 -0.00221812 -0.00514963 -0.00320226 -0.0041529 -0.00119582 -0.00738097 -0.00565876 -0.00629081 0.00691414 0.0105171 0.0180664
internal_weight=14572.2 8722.67 5849.56 5990.64 5329.11 4963 3631.65 1331.34 2732.03 4831.21 4456.43 366.113 120.238 1555.34 1366.89 520.45 374.778 1159.43 548.146 611.28 489.151 1176.7 188.448 656.857 245.875 519.839 450.461 38.6894 31.2999 13.8772
